437 437
plane 4.260883 -10.541399 3.3271618 -3.0447788 3.4223626 -1.0497243 3.1517272 -3.304099 3.4151402 -2.623786 2.650662 -5.015131 0.7928412 -1.5600594 1.3220978 -4.707029 2.1297526 -0.24241377 0.97107214 -2.0328505 0.27838194 -1.3577901 0.57380617 -1.4895993 1.9023361 -0.8631585 1.3089653 -2.6494615 1.9399257 -0.14801434 1.5633583 -2.6030738 0.3958494 -0.67710745 1.8667018 -1.8080353 0.9556011 -2.6335492 2.8305404 -0.7838373 0.8923997 -1.2902734 0.84551746 -1.9830148 1.8943492 -0.3242491 1.0972081 -1.3015383 0.91649723 -1.4323819 1.0951788 -1.0040907 0.51126236 -0.6756021 0.85164285 -0.07954622 2.3417869 -1.8643157 0.64330995 -11.468525 1.7516514 -0.6584793 0.14536187 -0.38430107 0.5160471 -1.6415608 0.37999102 -0.61786485 0.80693334 -0.9888149 0.65444183 -0.75571376 0.8655361 -1.4608848 1.4023174 -0.85419965 0.61333853 -0.5766544 0.81641823 -0.9647161 1.2819191 -0.68697816 1.2005534 -0.9283036 1.4974885 -0.857141 1.685035 -0.11587979 -0.9160409 -1.0722691 0.61805505 -1.6353407 1.0534047 -0.18246293 0.844039 -0.6907807 2.1383955 -0.50656545 0.64922714 -0.43471813 1.0942343 -2.024994 0.13967948 -3.5072076 0.75717014 -2.3420208 0.93457097 -0.4827856 1.0742553 -1.2136995 2.0135467 -0.9279832 1.7290741 -6.387467 0.6120463 -1.8132222 2.4884882 -1.9685001 3.850066 -0.490872 0.62242633 -3.6503289 1.0744501 -3.624619 36.82581 -0.15440992 1.3972727 -0.49440643 0.62549335 -1.2903459 6.243576 -2.0688887 0.95256823 -4.3448052 -8.30014 -52.157017 1.7966555 -9.384315 1.7644097 -5.305656 0.0014042513 0.8789054 6.052084 -5.9145164 1.501743 -1.7236516 10.567787 -1.9656956 1.5902597 -4.720388 8.941 -19.28128 7.5016103 -1627.7092 656.9339 -9.548938 13.591117 -15.517831 5.861379 -10.380985 6.330991 -10.138254 6.126918 -4.815155 5.7173963 -1.6290532 2.0213985 -2.3071606 1.412197 -5.354146 34.971447 -2.1498666 0.7430028 -2.0943198 0.5848308 -0.963177 1.1885571 -1.0603708 1.260338 -1.180736 0.8894102 -1.3451638 1.3235973 -0.5911288 0.23859142 0.6666132 0.39567414 -0.25891557 0.5307637 -0.957917 0.2902867 -0.47534093 0.49229673 -0.4233824 -4.173195 -0.14067926 0.22041608 -1.4586408 1.6423997 -0.8375015 0.21817541 -0.13643849 0.20140377 -0.30626747 0.08267301 0.4766854 0.15691511 -0.05931631 0.093555 -0.07437225 0.3122786 -0.06435634 0.06164842 -0.3013818 0.06328315 -0.05407716 0.24974649 -0.16726533 0.041335896 -0.04712086 0.29966858 -0.030692551 0.09817462 -0.18708661 -0.10123246 -0.17224665 0.055714466 -0.17413144 0.2945839 -0.10948154 0.031967662 -0.042916145 0.0827573 -0.07073044 0.026473342 -0.05354981 0.32128748 -0.14137171 0.12796433 -0.15882571 0.030183593 -0.191421 0.11528778 -0.124796934 0.030927926 -0.093052484 0.055856936 -0.064035006 0.034754056 -0.04059314 0.027833117 -0.022553576 0.022494338 -0.090382524 0.0384418 0.028604973 -0.0016685667 -0.026512336 0.030805748 -0.017668633 0.03356509 -0.019425848 0.031635236 -0.06620507 0.051784925 -0.103953436 0.04433242 -0.03668589 0.011092115 -0.016369723 0.050968334 -0.029788814 0.02006446 -0.011545753 0.07151358 -0.042067956 0.017618267 -0.03699906 0.26801103 -0.009772092 0.012884978 -0.007623865 0.012842062 -0.030128282 0.011119721 -0.011419196 0.02052849 -0.005369365 0.0071104895 -0.015230883 0.006759161 -0.0078002186 0.0073261256 -0.0074183154 0.008119719 -0.00751488 0.00650425 -0.0064582145 0.0084846495 -0.008346591 0.0077010803 -0.007011314 0.0045881514 -0.0052301744 0.011626183 -0.028517203 0.03648555 -0.01748762 0.006587954 -0.008562046 0.0047439975 -0.014822432 5.154454E-4 -0.0060081165 0.006397656 -0.0042497744 -0.012102424 -0.0039454284 0.017345201 -0.004439385 0.015737316 -0.0062103635 2.8118704E-4 -0.013674437 0.0030798195 -0.0055255624 0.007801144 -0.0029805945 0.0010701845 -0.003937643 0.002111159 -0.001490796 0.002193271 -0.006940267 0.0029025923 -0.008125905 0.0023400148 -0.0016240212 0.0021001103 -0.0012656465 6.7516696E-4 -0.006258288 0.0014217602 -0.002091209 0.0015538427 -0.001374093 0.001602312 -4.7079648E-4 7.437059E-4 -0.0011102081 0.0012743195 -0.005444794 9.349105E-4 -6.5915403E-4 9.79078E-4 -7.726852E-4 8.567867E-4 -7.976885E-4 7.822655E-4 -0.0013665486 4.0721154E-4 -3.6003755E-4 0.0038345498 -4.4589036E-4 2.5020665E-4 -3.6252767E-4 0.00661164 1.9468968E-4 3.829196E-4 -6.525695E-4 1.751359E-4 -2.9250683E-4 3.7760733E-4 -0.00208694 6.244631E-4 -2.8955276E-4 2.7444167E-4 -2.3126429E-4 1.6618319E-4 -2.4782168E-4 1.4894833E-4 -2.8608367E-4 1.2128908E-4 9.7130996E-4 3.175457E-4 -0.0049458067 0.0070877187 -9.167436E-5 2.9330524E-5 -0.005932978 3.5548037E-5 0.0017250128 1.6132454E-4 -1.0612761E-4 3.97497E-5 -6.321962E-5 1.9809772E-6 -6.2456376E-5 3.8656475E-5 3.9663522E-5 9.833375E-5 -8.157396E-5 1.00461875E-5 1.2388766E-4 2.6066558E-4 7.021464E-5 4.9439615E-5 9.293943E-4 0.019259525 -1.0336304E-5 -2.1195616E-5 -7.4245227E-6 -8.151352E-7 -5.6702283E-6 4.1824287E-6 6.829983E-6 8.0327146E-7 8.21217E-6 -5.2292556E-28 1.1948832E-28 -1.9456513E-28 7.7875013E-29 -1.6933584E-28 2.718258E-29 -5.4418E-30 2.2026263E-30 -2.6958889E-30 1.5295905E-30 -2.4996094E-30 6.097417E-31 -1.4422447E-31 2.2136597E-31 -9.7460225E-32 4.9129257E-32 -1.2561878E-32 1.6821891E-32 4.5730135E-36
stupid 0.5818067 -3.983893 0.3313348 -0.73560506 0.43125725 -0.086538255 0.23100808 -0.48322183 0.34367862 -0.73484373 0.7358303 -0.42692584 0.2461175 -0.04460606 0.4245093 -0.3468745 0.090380415 -0.07338242 0.6716545 -0.091862746 0.08317311 -0.22601736 0.13696814 -0.20634091 0.18565463 -0.31211334 0.5316372 -0.43961936 0.05518829 -0.08446654 0.15507999 -0.800661 0.013619177 -0.19568905 0.55844414 -0.8316433 0.16615677 -0.15025754 0.05871864 -0.076113254 0.06674849 -0.17053756 0.08727616 -0.25517684 0.104020275 -0.10937171 0.056119997 -0.6168113 0.103384614 -0.20084226 0.2633719 -0.1324749 0.0830217 -0.2500975 0.20771813 0.068196245 0.1813705 -0.064834006 0.10046057 -0.10750024 0.18616019 -0.3173738 0.22264993 -0.2354738 0.044942502 -0.34238926 0.0328544 -0.117900476 0.20032395 -0.11370344 0.1150009 -0.09445772 0.07825583 -0.16992533 0.046585694 -0.06422383 0.070029676 -0.17120762 0.16182956 -0.2465787 0.081844434 -0.08792266 0.14111492 -0.022391869 0.27945355 -0.043016523 0.12514374 -0.13001738 -0.045843918 -0.07210986 0.072252005 -0.13172053 0.2967954 -0.08818863 0.039982114 -0.08012971 0.07804179 -0.054248024 0.23627107 -0.014242466 0.19125785 -0.10103213 0.008247257 -0.073508345 0.155452 -0.118519984 -0.008159721 -0.111256965 0.14790644 -0.10152463 0.061551232 -0.19966479 0.24588414 -0.090682864 0.15246435 -0.083340235 0.041740313 -0.1003522 0.21170226 -0.11412766 0.026054757 -0.07317469 0.10417696 -0.08625887 0.2643466 -0.24269551 0.14177336 -0.113038965 0.03190313 -0.0433727 0.08725651 -0.11434011 0.078483865 -0.14928214 -0.101034544 -0.04227066 0.04587465 -0.059749387 0.14551754 -0.083112225 0.044120897 0.052256852 0.2651277 -1.1587851 0.044079065 -0.02938306 0.03280009 -0.03272322 0.27030107 -0.068321064 0.109215066 -0.22658905 0.029125528 -1.1353408 0.36837474 0.02650671 -0.06267219 0.06441054 -0.16656074 0.23682125 -0.05216757 0.13142893 -0.07592192 0.3671619 -0.45770064 0.01066702 -0.02541774 0.02413283 -0.06057932 0.2787408 -0.0105487965 0.0659155 -0.06329142 0.15587862 -0.06151449 0.03443807 -0.045668587 0.049158543 -0.077589504 0.1196813 -0.034663342 0.0909379 -0.30269775 0.057117544 -0.14444949 -0.0916374 -0.044072963 0.048697297 -0.08362694 0.2723415 -0.06417904 0.05068822 -0.13272193 0.22104344 0.02740865 0.12109695 -0.3546183 0.23197724 0.04780815 0.070080005 -0.11862536 0.068693094 -0.054883856 0.05982493 -0.069680706 -0.05793525 -0.11604593 0.0645995 -0.063419685 0.10661865 -0.13138731 0.266526 -0.06565625 0.10269223 -0.08106734 0.20557484 -0.18548067 0.7513143 0.6360093 -0.059021987 -0.077751905 0.04002923 -0.06527433 0.105360165 0.17902987 0.33476046 -0.06482817 0.11247177 -0.084413946 0.07010059 -0.062351763 0.068454966 -0.08127872 0.110002525 -0.039856095 0.06646148 -0.21263559 0.041474123 -0.08288958 0.49521035 -0.06977376 0.091835655 -0.22103962 0.057942808 -0.092501365 0.13018514 -0.124514036 0.06369932 -0.45198172 0.13037634 -0.102680996 0.08797587 -0.1182692 0.15244704 -0.03998854 -0.17039385 0.0024405767 0.14332406 -0.2527503 0.16681917 -1.1907736 0.11511427 -0.21867281 0.17890374 -0.17472613 0.49607366 -1.6274898 0.11815353 -0.12797573 0.3800336 -0.25546965 0.18715937 -0.3234952 0.3151189 -1.085212 0.5707726 -1.8062146 7.3158283 -396.98145 -1.5787613 2.2372677 -0.8335237 0.9563896 -0.46033707 0.3281263 -1.1672899 0.2987819 -0.0768261 0.18594348 -0.32303894 0.15760483 -0.1290525 0.1681995 -0.12663947 0.16989794 -0.14415884 0.13623105 -0.0858104 0.26949343 -0.12223979 0.103189684 -0.37240642 0.04321212 -0.058186747 0.05533216 -0.07499129 0.033928964 -0.001706754 0.044840496 -0.0673832 0.053227864 -0.043957755 -0.028135434 -0.046249073 0.052920673 -0.033965625 -0.05723998 -0.039671887 0.049912915 -0.030618522 0.027973847 -0.0475135 -0.0017318124 -0.025295006 0.021995522 -0.028203871 0.01611398 -0.023822641 0.014610372 -0.031364094 0.010214648 -0.014103016 0.011539319 -0.017106548 0.010789721 -0.011013479 0.014490186 -0.007489448 0.011041983 -0.005213026 0.0023204023 -0.0058587943 0.0077918395 -0.012390754 0.0099888975 -0.008851312 0.009493061 -0.003399928 0.0045017414 -0.0074219136 0.005655384 -0.0061813607 0.0043801647 -0.0047507104 0.0052213697 -0.0032753688 0.0042811544 -0.032987956 0.0065768613 -0.0057554287 0.0018923245 -0.003878149 0.0040462716 -0.0029210767 0.0015563384 -0.008469985 0.07848589 0.002740527 0.008238146 -0.0052798805 7.516637E-4 -0.0023711862 0.0025862576 0.001377587 -0.030858519 0.0011770343 0.0012993708 -0.001807581 0.0011895252 -4.899857E-4 0.0013556504 -0.0025135635 -4.6816596E-4 0.011750138 0.0012145729 -0.017857907 -0.0030734825 5.259719E-4 4.1583023E-4 -0.004474666 -1.7616771E-4 0.002219657 1.6846125E-4 -2.6642537E-4 3.0282066E-5 1.848499E-4 5.942166E-5 -1.8633255E-4 2.5279023E-4 1.9262591E-4 -3.151265E-4 -1.8609272E-4 2.2234248E-4 1.5122959E-4 -3.0646122E-5 8.4953215E-5 -1.9213477E-4 -2.780035E-4 -0.0033919024 1.4860187E-4 -1.6458509E-5 -1.4583622E-5 -8.162807E-6 -3.862921E-5 -8.579264E-7 1.017837E-5 9.221804E-6 -1.3764686E-4 1.6792015E-26 4.8988563E-27 1.1926339E-26 8.49541E-28 -2.6409848E-27 -2.154904E-28 -3.895607E-28 -3.9457053E-29 -1.3263207E-28 -4.4373766E-29 -2.0425211E-29 2.1831284E-29 4.68006E-30 -4.7254004E-30 -3.479851E-30 5.948089E-30 3.174955E-31 3.9037915E-30 -1.17833515E-32
egg 0.8579444 -0.684568 0.19325136 -0.39486217 0.117690474 -0.22396319 0.38471895 -0.1858515 0.32729405 -0.3235821 0.63012147 -0.6905973 0.42793882 -0.1120741 0.1887755 -0.38153458 0.10458764 -0.042094745 0.2626579 -0.22826816 0.20190144 -0.107256785 0.46653968 -0.34778082 0.71404636 -0.12876168 0.08684348 -0.560306 -0.04901348 -0.09501263 0.06625717 -0.15653375 0.0029382023 -0.057928324 0.0485193 -0.07407508 0.5423696 -0.2945618 0.016394384 -0.4290674 0.09882537 -0.022974908 0.28996372 -0.16295432 0.17908983 -0.024044052 0.047813077 -0.056435358 0.08353499 -0.51793313 -0.07729222 -0.052403513 0.17276229 -0.42229894 0.2626469 -0.26589552 0.16719076 -0.49551195 0.13625471 -0.17225842 0.23584634 -0.15990558 -0.020934919 -0.18054572 0.0370565 -0.19601797 0.046044607 -0.06472564 0.04156976 -0.21599708 0.03597468 -0.09678991 0.066548206 -0.08356569 0.046350505 -0.06662446 0.059159294 -0.05639829 0.09075147 -0.0680382 0.1643777 -0.06613482 0.20801997 -0.09288607 0.18021746 -0.10740512 0.34805524 -0.8320718 0.027361065 -0.5551248 -0.003406427 -0.029110245 0.05105738 -0.038991183 0.09546455 -0.03125277 0.096442804 -0.12709036 0.2128367 -0.011618504 0.12967806 -0.27221617 0.1980207 0.033016015 0.15149286 -0.08170445 -0.015696643 -0.11566009 0.14747208 -0.025393948 0.032961085 -0.058539733 0.052248493 -0.03424067 0.037339486 -0.08450694 0.023131201 -0.09414267 0.12287732 -0.043846592 0.053571258 -0.04286693 0.034581166 -0.05943631 0.047362685 -0.040449437 0.039553225 -0.04310363 0.025616683 -0.041060723 0.12825605 -0.042572778 0.04025631 -0.039695926 -0.064230174 -0.036937434 0.16072558 -0.044421084 0.04703311 -0.08244385 0.023606045 0.07907051 0.07185458 -0.14489616 0.15608905 -0.038604178 0.046154395 -0.16760786 0.049229436 -0.05269388 0.30756852 -0.081836164 0.03070689 -0.20880777 -0.3388038 0.06432431 -0.053820636 0.13229305 -0.1071542 0.21187241 -0.059646666 0.06968237 -0.3223916 0.06835012 -0.1905585 0.06706256 -0.027007036 0.08950997 -0.049069658 0.08337128 -0.18043905 0.09210465 -0.041286286 0.077454105 -0.11801506 0.11514571 -0.049898922 0.045727137 -0.15977226 0.043304324 -0.029100813 1.3412405 -0.038190324 0.038903862 -0.28366464 -0.19422367 -0.09891969 0.03845629 -0.5142288 0.038881913 -0.04722532 0.1326658 -0.055519946 0.057666097 0.031670768 0.03500109 -0.9064801 0.051752947 -0.018871956 0.04624958 -0.083836384 0.048338745 -0.034549292 0.068942994 -0.04826996 -0.03917673 -0.068703435 0.06363917 -0.20627713 0.095232375 -0.06728114 0.044375636 -0.060133915 0.10902331 -0.059132632 0.13442102 -0.2355482 0.51331955 -0.19320033 -0.039520707 -0.11847448 0.0134660695 -0.040272903 0.06478168 0.050498117 0.020317325 -0.048285365 0.13383268 -0.04415582 0.04317951 -0.06400531 0.04889022 -0.05038738 0.11264247 -0.032149423 0.042886656 -0.0824239 -0.009138765 -0.0024700083 0.20757823 -0.0383558 0.053252414 -0.088984296 0.03056704 -0.15772972 0.10064613 -1.4318876 -0.1698722 -0.093801685 0.0580545 -0.15254505 0.042990383 -0.049089685 0.05921576 -0.026933853 -0.07690804 0.0039321636 0.24404478 -0.08073603 0.05271526 -0.12492628 0.058324218 -0.078438275 0.062035505 -0.053364575 0.120105594 -0.061012562 0.04903617 -0.058195155 0.06373317 -0.062092707 0.06241091 -0.086754866 0.25924668 -0.07972282 0.28252536 -0.09644572 0.33211097 -0.09335984 0.08587744 -0.22459672 0.46459967 -0.08360371 0.061929192 -0.09656557 0.45938367 -0.17427287 0.1541764 -0.06973575 0.23305434 -0.06768173 0.07781241 -0.08478927 0.07842772 -0.08871901 0.08642094 -0.37317824 0.1304392 -0.19410826 1.314346 -0.17207406 0.25732216 -0.2599818 0.35212934 -0.76554525 0.86407745 -0.7592586 -0.009691197 -1.6952964 269.96326 6.169901 -0.6444055 -0.39567953 -0.61411524 0.63780725 -0.36612263 -1.9688432 -2.6988223 0.20520514 -0.1039314 0.08910047 -0.14300908 -0.0022602954 -0.07225619 0.067494094 -0.100326434 0.044213977 -0.05640104 0.037296366 -0.21907091 0.02745959 -0.024485795 0.037244458 -0.042629976 0.032195244 -0.024991142 0.34117723 -0.020204542 0.024212314 -0.010735556 0.0069963573 -0.0137089575 0.015532406 -0.023266437 0.1819156 -0.0127642555 0.090207726 0.029689655 0.02727941 -0.010467013 0.010529752 -0.013123547 0.008902106 -0.006795435 0.009181299 -0.0059806663 0.0076792827 -0.0072711767 0.00842385 -0.0064722137 0.003686187 -0.0035877319 0.0058100414 -0.0060243323 0.0018930787 -0.004649176 0.023311509 -0.0433136 0.0037750404 -0.0066626766 0.0022873858 -0.0039780727 0.0037375304 4.1997957E-4 -0.03555067 7.6626276E-4 0.002313617 -0.0021717458 0.0021853775 -9.474125E-4 0.0014682537 -0.004770555 -0.0019589497 0.027865821 0.001949832 -0.0095271515 -0.025287153 6.6676753E-4 8.1636873E-4 0.009652132 -4.7543438E-4 -0.002219745 3.6291033E-4 -5.273201E-4 1.3377653E-4 3.178452E-4 9.285776E-6 -2.9996547E-4 5.331612E-4 2.999433E-4 -1.9040293E-4 -2.081115E-4 2.569694E-4 8.020225E-5 -1.1951918E-5 2.905563E-4 -1.6489316E-4 -5.674427E-5 0.002437168 1.9745693E-4 -1.903E-5 -3.077331E-5 -2.8199809E-6 -3.1999418E-5 -3.3828244E-6 1.303201E-5 -5.477982E-6 2.609431E-4 3.940336E-27 3.0369962E-27 8.616562E-29 2.3030342E-27 3.8894047E-28 -1.1455217E-27 5.2821874E-28 1.6519485E-28 -4.792042E-28 3.6877952E-28 9.1137436E-29 2.8896468E-28 -8.5554105E-29 7.790319E-29 2.9482608E-29 8.216562E-29 -1.775236E-30 -1.7548899E-29 -3.6615824E-31
year 35570.61 3071.6406 -151.31294 124.28085 -51.886257 173.45462 -56.70806 31.710522 -40.234318 26.409328 -37.3161 19.447275 -14.684051 23.831955 -13.511278 19.379293 -4.413923 -8.688739 -9.880218 14.188978 -7.9747543 6.2259574 -14.876392 17.45849 -3.4598746 13.176805 -8.770709 10.530213 -1.0454817 11.566307 -8.701787 10.976132 -10.96281 1.1177764 -5.520542 6.58338 -4.4998107 4.700767 -1.9731015 5.7959695 -3.4546733 3.650868 -5.8965616 9.114786 0.07268594 2.4855642 -3.0429883 2.2610857 -4.184996 4.311671 -1.8473629 0.9672759 -3.8916728 1.4608115 -2.1930306 0.5303193 -2.5610306 1.2723389 -1.762473 1.6622013 -1.6335176 2.1676953 -0.24767907 2.1921387 -1.1226747 0.67813957 -1.5949355 1.1124719 -1.7784684 1.0110059 -1.4214133 0.66236514 -1.957492 0.8066425 -3.7354858 1.8853025 -1.2022895 0.832794 -2.078966 0.37041977 -1.4027195 0.9782454 -1.5549705 0.38771403 -0.91341794 1.2120575 -1.2088925 1.883586 0.12345301 1.4901884 -1.4498011 0.36134905 -0.3089437 0.15052363 -0.80737305 0.67738897 -0.55846506 0.6523824 -0.56874967 0.71730256 -1.151686 0.84050834 0.10973524 0.18001595 -0.4200786 0.7472505 -0.4117319 0.49796528 -0.76349866 0.28057763 -0.34550488 0.974387 -0.25741202 0.3380795 -0.25726122 0.54721683 -0.20958364 0.3867174 -0.4370173 0.23851185 -0.14488259 0.20259283 -0.45959032 0.3374152 -0.35659152 0.37356532 -0.16954765 0.27794605 -0.5907391 0.3935914 -0.5210783 0.4288889 -0.61490136 0.4234179 0.22213227 0.14397027 -1.6748072 0.28062698 -0.42040133 0.24740581 -0.114983544 -0.12736605 -0.22073403 0.21221174 -0.10101277 0.15136628 -0.32409796 0.19615129 -0.10657952 0.17087986 -0.30252764 0.26577294 -0.47764957 0.16293535 0.07924081 -0.34387848 0.18366815 -0.1830883 0.10846373 -0.19180775 0.17451538 -0.13222347 0.22096598 -0.11083697 0.1683281 -0.12813945 0.12862225 -0.13198416 0.18190336 -0.17832437 0.09240992 -0.34268215 0.05540581 -0.09379673 0.049954038 -0.06270349 0.10943038 -0.46427625 0.12516846 -0.06844481 0.73555744 -0.09094056 0.054309763 -0.057260185 0.06852905 0.08707904 0.029878806 -0.095334984 0.049934734 -0.10121756 0.07489992 -0.16922088 0.052490443 -0.034429565 -0.1323601 -0.059780963 0.03279374 -0.08020723 0.06320113 -0.085336775 0.085032634 -0.04575543 0.066306606 -0.05418433 0.022068124 0.011642878 0.04050307 -0.06836601 0.054548167 -0.054042783 0.03193443 -0.040514216 0.03877294 -0.02698716 0.05606708 -0.0168444 0.020832999 -0.058582246 -0.008743166 -0.050050948 0.021169515 -0.013285709 0.0467778 -0.060568187 -0.037939236 -0.013145852 0.020068357 -0.04347946 0.033036854 -0.02458508 0.027375976 -0.04334803 0.03307055 -0.014355385 0.17149664 -0.037545823 0.04350825 0.0195892 0.0041552 -0.0155493785 0.016790481 -0.016520193 0.0067455806 -0.013902431 0.016841402 -0.031498913 0.027382271 -0.03229497 0.029276641 -0.026618721 0.007268194 -0.016999444 0.021535898 -0.013465394 0.020511467 0.018724894 -0.009296482 -0.01774351 0.008997015 -0.00658363 0.010137984 -0.018795768 0.011089068 -0.014665336 0.009877605 -0.012490956 0.006139498 -0.008326187 0.0566298 -0.06344293 0.0063074087 -0.008975233 0.00945949 -0.0016911555 0.005482598 -0.011123028 0.014606159 -0.0019023397 9.3860476E-4 -0.013489315 0.0075459545 -0.007254314 0.00327326 -0.005752657 0.018158017 -0.0074392203 0.008533121 -0.0015070571 0.0015799194 -0.0055626864 0.0032526825 -0.0079549905 0.0015509354 -0.005633704 0.0023108094 -0.003245448 0.00588754 -0.014025933 0.008660642 -0.004391371 0.00425771 -7.459877E-4 0.0027550596 -0.004035499 0.005180256 -0.003872301 0.0037143994 8.235366E-4 0.0037734336 -0.005044088 0.002578525 -0.0012320029 -0.001091239 -0.008916009 0.0044662533 -0.0052956957 3.898189E-4 -0.0014531175 0.011037593 -0.0011166801 0.0044932556 -0.0012453067 1.585725E-4 -0.0011837244 0.0025109248 -7.736241E-4 4.949261E-4 -0.0033613709 0.0015267263 -0.0017541992 0.0049431953 1.534861E-4 0.002330024 -0.001603058 0.0022046578 -6.878932E-4 1.2841877E-4 -0.0019974653 0.0013705951 -5.5526436E-4 8.019304E-4 -0.0011833577 0.0016672974 -0.0013861952 0.001632451 -8.500522E-4 0.0012499004 -2.8971396E-4 -1.20938625E-4 -1.0542208E-4 2.423661E-4 -2.5550855E-4 2.4794522E-4 -1.1137174E-4 5.3986907E-4 -1.2490402E-4 7.5770955E-4 -2.0910041E-4 6.876707E-4 -5.7515735E-4 2.4213943E-4 -7.9778716E-4 5.157427E-4 -1.726629E-4 3.8141324E-4 -2.4012136E-4 0.0029539133 1.5678668E-5 -4.912628E-5 -2.0006264E-4 1.625137E-4 -4.4268035E-4 3.0390528E-4 -1.3838657E-4 0.003824302 -3.8111012E-4 3.3448183E-4 -1.7081015E-4 2.3773297E-4 -2.2600942E-4 1.5015222E-4 -9.0127083E-4 -6.1785255E-4 0.0065576737 7.355626E-4 -0.017747054 0.004687888 7.4713695E-5 -5.994366E-5 -0.0012590848 -1.6126269E-5 0.0012034639 -3.279283E-5 -5.6972007E-5 2.2592634E-5 -4.339769E-5 1.9803338E-6 3.0061421E-5 -1.8037157E-5 1.1801012E-4 -9.697097E-5 -2.7438717E-5 2.2073955E-5 -7.339898E-6 -2.9888133E-5 1.4775258E-6 1.5953849E-5 2.8609944E-5 4.6362277E-4 -1.0902944E-5 -1.2505788E-7 1.54451E-6 -1.3256679E-6 -2.209832E-6 3.5218097E-6 -3.042495E-7 -1.685909E-6 3.23386E-5 -3.5599497E-29 7.411984E-30 -1.2294004E-29 6.331141E-30 -8.502469E-30 1.8883E-30 -2.486361E-30 8.4321456E-30 3.1200876E-30 -1.6495027E-31 3.204308E-31 -2.0945365E-31 -4.7627343E-32 -1.595478E-31 1.052675E-31 6.413881E-33 3.597158E-32 -1.7342384E-32 -8.750065E-35
psychiatry 0.20397684 -0.22191316 0.06067473 -0.03793086 0.061091565 -0.0636595 0.010300774 -0.04623076 0.122726925 -0.09388897 0.1521566 -0.14150524 0.25617203 -0.05766246 0.26116964 -0.07481864 0.13770051 0.31601378 0.006670908 -0.12224796 0.0038210857 -0.083694555 8.2042225E-4 -0.025359225 0.05235191 -1.1671616 -0.06870876 0.038334843 0.0494755 0.015487156 -0.0018325307 -0.012007696 2.385013E-4 -0.045678835 0.007785928 -0.04417407 0.16084935 -0.051216085 -0.007653271 -0.09182008 0.017198006 -0.0028414568 0.009073773 -0.087924205 0.268684 -0.016251318 9.973043E-4 -0.005826298 0.011611629 -0.04871967 0.019780587 -0.44608843 0.008294683 -0.015393416 0.37107286 0.14994839 -0.0079647 0.0012836631 0.003388993 -0.09364527 0.050075233 -0.0032267666 0.0060163424 -0.004084471 0.014700641 -0.093043886 0.003275744 -0.043056585 0.003654501 -0.005716803 0.009820562 -0.118227586 0.00791878 -0.029908013 0.034614347 -0.0058224215 0.009941432 -0.008764279 0.013909808 -0.008048568 0.1677387 0.010960825 -0.014645424 -0.0022133405 0.00995663 -0.006644459 0.010892771 -0.005168815 -0.008993192 -0.010148581 0.01011755 -0.029800465 0.010394015 -0.0022155864 0.016775688 -0.0075905593 0.015874354 -0.066561 0.010435875 -0.006150904 0.022117043 -0.08938165 0.07039367 0.016578456 0.0120537635 -0.00660137 0.0017148553 -0.027363874 0.0037705223 -0.008772885 0.0063435975 -0.019606212 0.08545096 -0.00745878 0.0050483434 -0.053244893 -8.76266E-4 -0.012815174 0.016305268 -0.009997542 0.015491547 -0.022135422 0.010548269 -0.26006636 -0.0021872637 -0.008345671 0.0062337033 -0.04597344 0.07258508 -0.042036995 0.011000798 -0.0066063954 0.009282304 -0.06445384 -0.089128755 0.005221616 0.04905893 -0.012916718 0.04009824 -0.1207388 0.10169839 2.7150297 -0.1259146 -0.02636135 0.032575246 0.0016382005 -0.0037649926 0.0066609536 -0.01165321 -0.0023929027 0.006650752 -0.014024119 -5.2136707E-4 -0.009181778 -0.008449345 0.0026201203 -0.0059186104 0.008619061 -0.03396949 0.009018338 -0.062670045 0.009139735 -0.013475971 0.025094714 -0.08144108 1.213329 0.041015428 -0.030589929 -0.0025057008 0.034952406 -0.0012157866 0.012336618 -0.20488374 -0.008516113 0.086639844 6.703082E-4 -7.2702044E-4 0.0030666043 -0.004581933 0.040010776 -0.0020836864 0.0037887872 -0.007376216 0.0029672836 -0.005072559 -0.0046395487 -0.004751236 0.0055927215 -0.005999032 0.002899268 -0.05258094 0.0043599983 -0.08873676 0.007839763 0.004794815 0.0043489323 -0.010059769 0.008663049 -0.0015639836 0.006952738 -0.007075925 0.0068105333 -0.003355387 0.0065795607 -0.005584218 -0.0042291144 -0.008300208 0.005637476 -0.0059263553 0.24258785 0.0011843201 -0.0141159315 -0.0029885361 0.00527226 -0.006025479 0.0040946393 -0.009601927 0.019068185 0.0051644184 0.06023877 -0.0043428447 0.0014709751 -0.0029102685 0.004523737 0.006365674 0.0038050252 -0.0052165384 0.009159796 -0.0052059856 0.0047797184 -0.011917072 0.0030823636 -0.010271534 0.0047420235 -0.0039390456 0.005770528 -0.010750234 -8.023697E-4 -8.6728757E-4 0.00822488 -0.009463017 0.004882749 -0.007943052 0.0044741556 -0.0076844925 0.007294412 -0.008156818 0.0053823683 -0.006839333 0.011389933 -0.0100321425 0.00681564 -0.006795162 0.0060027144 -0.005361029 -0.008242173 3.1189705E-4 0.008408121 -0.051658563 0.0058407905 -0.005767361 0.005814661 -0.007966468 0.0071266526 -0.025506562 0.0030818267 -0.006114384 0.006800431 -0.0033921956 0.007428993 -0.0059226695 0.018290585 -0.006872895 0.006187596 -0.006540958 0.006677718 -0.00804262 0.0043278933 -0.0069964407 0.006253293 -0.011185774 0.005086039 -0.050212648 0.0035728575 -0.0069188774 0.0461815 -0.008698843 -5.2798627E-4 -0.008102009 0.007897224 -0.007030211 0.006372595 -0.0069294935 0.007148357 -0.006414467 0.005751456 -0.0077817184 0.0060355696 -0.006256371 0.0068418127 -0.00678102 0.0069321333 -0.006235212 0.004687881 -0.007781222 0.005915708 -0.005901317 -0.0010231034 -0.0076549686 0.0069035143 -0.00664099 0.00988844 0.007073527 0.0068382137 -0.009235292 0.008134686 0.008668871 0.0067805224 -0.007634886 0.007910357 -0.005481194 0.0130258305 -0.0027842224 0.026320657 -0.007089575 0.01309482 -0.00965359 0.008986793 -0.014052647 0.009016252 -0.010837442 0.73948663 -0.0017033888 0.007413949 -0.007225974 0.007755443 -0.014372728 0.008999174 -0.010591517 0.009028889 -0.004608834 0.0055438443 -0.009040974 0.012392106 -0.01110107 0.010530011 -0.011245058 0.0023665307 -0.005266997 0.010189407 -0.013745678 0.014839123 -0.012408898 0.011268521 -0.014096522 0.012420258 -0.021900566 0.5400343 -0.018440267 0.028262898 -0.020846652 0.032155834 -0.037452467 0.056610037 -84.02539 -0.048855104 0.25405496 -0.009091542 -0.003334532 -0.011568068 0.009575844 -0.012929363 0.0076518864 -0.019281957 0.09827404 -0.011982788 0.0140364 -0.005122835 0.0055240504 -0.0061100866 0.0049817017 0.0038692153 0.019590745 -0.014052119 0.0056758393 -0.019273365 -0.0020259102 3.5167127E-4 1.7728239E-4 -0.121268705 0.0012040366 0.028675774 0.002378605 -6.062956E-4 2.9138624E-4 6.0091866E-4 9.125789E-4 -1.9483903E-4 5.5038126E-4 8.364952E-4 -1.718907E-5 -5.3578225E-4 5.380917E-4 4.641998E-4 1.2954658E-4 5.111572E-4 -3.910033E-4 -0.008831134 -0.010443961 4.359372E-4 -4.6971832E-5 -2.4986046E-5 3.7806276E-5 -5.263972E-5 -1.4901531E-5 2.7764772E-5 9.613068E-6 -9.778161E-5 -8.694732E-30 2.8346653E-28 -1.0773763E-27 -7.6643913E-28 -5.166616E-28 1.6179518E-28 -3.5168805E-28 -7.943499E-28 -2.5740735E-28 -3.1110478E-28 1.9739539E-28 -1.4913334E-28 1.0511809E-28 1.7768431E-28 -1.7879848E-29 1.6086451E-28 -8.411422E-29 -1.1647869E-28 -2.3196089E-31
asylum 0.8528037 -0.68706 1.2405808 -0.055064935 0.24777551 -0.12588565 0.16963893 -0.7567184 1.3563006E-4 -0.15237483 0.31052285 -0.52099717 0.7941982 -0.15742055 0.18544896 -0.33484846 0.07104237 -0.005751372 0.10182257 -0.05591901 0.12954772 -0.25695264 0.06492729 -0.9011066 0.09425915 -0.06740713 0.29992798 -0.097582094 0.3558179 -0.021759072 0.47471127 -0.12210375 0.0010212467 -0.0921581 0.15606396 -0.040812604 0.22426598 -0.10456991 0.008881076 -0.031163057 0.083985865 -0.024497813 0.07278035 -0.10328155 0.23947656 -0.017412415 0.031459894 -0.1605283 0.036735907 -0.07379674 0.0407813 -0.0888362 0.114159085 -0.12525253 0.111137494 -0.022917606 0.03622168 -0.044913206 0.03996386 -0.3175062 0.046234414 -0.17367814 0.1627507 -0.142435 0.08218409 -0.13007432 0.026097985 -0.09760657 0.1013024 -0.08117187 0.10219951 -0.055633195 0.0595182 -0.109383516 0.06958917 -0.19804263 0.036523085 -0.040449582 0.10729248 -0.08504879 0.096177444 -0.09004157 0.49585307 0.011650972 0.14174818 -0.075122 0.04057532 -0.021502381 -0.01790279 -0.02603077 0.031995133 -0.023328543 0.04367272 -0.00851284 0.02650927 -0.0279775 0.055469286 -0.19230697 0.103269495 -0.011292662 0.06887414 -0.23789193 0.08645177 -0.059687536 0.081644975 -0.020639667 0.011115409 -0.028907046 0.11316883 -0.016295232 0.022922754 -0.0503635 0.20299596 -0.090477355 0.026558936 -0.0355041 0.023695597 -0.1079928 0.10971615 -0.017225627 0.062234797 -0.038361706 0.028583303 -0.2139743 0.15602578 -0.023339493 0.061050333 -0.07033862 0.07833021 -0.016506752 0.19164959 -0.019520063 0.020705484 -0.027601313 -0.046894353 -0.0022149836 0.018786972 -0.014579701 0.030064616 -0.050353266 0.022570971 0.026006304 0.05526868 -0.13286638 0.0868936 -0.025778377 0.025894525 -0.020918727 0.26016593 -0.04135598 0.052457705 -0.1803612 0.010427071 -0.12659685 0.007403615 0.022095978 -0.03421855 0.033910133 -0.039690875 0.13621606 -0.031461935 0.036060598 -0.038939353 0.17108066 -0.019158555 0.021082213 -0.022933196 0.022181828 -0.04635649 0.43219873 -0.00420965 0.37410662 -0.06945735 0.06732196 -0.016610138 0.037490055 -0.01726385 0.031489447 -0.028919648 0.029200148 -0.0154346805 0.035446055 -0.037551984 0.029561423 -0.024310546 -0.037438545 -0.024570167 0.026842637 -0.03468875 0.07226822 -0.08701062 0.075872295 -0.03635914 0.035609458 0.06559822 0.025887765 -0.04712474 0.052273627 -0.011234166 0.04161728 -0.03843915 0.034809858 -0.02666635 0.03481733 -0.0355287 -0.021464583 -0.04099967 0.027649924 -0.031689692 0.030101169 -0.038402945 0.03402347 -0.032129955 0.029387778 -0.035323463 0.02650906 -0.035418287 0.05618078 0.01172501 0.017525455 -0.03344739 0.024931563 -0.031141499 0.036434207 0.038870472 0.021752141 -0.028374288 0.05060542 -0.10573242 0.016953768 -0.026224243 0.031750612 -0.033528414 0.028815797 -0.019766022 0.027389403 -0.054788627 -0.008587202 -0.0010150621 0.037603818 -0.14136936 0.02683033 -0.025919674 0.022060396 -0.028847916 0.045256518 -0.034521442 0.029135562 -0.2134894 0.046715554 -0.03591932 0.03602247 -0.036264177 0.044604402 -0.01704678 -0.06618176 -0.008080526 0.049450938 -0.05768199 0.03459062 -0.03404952 0.035825044 -0.046780135 0.052962027 -0.07032925 0.023087043 -0.04395849 0.03194144 -0.030838313 0.038699172 -0.039540317 0.03883423 -0.05020646 0.029285291 -0.044651657 0.1030034 -0.067593716 0.046698786 -0.048743267 0.049325753 -0.18548468 -0.0013773966 -0.056773994 0.10771686 -0.044787716 0.05654983 -0.05775907 0.018722605 -0.03319554 0.048038613 -0.03793367 0.04925328 -0.044423997 0.058178276 -0.19866897 0.045082007 -0.046010803 0.051642243 -0.069441326 0.07300472 -0.051256903 0.08783906 -0.059074774 0.07288504 -0.106160276 0.103327 -0.09459512 -0.014565444 -0.11104295 0.11070869 -0.14054027 0.1237337 0.10484131 0.16642985 -0.18831816 0.20185415 0.18560176 0.21075031 -0.46994448 3.002201 -231.02797 -0.8788383 0.17382576 -0.28255326 0.23005776 -0.23507506 0.093606524 -0.09753599 0.061720908 -0.09529511 0.048541445 -0.038805988 0.05295058 -0.06546286 0.044560127 -0.028888915 0.04052663 -0.022750184 0.030416291 -0.01700358 0.01255553 -0.012746382 0.16095163 -0.030034354 0.017036874 -0.016033886 0.018784054 -0.008456182 0.010620664 -0.011801326 0.012157916 -0.009889249 0.008951233 -0.008010848 0.0089216195 -0.0059607998 0.008709501 -0.007505464 0.0077148685 -0.007221635 0.003845296 -0.006411931 0.004374267 -0.004363949 0.001832834 -0.0036745348 0.0092146555 -0.0021955762 -0.0019761329 -0.0048871217 0.0021951145 -0.0026310487 0.0040294025 -0.0010684835 -0.018860005 -3.13097E-4 0.0011613958 -0.0023406276 0.0010829311 -0.0016838461 0.0010225145 -3.1105257E-4 0.0022487598 -0.006885035 0.0014799632 -0.026586639 0.0014061662 7.82253E-4 5.54175E-4 0.008703578 -0.0011386693 -2.1905969E-4 3.5573932E-4 -3.181106E-4 5.9593076E-5 1.7877777E-4 1.4271522E-4 -3.434537E-4 4.0017418E-4 2.1176935E-4 -3.3498585E-4 -2.5614112E-4 1.8577324E-4 7.478448E-5 -3.601067E-5 1.7001976E-4 -1.3175156E-4 -7.351669E-5 0.0011040771 1.4096503E-4 -1.9863817E-5 -3.6203473E-5 -1.6784978E-5 -6.286099E-5 -8.837786E-6 1.3474423E-5 1.5393802E-5 -1.6675281E-4 6.869272E-27 -3.8581257E-27 8.188054E-28 4.019497E-27 -2.6438174E-27 -2.6272358E-27 8.144509E-28 -1.4380452E-28 1.3764724E-27 1.0372912E-27 2.0289446E-28 -2.290511E-28 1.2007353E-29 9.8354426E-29 2.7101178E-29 1.4846034E-29 -6.379041E-30 -1.4602461E-29 -7.0562933E-32
manslaughter 0.43316758 -0.15254043 0.039026342 -0.046860743 0.1328278 -0.04400771 0.17689648 -0.059509035 0.09531705 -0.12565249 0.75857955 -1.1888789 -0.112793475 -0.5021863 0.08289042 -0.5557289 -0.28759477 -0.06744944 -0.03829895 0.0450412 0.0139945 -0.24730189 0.059718736 -0.06739313 0.233854 -0.028408602 0.0758282 -0.104709215 0.020280637 -0.013399799 0.05655619 -1.6522205 -0.4572927 -0.12787928 -0.03223911 -0.2366257 0.29188037 -2.379907 -0.5813497 0.018041838 0.13186735 -0.0011648184 0.015273272 -0.049367763 -0.005081121 -0.0031915342 0.012243613 -0.018189425 0.049246088 -0.068051994 0.029594645 -0.51168764 0.015403779 -0.15952651 0.02473269 -0.003027322 0.10712504 -0.009107132 0.01822666 -0.04957085 0.07409704 -0.02154664 0.012062904 -0.01198156 0.06273669 -0.054109566 0.012773334 -0.019123154 0.019924363 -0.38211203 0.0024999487 -0.25061578 0.0258634 -0.018840678 0.027706377 -0.041204505 0.027837103 -0.036641337 0.09559453 0.0025986452 0.3625587 -0.102240965 0.85666114 -0.4854811 0.0011573115 -0.03670299 0.016710807 -0.011618488 -0.0062718494 -0.011935342 0.017201873 -0.012136887 0.011679689 -0.0065695513 0.01458056 -0.015514912 0.022395479 -0.04070637 0.018890556 -0.014879823 0.044269107 -0.13192928 -0.08137259 0.019721288 0.08268066 -0.042143825 -0.015154799 -0.0132571645 0.02338053 -0.015991213 0.018205246 -0.22871526 0.017532485 -0.02259184 0.020719996 -0.033339847 0.021865666 -0.6440479 0.43127292 -2.7021942 -0.2786684 2.8199295E-4 0.0049748286 -0.0040389462 0.062663674 0.0012654043 0.23529623 0.0067767045 0.005699002 -0.027599366 0.0153190335 -0.011847042 0.010534755 -0.009998379 -0.0037031923 -0.0051443963 0.1094699 -0.0133571755 0.017199462 -0.021698993 0.0154160615 0.17421666 0.012000264 -0.014596896 0.010402102 -0.015878092 0.014997945 -0.011463881 0.1285384 -0.017309675 0.025965692 -0.012180322 0.018336337 -0.10765308 -0.21486652 0.011823105 -0.020820543 0.0804383 -0.0016091488 0.022807803 -0.019678118 0.025817959 -0.020777877 0.035007086 -0.13343544 0.0067579546 -0.016130686 0.016226394 -0.027960489 0.4275911 0.0033357404 0.03983045 -0.48708376 0.0673365 -0.008326827 0.15113406 -0.007141615 6.362388E-4 -0.013301668 0.013604259 -0.00799754 0.023483234 -0.019207716 0.10256833 -0.013951486 -0.017552994 -0.013624034 0.015461366 -0.020104216 0.050180838 -0.011942798 0.010814086 -0.020379284 0.020426484 0.016645692 0.015385694 -0.021698441 0.032508984 -0.00394084 0.027449334 -0.025599075 0.022166504 -0.016379952 0.028473217 -0.021339199 -0.020234214 -0.061209355 0.012381483 -0.021174628 0.02280825 -0.026067656 0.07498709 -0.020101897 0.019994957 -0.02895845 0.09102272 -0.06297255 0.026793558 0.005741315 0.018065786 -0.019303536 0.012739309 -0.02992924 0.021288538 0.028051725 0.0065097334 -0.12872139 0.026742928 -0.016780658 0.016620321 -0.022319838 0.017426686 -0.020896545 0.018633127 -0.0140956845 0.019153688 -0.038465556 -0.0093414 -0.0043978123 0.027287928 -0.21320945 0.30158696 0.0062655956 0.3614161 -0.02089236 0.02348866 -0.023276769 0.023695491 -0.03038354 0.029981613 -0.021608407 0.020492911 -0.025905954 0.027144715 -0.01335986 -0.030440956 0.0066765323 0.027337357 -0.03140923 0.019146502 -0.02265854 0.025572296 -0.03280097 0.02464989 -0.022867223 0.013005813 -0.02991772 0.025537778 -0.016732039 0.023541644 -0.022619393 0.03151508 -0.043363117 0.13812612 -0.031341117 0.037764605 -0.04752042 0.042031754 -0.022301061 0.03825352 -0.04763992 0.026385535 -0.036223628 0.033365484 -0.054831855 0.18570292 -0.25574386 0.3299545 -0.026899239 0.038039483 -0.036628798 0.040921845 -0.040813603 0.05316571 -0.044853684 0.056118727 -0.047346607 0.07282062 -0.08934054 0.094358064 -0.094599366 0.14770034 -0.19831067 0.21665025 -0.9937888 1.3883408 -135.05573 -240.72995 0.7472168 -0.3901576 0.45646372 -0.19812766 -0.13896698 -0.16691062 0.15623851 -0.14242075 -0.11256214 -0.042215552 0.07274792 -0.28355196 0.046030894 -0.041344088 0.011610725 -0.023246419 0.029832108 -0.0432252 0.015612167 -0.018222725 0.01061139 -0.020412996 0.017174251 -0.008490452 0.023056889 -0.0301912 0.015239552 -0.010254747 0.010361152 -0.008682895 0.011440582 -0.006157007 0.011592211 -0.0047081457 0.016869925 -0.009111522 0.006033653 -0.0054586534 0.0070886556 -0.0017986135 0.0071853814 -0.0034850312 0.005110029 -0.0047692675 0.0040885867 -0.0043306258 0.0028927356 -0.002572096 0.00263998 -0.025053741 0.0017181261 -0.0023636178 0.0014030082 -8.643678E-4 0.0017785678 -0.0053149075 9.769014E-4 -8.5766043E-4 -0.020042462 -0.0027445578 -0.0045166207 -0.0019865949 5.966732E-4 -0.0012595995 0.0013246785 -6.6585E-4 -0.0038560224 -7.850075E-4 7.649622E-4 -6.6437415E-4 5.759195E-4 -8.982054E-4 3.1716123E-4 -7.971916E-4 2.0785304E-4 0.002819158 3.803953E-4 0.0063297115 1.2319328E-4 3.748536E-4 1.8647755E-4 -0.0011955716 -2.1305493E-4 1.3632368E-4 2.5067694E-4 -1.5861029E-4 7.281977E-5 1.0079077E-4 5.9392012E-5 -9.6018746E-5 2.4997423E-4 1.3229456E-4 -7.45894E-5 -1.07428445E-4 1.3388059E-4 8.520539E-6 1.9317215E-5 1.2709941E-4 -8.306918E-5 -2.1234172E-4 -0.002776663 6.408478E-5 -2.5872872E-5 -2.1397993E-5 4.256833E-6 -1.127913E-5 -7.888939E-6 2.6764528E-6 7.884084E-6 -7.7700504E-5 1.097223E-27 -9.386452E-28 -3.0951678E-28 7.131576E-28 1.8171659E-28 -3.1211563E-28 1.793264E-28 -1.1467101E-28 1.1460144E-28 1.2255836E-28 -6.7553696E-29 1.1399372E-28 2.9562017E-29 6.113191E-29 -6.704457E-29 2.4487596E-29 -3.72135E-29 -1.1330923E-29 1.361689E-32
music 15.362948 -12.044396 6.168755 -16.575855 3.0700588 -2.739646 8.745362 -18.199476 5.701695 -15.870352 12.68454 -9.27732 4.7597384 -3.3696716 2.973282 -10.819966 8.405515 -5.1912913 5.5337954 -1.9164358 3.9843166 -10.144197 1.0726969 -6.201224 5.0063753 -11.86723 3.1743648 -7.7893906 -1.653163 -1.9891524 2.574761 -10.8765135 8.746748 -3.2072625 2.3815763 -17.129152 5.6582704 -5.657783 4.187731 -51.21714 5.857191 0.1441467 0.49141034 -22.723555 7.869222 -1.5402135 13.393949 -19.43759 6.2595067 -14.945995 3.8855574 -1.3145989 1.8934863 -4.6794333 6.465044 -2.2905104 5.5611115 -4.940049 7.024704 -10.331772 38.529446 -72.58656 78.78037 -53.800385 0.57813454 -6.9722915 1.8802068 -10.836062 3.4004142 -226.89499 4074.5364 36.80084 -13.146166 69.3634 -20.09601 42.173756 -17.398838 45.018787 -11.471046 16.451063 -5.4574366 4.580822 -10.730098 0.81073266 -7.810846 16.393919 -11.077302 -0.2850028 12.825196 22.63525 -8.490573 69.56045 -7.9938135 15.077387 -5.391722 4.24875 -6.3546467 2.1042976 -2.420027 0.55658543 -3.4895453 2.345577 -0.1097059 4.6804976 -0.95764273 1.5100914 -0.074741475 2.9514918 -1.7923564 1.2582626 -2.3432286 1.1995459 -1.7021552 0.4938219 -0.82781094 10.248448 -12.321492 1.577886 -0.72673565 1.152092 -0.32345644 0.6174764 -0.91149366 1.4784831 -0.2905163 0.32229477 -0.8931123 0.27894777 -0.33491975 1.4423146 -0.68872416 0.18352693 -0.22154449 0.65082353 0.9135705 0.024573177 -0.77240586 0.34375945 -0.3906563 1.1438961 -0.31585497 -1.5671202 -2.1451216 0.7193148 -0.7616938 0.9569547 -0.4364043 8.569833 -0.16103247 0.27527878 -0.5051454 0.4861814 -0.05271249 0.3559383 0.20383558 -0.09128054 1.5009966 -0.6139908 1.6664109 -0.5811059 0.48671615 -0.36204037 0.2118348 -0.5052217 0.47192135 -0.21487667 0.17827943 -0.10364433 0.089769505 -1.2671152 0.050595254 -0.22463675 0.03465301 -0.35856196 0.19030201 -0.037141383 0.21163179 -0.14310625 0.19046928 -0.389786 0.03523268 -0.31096706 0.4734544 -0.03878727 0.3378766 0.14863563 0.09249221 -0.03628664 0.094989546 -0.12209251 0.6697402 -0.3371885 0.02772705 -0.15535487 -0.14894259 -0.033669837 0.16803092 -0.068873905 0.062439647 -0.033643123 0.2707052 -0.04896205 0.097538635 -0.029654225 0.03553091 0.038067978 0.07041146 -0.052243482 0.02526157 -0.043237288 0.059241742 -0.06537703 0.47912624 -0.19422218 0.05565944 -0.099798985 0.040494464 -0.32051048 -0.012575516 -0.945804 0.059154794 -0.04571529 0.049685236 -0.025157802 -0.053962063 -0.04153442 0.11867993 -0.026066199 0.059800357 -0.12345293 0.047040798 -0.026817484 0.27091143 -0.09169996 0.03571062 -0.06646439 0.100340515 0.003485363 -0.019481912 -0.025771067 0.062318493 -0.03363009 0.050736863 0.0067360564 0.573042 -0.01785792 0.024477495 -0.0073257205 0.010695568 -0.04031557 0.019719113 -0.03163734 0.0071954685 -0.038725358 0.015733497 0.044049613 0.026120111 -0.021823168 0.055639524 -0.038164582 0.041190896 -0.020669045 0.5868802 0.04068947 0.008675052 -0.016607767 0.03257831 -0.0033415898 0.0037819825 -0.0494819 0.01058629 -0.019173265 0.0051063914 -0.024484977 0.018578496 -0.02053257 0.0059786285 -0.039385352 0.009719432 -0.0049479813 0.025695072 -0.01393314 0.003950617 -0.008709854 0.03254899 -0.0106634265 0.022080101 0.00544463 0.037635654 -0.0077086827 0.23072982 -0.007160434 0.006422435 -0.0023110646 0.006819404 -0.00848063 0.0025069306 -0.0022862842 0.0124941245 -0.0026924566 0.0082342 -0.0033422417 0.022436203 -0.0041626785 0.0078089247 -0.0031133282 0.0013675779 1.7533638E-4 0.0058626314 -0.0024572588 0.008145086 -0.002088552 -5.796384E-4 -0.0018457674 0.006890611 -0.0018776457 -0.034424882 -0.0011604235 0.0023128185 -0.03764407 0.004928561 -0.0014828079 6.154288E-5 -6.145489E-4 8.4552536E-4 -0.002023811 0.0036085914 -0.0032320465 3.0842912E-4 -0.006647306 1.8674383E-4 -0.0033959937 7.634245E-4 -8.277104E-4 9.787977E-4 -0.013332596 6.715042E-4 -1.17722026E-4 0.00954032 -0.0043757167 8.814736E-5 -2.945073E-4 0.0024895887 -3.5406774E-4 6.405371E-4 -0.0035627077 5.1025394E-4 -6.228316E-5 5.8987265E-4 -0.0145578515 0.0025844763 -2.6766062E-4 2.8523614E-4 -9.748625E-4 9.2550454E-4 -1.3666526E-4 0.0027100104 -0.0023638466 0.0016830137 -1.4535297E-4 3.1875374E-4 -6.3307445E-5 8.5176283E-4 -1.9448846E-4 4.9090126E-5 -7.643913E-4 0.002590662 -3.8157956E-4 -0.0028956938 3.3218582E-4 0.0014394841 1.2630779E-4 0.006786587 -9.892699E-4 0.017607734 -0.0012955914 4.0447744E-4 -0.0017943606 8.456068E-5 -3.850168E-4 1.7064322E-4 -0.0013787163 -0.0015267588 0.01124067 -2.977505E-4 0.024651468 -0.007850471 -3.6972062E-6 1.0676002E-4 0.001475203 -7.5359153E-6 -0.0017322501 1.16804535E-4 -1.7374201E-4 1.6614964E-4 7.469959E-5 -2.6186486E-5 -6.395026E-5 1.2219795E-4 7.4011705E-6 1.40929005E-5 2.9517985E-5 3.647419E-5 -8.0475165E-6 2.4791065E-5 4.0719766E-5 -3.3163684E-5 -9.1474874E-5 -0.0014183872 2.3499339E-5 2.0661857E-6 -3.5023522E-6 -3.6791897E-7 -1.2008898E-6 3.6212293E-7 2.1893761E-6 -6.347953E-6 1.6094866E-4 2.6819817E-27 1.745311E-27 -4.668822E-28 3.61086E-28 1.2271414E-28 -7.896539E-29 6.479164E-29 -9.697402E-30 -4.119756E-30 -3.1526965E-31 -2.6993428E-30 3.922924E-30 -2.4154254E-30 6.7057665E-31 7.2476035E-31 -2.203681E-31 3.512729E-31 -3.8934548E-31 5.2316878E-34
record 59.13573 -8.049041 17.860678 -77.99645 5.428634 -29.58326 14.3079405 -13.136796 11.53504 -8.66546 36.490982 -17.40762 10.464062 -19.102295 12.168947 -22.21159 3.8815897 0.88024604 13.14665 -31.26788 18.861786 -6.462883 14.9340315 -33.72579 0.6081761 -18.75954 7.767574 -21.498219 -1.9524612 -53.674805 14.404261 -23.885206 14.038024 -8.967834 11.509327 -21.79187 20.720697 -19.911236 17.885612 -68.731125 30.996643 -18.521732 486.2114 -5562.007 -1709.4498 138.27791 -140.06415 43.807213 -77.85427 23.46929 -14.743424 8.354981 -27.989132 10.702133 -16.630602 8.478811 -31.293066 8.694917 -27.556393 9.948314 -24.660364 11.904788 -0.943309 6.5698643 -3.0622244 4.3490133 -21.414246 2.4368787 -2.852843 1.9587917 -13.508365 3.53721 -5.3045783 2.624373 -8.368489 5.9832983 -2.366858 2.8482337 -9.297528 1.6880498 -2.2002091 2.0886734 -4.331637 0.518735 -3.2067065 3.436576 -3.108204 4.840315 0.9502725 3.6544404 -2.7256708 2.6234896 -1.7184445 -0.13338542 -1.6180211 0.8973907 -1.0315144 2.0884836 -1.4707258 3.925358 -1.971237 1.141587 0.12042447 0.143833 -0.9297803 0.9884052 -0.545831 0.77597547 -0.6845067 0.6162043 -1.1405966 0.9597858 -0.7262442 0.47524568 -0.7709173 1.376315 -0.5043247 0.58436316 -2.4779215 -0.032780968 -0.38493255 0.35123158 -0.6464993 0.6844351 -0.35149083 0.28967354 -0.4233787 0.53033894 -1.27372 0.36758837 -0.8639251 1.2981524 -0.82855225 0.5136191 0.46060276 0.39187914 -1.8019276 0.3702394 -2.5280294 0.63815254 -0.08752736 -0.31458017 -0.5451581 0.4841335 -0.26979268 0.2803098 -0.6963987 0.6811898 -0.21254267 0.4449047 -0.4903597 0.6131119 -1.0876135 0.3993779 0.019829445 -0.80755466 0.19281144 -0.25035205 0.15033372 -0.29364035 0.39056715 -0.20942554 0.30005878 -0.36780834 0.34408447 -0.12375514 0.14764257 -0.22535285 0.8167655 -0.44141826 0.19277845 -0.24676333 0.20844163 -0.20211264 0.071278475 -0.05565971 0.13069578 -0.3723562 0.21754043 -0.10614905 0.37570974 -0.056843143 0.14373517 -0.09744597 0.3588329 0.08401954 0.14529526 -0.3513655 0.08455959 -0.43598953 0.19180441 -0.39550298 0.113287486 -0.049054876 -0.028734285 -0.16777647 0.047693714 -0.11175103 0.076039866 -0.14682813 0.077961676 -0.07759951 0.073631965 -0.056584723 0.03864847 0.0040068775 0.047547676 -0.046939943 0.06450918 -0.0669177 0.08830146 -0.05903955 0.034948487 -0.010860692 0.14143115 -0.09027147 0.03634396 -0.059805926 0.0039210985 -0.058031812 0.0323294 -0.028057734 0.08654702 -0.03632273 -0.03359164 -0.040045727 0.012855096 -0.08380248 0.082819566 -0.07863693 0.09373907 -0.25325036 0.030699097 -0.0117092235 0.17122354 -0.03510763 0.0400874 0.019158438 0.013099567 -0.032871805 0.022701414 -0.019449566 0.0061646593 0.0044119223 0.013722663 -0.015278052 0.030539457 -0.020172969 0.16736631 -0.037535172 0.008197118 -0.025827339 0.0174045 -0.10361802 0.06004685 0.019967107 -0.011084318 -0.011304031 0.0065167597 -0.0058696456 0.01602235 -0.019400917 0.049800914 -0.009775858 0.0118286 -0.0044939993 0.0043782485 -0.02571008 0.19026674 -0.03200842 0.003384937 -0.012543142 0.02459496 -0.013155924 0.011911642 -0.003845494 0.014579494 -0.01049627 0.013177177 -0.041919112 0.010882844 -0.016304499 0.0052679735 -0.009201816 0.06999551 -0.010882585 0.0073329164 0.0048751137 0.007037856 -0.007190141 0.008051849 -0.0035656064 0.024494221 -0.013266218 0.011082705 -0.008911344 0.00629451 -0.008498142 0.006745829 -0.0041102115 8.6020736E-4 -0.0015387798 0.0038616476 -0.0126260985 0.004918071 -0.0015837708 0.0018851574 0.0016296915 0.0011149517 -0.0050134845 0.0026190113 -0.0022515315 -3.0998763E-4 -0.008526267 0.017150613 -0.009722211 -9.442594E-4 -0.0025306435 0.0010717722 -9.888029E-4 8.763844E-4 -0.004016614 0.0043165954 -0.0059813326 0.0048716143 -0.0012849726 0.0044315755 -0.0019190978 -2.3235445E-4 -0.0021172308 0.0019268157 -1.8596968E-4 0.0073165474 -0.007477945 0.0021088126 -0.0026329353 0.0014757208 -0.008818409 0.00685875 -0.001670474 -3.594924E-5 -0.0013638008 0.002143079 -4.4849297E-4 4.478493E-4 -3.1064788E-4 2.7850218E-4 -8.748306E-5 0.0031431234 -2.1337102E-4 2.6884436E-4 -0.0015206808 2.9195182E-4 -9.6642434E-5 0.0011695944 -1.6860946E-4 2.6817477E-4 -1.0351288E-4 1.3573276E-4 -0.0014997907 6.124821E-4 -0.0015966047 1.7600831E-4 -2.303445E-4 -9.183129E-5 -0.0018601744 -0.010466 -9.411465E-4 -0.0016981013 -0.0016594214 0.0020010015 -3.3209872E-4 4.2774572E-4 5.382141E-4 -0.015191441 0.0010358557 1.998787E-4 3.31201E-5 -8.966184E-5 -2.3762995E-4 6.426995E-4 -0.0010493835 -0.0011661577 0.008740213 1.1582519E-5 0.0035912574 -0.0017156298 3.5650162E-5 1.6015872E-5 0.0031960164 -6.755521E-5 -8.944084E-4 -3.7292415E-5 -7.866838E-6 -4.9878818E-6 2.68654E-5 -2.905752E-5 -2.6630089E-5 3.9676708E-4 -4.527732E-5 4.6401252E-5 3.5200123E-6 -7.424622E-6 -8.133386E-6 4.6550717E-6 3.3843302E-5 3.941963E-6 3.017033E-5 9.781837E-4 9.947229E-6 -6.5026705E-7 -1.8908961E-6 1.7451684E-7 -1.2067392E-6 5.547209E-7 1.401939E-6 2.1209848E-6 -4.7487516E-5 4.346743E-29 -9.064536E-28 4.133458E-29 -4.894266E-28 -2.9839073E-28 7.007025E-29 -1.158851E-29 3.7654823E-30 -3.839694E-29 2.6285585E-29 -4.9611757E-29 1.3660234E-29 -2.7518746E-30 5.0120785E-30 -2.5953666E-30 1.6684192E-30 -5.4035468E-31 7.6385113E-31 1.6199854E-34
energy 22.882296 -9.314265 19.529613 -22.285812 14.181261 -33.040173 30.341421 -19.426022 8.784772 -15.900185 40.784966 -13.2722435 6.09313 -10.567707 22.327806 -12.399512 10.52056 12.126656 17.170729 -4.2318096 3.4786427 -8.618608 5.976241 -11.133028 17.21539 -8.876332 15.4193945 -12.924929 23.546585 -2.6477163 9.267204 -74.65179 0.36752373 -29.001175 5.376961 -59.5221 16.951475 -8.794339 23.67663 -129.52896 18.104443 -16.5006 566.73926 -205.93369 376.09384 -5702.587 -180.24509 40.211456 -102.751335 161.52864 36.55622 -5.7380567 -38.73963 2.1201959 -16.730875 -2.6887314 -10.981674 42.48296 -15.827235 14.328093 -6.796264 23.061838 7.8526063 2.227957 -33.78789 3.6657243 -2.0816538 23.303425 0.5048971 0.9079391 -2.0502741 3.8628585 -5.9178734 2.452274 -2.5608141 2.962644 -10.274927 1.2923752 -3.099242 0.015732838 -1.2537661 1.82189 -2.921501 0.6613669 -1.72827 3.5487447 -3.8138647 0.87923557 1.9014379 9.056775 -0.10187839 -0.37424937 -1.4049125 -0.1310854 -2.5366414 1.5568905 -0.87040836 3.6779845 -2.2162561 2.723572 -5.270993 1.0243939 0.04470914 0.60618484 -0.37792826 0.57782686 -0.25396138 3.4894228 -0.9847373 0.5984181 -1.583267 1.6512334 -0.9126713 0.77389437 -0.51651156 0.30665478 -0.32536903 0.19584297 -0.66573274 0.055666562 -0.28372455 1.1522442 -0.667914 0.66421205 -0.29211602 0.52074397 -0.19421197 0.5765236 -1.4957539 0.13680412 -1.7146322 1.012669 -1.9590279 1.2952374 0.15951224 0.028681528 -1.3178107 0.6897143 -1.1511722 1.2642365 -2.5391326 -0.46029007 -0.4289282 0.7103766 -0.08512886 0.23210408 -0.37273967 0.21962714 -0.07357048 0.22931372 -0.22620584 0.7108636 0.009781302 0.19684009 0.15973358 -0.107061416 0.2658204 -0.15579052 0.12656184 -0.15658872 0.2741766 -0.7973511 0.4045379 -0.22053103 0.15531524 -0.25329733 0.33414474 -0.21866368 0.11557591 -0.25492492 0.058316514 -0.58730876 -0.002959339 -0.25083622 0.31156474 -0.020139344 0.23278347 -0.14572495 0.52827483 -0.06446054 0.38612476 -0.32120624 0.15217209 -0.08649404 0.15309788 0.1599344 0.0764409 -0.12470118 0.10009859 -0.057759717 0.067138046 -0.09247891 0.13674256 -0.14615883 -0.14910789 -0.06503138 0.048281405 -0.046299756 0.011697323 -0.17161775 0.05266194 -0.71606195 -0.1477219 -0.033642247 0.06896269 0.039721508 0.04111668 -0.031977117 0.062435836 -0.08834941 0.11450694 -0.11545439 0.045123626 -0.018264178 0.120548084 -0.11101216 0.05402953 -0.60470176 -0.14565076 0.04498493 0.042708173 -0.09885417 0.028737336 -0.031645533 -0.19471851 -0.035042413 0.019935628 -0.04557623 0.028497798 -0.045393802 0.014242227 -0.00777636 0.03354193 -0.028074972 0.009961715 -0.017707579 0.063157514 -0.0013996083 -0.032008853 -0.02591102 0.020308029 -0.043232027 0.039339278 -0.040412854 0.00788486 -0.027124392 0.12801217 0.012851174 0.0153351845 -0.024642032 0.00995313 -0.024601651 0.024611033 -0.014664915 0.01716509 0.015619844 0.004735012 -0.035122167 0.042646687 -0.011323735 0.0041269795 -0.018458521 0.022463799 -0.053530466 0.040181518 -0.008135935 0.017542165 -0.0033328936 0.013433055 -0.012359842 0.007950572 -0.06428907 0.015589063 -0.010553135 0.005090571 -0.003690655 0.024951959 -0.00956838 0.007651263 -0.0055861142 0.006069164 -0.0018301053 0.015015544 -0.00485869 0.020539649 -0.0062895734 0.0066382717 0.0025345609 0.0137221925 -0.0067052157 0.001950315 -0.035994418 0.024392592 -0.0035756093 0.007008866 -0.0019990064 0.006671298 -0.010637745 0.008762983 -0.0021008337 0.010808833 -0.0017869677 0.004667986 -0.0012076664 0.0040735523 -0.0068321135 0.0011817105 -1.573065E-5 0.004270551 -0.0013267285 0.0034735056 -0.0022251743 -0.0032862753 -0.011600294 0.0010641665 -0.006200703 -9.497339E-4 -0.0024123641 0.0068426006 -0.00111795 0.0011865519 -0.007821222 0.004037353 -0.029639421 0.0013687329 -0.012012285 0.0018038682 -0.0012387407 0.0021892933 -0.0010167274 0.0053980113 -0.007324167 0.002225969 -0.0019400181 5.4242194E-4 -0.0020127436 8.355293E-4 3.9671923E-4 7.6024875E-4 -0.0017253252 0.0010497717 -2.9830687E-4 3.1444785E-4 -0.004889239 4.4173485E-4 -0.001784153 0.002247638 -0.0039396826 5.030842E-4 -0.0016344767 0.0016871662 -3.704411E-4 0.0015563254 -2.140422E-4 0.0013013092 -1.5599774E-4 0.0039094705 -0.0013983393 1.8760581E-4 -3.1600718E-4 0.01276864 -0.0015942913 -1.665281E-4 1.8170213E-5 7.1310386E-4 -7.3758216E-4 0.05023149 0.0038396877 0.0072736284 8.1604073E-4 -4.2385006E-4 7.044951E-4 -8.075791E-4 -0.0025547782 0.03809507 -0.0027363405 1.0947842E-4 -2.5480427E-4 1.6079772E-4 -2.4107033E-4 3.9330986E-5 2.2805583E-4 3.446976E-4 -0.0026565762 -2.1185185E-4 0.01348714 -0.0043880185 -5.9219696E-5 9.1756776E-4 -0.001175444 4.930341E-5 -5.6061376E-4 1.6013482E-4 -4.417532E-5 -5.348831E-6 4.7927877E-4 -8.0986E-5 -2.8267994E-5 7.990215E-5 6.3343655E-6 -1.7516065E-6 2.1381691E-5 2.5583298E-5 -1.0235848E-5 1.1301969E-5 9.7278535E-6 -1.4080045E-5 2.8537108E-5 5.408998E-4 1.0618565E-5 1.844208E-7 -4.612467E-6 -1.0785506E-6 -9.925153E-7 -4.0673268E-7 3.0899145E-7 2.4951757E-6 -5.3138938E-5 1.0341039E-28 -2.4178064E-28 6.1406654E-28 4.3923976E-28 -5.1700145E-28 7.458726E-29 8.266642E-30 4.0975138E-29 -4.755504E-30 2.189791E-30 -2.2220808E-30 -2.272137E-30 9.438516E-31 -1.4737329E-30 3.9806057E-31 4.994052E-31 -1.1720306E-31 5.546379E-31 4.956826E-34
announcement 3.8297942 -1.4700094 5.8384094 -1.7030827 5.7126656 -2.5725799 3.488351 -1.7806183 4.0632253 -1.9801778 4.793753 -2.0167234 1.1701388 -3.1790264 1.3685707 -2.524569 3.0642977 -1.5307437 0.6142148 -0.84658885 0.50294775 -0.50283 2.3132544 -1.7371709 2.072442 -0.8069782 1.9535629 -1.2570297 2.5324214 -0.5637555 1.3711598 -2.1015117 0.51336944 -1.1424047 0.17897436 -1.8362854 0.7440894 -0.7828208 0.42604977 -1.755229 1.0236598 -0.34993187 1.1880286 -0.8548797 0.7216844 -1.1849792 1.0610883 -1.5015664 1.2845672 -0.80884916 0.49437413 -0.29197958 1.241325 -0.15565747 1.4020015 -0.05953534 0.4795114 -0.51264566 0.8392831 -1.3663055 0.5771548 -0.9270772 0.1771014 -0.39736286 2.0624092 -0.34850293 0.51916826 -0.93804425 0.8578631 -0.18990487 0.61237067 -0.6360738 1.0424064 -1.5335739 0.9554833 -1.205084 0.643446 -1.1366755 2.5929427 0.5350667 0.5291328 -0.47158307 1.2811894 -1.1549804 0.4101355 -0.3526365 0.6752129 -0.41073406 -0.18385623 -1.4426969 0.49429563 -0.991405 0.564889 0.17820199 1.6529584 -0.31407958 1.1579354 -1.3822643 1.033683 -1.9343139 1.0192523 -1.2664031 -0.25234777 -1.9077712 0.5384716 -0.5203736 0.08560104 -1.3017273 1.9839405 -0.5099383 0.7208197 -1.4613078 0.9894336 -1.1902504 0.66204464 -1.1374338 0.7507755 -0.5089992 1.8046392 -0.29246697 1.5361215 -0.96316457 0.54650337 -0.98710775 1.2548522 -0.67045957 0.8180132 -0.25122494 1.2258253 -0.20501986 0.7811429 -2.1251404 1.015156 -1.4155027 -1.6268551 -1.2401379 2.1233463 -0.7350798 2.003066 -1.3554481 0.85689247 0.6360086 1.453878 -1.0352448 0.5984833 -1.6236862 0.3632157 -0.7004743 0.60671127 -1.507448 1.6619412 -5.4550548 0.80346435 -3.2033508 -1.9442531 1.8925645 -5.70618 3.3905022 -2.67752 4.0483794 -3.8569615 6.369295 -5.603749 18.212296 -26.980633 55.80751 -1604.0514 -42.644848 7.7507277 -13.936455 2.4073796 -4.5598836 1.7418013 -3.8684332 0.4104144 -0.30070618 1.0556679 -1.681077 1.2806247 -0.6346029 0.8215202 -1.1254944 0.29722837 -0.5691192 0.44823363 0.3483926 0.28153676 -1.6467807 0.2621174 -0.93175876 0.12518205 -0.6930322 0.26032636 -0.44772503 -0.5065235 -0.1707471 0.13904937 -0.46830544 0.014584411 -0.4761462 0.13019018 -0.23354293 0.07056628 -0.07684347 0.07380792 0.09153599 0.076473296 -0.060533397 0.07635219 -0.06496201 0.07443734 -0.11474633 0.06576571 -0.05061449 0.27845755 -0.03285491 0.11447355 -0.20930758 0.030182643 -0.2935785 0.1292377 -0.13121848 0.037472676 -0.04695004 -0.04886486 -0.02454202 0.07198649 -0.1613699 0.07926042 -0.02405581 0.037813984 -0.10092922 0.044526976 -0.028298343 0.2104885 -0.064803734 0.1725083 -0.08236336 0.058485284 -0.031966027 0.030288089 -0.125047 0.035175625 -0.03445228 0.029044745 -0.03410589 0.1025184 -0.21703193 0.058766928 -0.026567228 0.022245606 -0.098894 0.019533157 -0.022980116 0.14575653 0.027093835 -0.00423942 -0.06105652 0.040232483 -0.013619083 0.01743675 -0.017038044 0.021901105 -0.015587919 0.01647971 -0.024501469 0.01753218 -0.034505133 0.039920177 -0.039851446 0.011896363 -0.030405888 0.017811509 -0.05266167 0.009786712 -0.05144122 0.017166765 -0.010043307 0.009312838 -0.031710334 0.02983729 -0.0027106463 0.051246285 -0.023852717 0.021678774 -0.013597331 0.016942604 0.0038095047 0.0071191797 -0.008648981 0.01896069 -0.034602467 0.01327045 -0.02295269 0.0059521897 -0.025361026 0.005037663 -0.02549159 0.0060741073 -0.005964332 0.0055084946 -0.0057507777 0.010932594 -0.0142754465 0.007348195 -0.0072345617 0.0044522095 3.4683762E-4 0.003836636 -0.005124015 0.004811189 -0.004773747 -0.0019843124 -0.0044354443 0.005565315 -0.010197763 -0.003135111 -0.0086633405 0.005842654 -0.0028490382 0.0030149901 -0.005594497 0.0034940753 -0.002555571 0.00206712 -0.0053927763 0.001913105 -0.0027284224 0.0013963233 -0.0033085686 0.0019272532 -0.0013797883 0.018292425 -0.0024811542 0.0019456579 -0.0014323035 0.0017456332 -0.0011398339 0.0021732019 -0.0010279914 6.9126236E-4 -8.900032E-4 0.0010534684 -0.0021269303 0.0016050623 -7.824929E-4 0.0013767824 -4.1736275E-4 9.109905E-4 -8.181815E-4 0.0077431593 -7.616789E-4 9.0235E-4 -0.0030687554 8.201362E-4 -4.6919734E-4 8.339044E-4 -7.458775E-4 0.00517746 -7.204151E-4 5.0466805E-4 -5.5124966E-4 3.3533532E-4 -4.3197902E-4 3.1284906E-4 -3.964363E-4 0.017784998 0.0010678142 0.0021174976 1.5416293E-4 1.3074579E-4 -0.002283546 -8.676099E-6 -4.2694027E-4 0.012382454 -0.0010694714 2.1499544E-4 -2.7637082E-4 2.2299818E-4 -2.3229104E-4 1.2303266E-4 -1.3582039E-4 2.0427007E-4 -1.398623E-4 2.673138E-4 -0.0038623386 0.0020661955 1.3168345E-5 5.573813E-5 -0.0023461557 -1.7230841E-5 8.006277E-4 1.0835381E-4 -5.8135563E-5 2.1564063E-5 5.8554167E-7 1.5859658E-5 -3.0119298E-5 5.8670572E-5 3.507627E-5 -3.1226034E-5 -1.9687292E-5 1.4956859E-5 2.9719147E-6 -9.070043E-6 2.3838593E-5 -8.557321E-6 9.9738485E-5 0.0021281308 1.5330455E-5 -5.1824854E-6 -4.132118E-6 3.9602628E-7 -3.0727304E-6 6.755093E-7 7.900089E-7 8.963564E-7 -1.5096939E-5 -2.5784633E-27 1.5025636E-28 8.210225E-28 -2.7901262E-28 6.1152392E-28 -1.7975541E-28 1.9734454E-28 -2.325915E-28 2.1315078E-28 1.1679183E-28 2.7554042E-29 6.722615E-29 2.4235413E-29 -2.9055735E-29 1.7289588E-29 -1.3889158E-29 4.282578E-30 -6.905685E-30 -4.569945E-33
mile 1.235158 -1.1734304 1.2420605 -1.0137516 0.27139422 -0.28909612 0.51095915 -0.5236526 1.3332984 -0.45238438 0.8657765 -0.87317926 0.316398 -0.54572576 0.30676922 -1.430203 0.15193021 -0.3258111 0.12306909 -0.19621368 0.31091893 -0.70346594 0.26868823 -0.6094661 1.2377754 -0.81227726 0.3720853 -1.2277426 0.02077749 -0.020109512 0.5389655 -0.8235958 0.36473513 -0.029101513 0.09944061 -0.34186482 0.30980304 -0.8151465 1.095987 -0.267832 0.66829413 -0.74888945 0.6689797 -1.349226 0.61840487 -0.07003194 0.17301244 -0.27265087 0.29398316 -0.6890459 0.5851945 -0.5503559 0.040878177 -0.35090044 0.21416998 0.0023661798 1.2072328 -1.2107755 0.11595829 -0.1344313 0.51038915 -0.59145534 0.27283257 -0.41582665 0.065520495 -0.06267102 0.49906102 -0.35324374 0.3064256 -0.14444192 0.28848013 -0.079596214 0.1107599 -0.21728916 0.10605751 -0.34328592 0.22574246 -0.12857227 0.17762785 -0.20210762 0.12447965 -0.2082103 0.18653679 -0.11532278 0.21444604 -0.15189499 0.71810836 -0.77860504 -0.03638154 -0.16413628 0.037473783 -0.10218507 0.13043286 -0.017008686 0.07134373 -0.083971865 0.12973085 -0.25577098 0.2641845 -0.14251268 0.19307847 -0.3120084 -0.045973927 -0.5019553 0.094345026 -0.44891334 0.07476279 -0.0906992 0.25967827 -0.09963134 0.23447563 -0.16921249 0.1079318 -0.15941207 0.2193384 -0.2695743 0.040574666 -0.5239298 0.35459226 -0.5428948 0.0069024637 -0.111481205 0.20324452 -0.1724156 0.9276961 -0.27966633 0.27010065 -0.27660185 0.07508825 -0.13729973 0.7506747 -0.07268053 0.06684328 -0.12751585 -0.16718835 -0.06752729 0.2518703 -1.257408 0.10258423 -0.25692433 0.026730886 0.16783653 0.26165023 -0.9254438 0.02046357 -0.068081506 0.1668429 -0.3515688 0.051590573 -0.09338416 0.21062803 -0.07256051 0.10342799 -0.35710943 -0.11201159 0.15746957 -0.108279966 0.12633207 -0.19708599 0.6508775 -0.86965436 0.19909947 -0.15043603 0.16791448 -0.4268644 0.20832212 -0.051134963 0.14815064 -0.13722388 0.41008103 -0.054831937 0.38722217 -0.051880643 0.42766112 -0.059433512 0.108718656 -0.11062158 0.26584494 -0.35439688 0.073458716 -0.15575416 0.11595147 -0.12966439 0.14080662 -0.2373553 -0.11910209 -0.27733192 0.10530771 -0.13618867 0.6768608 -0.28745267 1.5235288 -0.24746598 0.6361541 0.12086915 0.21989407 -0.4857457 0.363466 -0.114172906 0.13707879 -0.3397963 0.12858228 -0.08979884 0.12470558 -0.12308624 -0.14596915 -0.84909415 0.02292113 -0.50803244 0.18317816 -1.0092393 0.10475712 -0.15996157 0.15251847 -0.17135936 0.15111522 -0.37733194 2.541039 -1.92187 -0.23279534 -0.13019516 0.05709044 -0.2526102 0.16712855 0.2782401 0.4001729 -0.66060233 0.3789964 -2.4746768 0.16973555 -0.19018194 0.22303304 -0.22042435 0.16353944 -0.18667126 0.1788103 -0.6245041 0.06497663 0.23406465 2.627365 -0.21235497 0.6059327 -0.17041878 -0.00986524 -0.41039997 1.6648709 -0.55851996 0.28160736 -1.7390233 1.7969522 -2.6481805 0.8441432 -3.4167032 544.0022 7.1801972 6.1764793 3.0942638 -7.6875763 1.3515013 -1.6864251 0.59412515 -0.47872755 0.5222524 -0.59919983 0.32884556 -2.1807814 0.25719556 -0.17880757 0.18465295 -0.26575533 0.9152928 -0.16407646 0.26154462 -0.09604426 0.5112992 -0.17943513 0.12555388 -0.5574538 0.09971971 -0.22336556 0.11029612 -0.07707298 0.0930333 -0.065474965 0.8075424 -0.13773265 0.062743895 -0.010145216 0.049778476 -0.05489634 0.036499366 -0.045688607 0.040620353 -0.12339115 0.036655076 -0.04208709 0.1826851 -0.03676068 0.042736292 -0.051124737 0.047274526 -0.037525114 0.021736259 -0.07753626 0.037119113 -0.12551908 0.057411782 -0.017176013 0.027559113 -0.028885704 0.025196392 -0.026394043 -0.010913003 -0.029694077 0.031329658 -0.019167636 -0.028058724 -0.021508804 0.19050182 -0.016504632 0.018167838 -0.03895628 0.022353254 -0.012740036 0.014390139 -0.019926403 0.010544735 -0.013892329 0.008034588 -0.016504064 0.009729237 -0.01654855 0.010730192 -0.012678323 0.025183335 -0.06076953 0.007710537 -0.0077101085 0.008966087 -0.0044969907 0.0030393235 -0.004858033 0.0053098765 -0.007966098 0.006770147 -0.0051526637 0.016060919 -0.021688905 0.0028851507 -0.0042172032 0.0050737183 -0.0042395075 0.0039902087 -0.0025685956 0.040071934 -0.022595288 0.0032350258 -0.0024556655 0.0029413507 -0.0035815488 0.0012224722 -0.0031850173 0.0025184352 -0.0027933135 7.216522E-4 -0.0021804937 -0.0112720635 -0.0029088021 -0.0036638684 -0.0036410731 0.0012051457 -0.0022152122 0.002017465 5.207655E-4 -0.027116697 8.357846E-4 0.002024924 -0.0015523306 7.3046796E-4 -3.7669868E-4 0.0014665143 -0.005383176 -0.003897828 0.036316287 0.0016858841 -0.022414226 0.007133313 4.219784E-4 3.844926E-4 0.0033738278 -3.2907753E-4 9.201576E-4 0.045463614 -8.727972E-5 6.77646E-6 1.2933798E-4 2.7333992E-5 -1.0833453E-4 1.16071096E-4 1.1129644E-4 -1.7143093E-4 -1.3394727E-4 1.4188662E-4 1.332162E-4 -2.6878717E-5 1.0698214E-4 -6.256335E-5 -1.516231E-4 -0.0014728257 9.641592E-5 -1.5609408E-5 -1.5607755E-5 -3.2618325E-6 -2.0056377E-5 1.5368677E-7 7.1975505E-6 2.5454942E-6 -2.9689736E-5 1.3470624E-27 1.061308E-27 8.0617607E-28 -1.0211622E-27 2.2631497E-27 1.4150682E-28 -1.4743885E-27 -6.853472E-28 -1.8146213E-28 -2.1758803E-28 2.595731E-29 3.374252E-29 4.907888E-31 1.9741656E-29 -1.1102645E-29 1.7455898E-29 1.3619945E-29 5.6960273E-30 -1.3515937E-31
airport 6.4114723 -7.257716 4.4203787 -5.0494695 2.4158323 -2.120913 1.6182809 -4.425957 3.402758 -3.2437668 3.8567295 -4.6466494 1.1097754 -2.0956357 1.5114156 -5.5642586 2.7129178 -0.7997338 1.5264024 -0.98133683 0.47253704 -1.1013843 0.67814726 -1.7839597 2.2299683 -1.1215762 1.7420901 -2.0867238 2.0976322 -0.31418246 1.7607294 -3.8048928 0.29521644 -1.0340706 0.9590811 -2.5910544 1.5307084 -2.0143738 4.77625 -2.0499156 1.9261565 -3.9188406 0.67671627 -1.4111158 1.722358 -0.583047 0.6381685 -1.1881746 1.7395252 -3.2471087 1.3301677 -1.603247 0.8312249 -1.2405218 1.4296384 0.6887147 2.041665 -2.1702917 1.0070281 -3.6882493 1.6494569 -2.1802187 0.4533763 -0.48376656 1.086314 -1.7562644 1.1742483 -1.4501548 3.3860192 -1.4405513 0.6859231 -1.2228997 1.1194102 -1.411882 1.0762255 -1.8972435 3.5509548 -1.2753384 1.0795573 -1.0115868 1.515141 -1.7180384 1.6145585 -1.2550764 1.8353479 -0.93203753 3.3702438 0.061298646 -1.2376392 -0.96519595 1.7966689 -2.0972779 0.8876146 -0.6691969 1.7897315 -2.820104 3.9814396 -2.6000843 2.528831 -0.5511729 3.4179976 -6.7301636 -0.7497518 -6.4488244 2.418077 -17.543533 0.6835943 -1.0813435 4.538371 -1.9320666 1.995912 -2.3568192 2.9185715 -19.383268 4.0670147 -4.808477 6.292632 -7.8283515 37.188923 -7.5901084 7.7634006 -50.1983 28.385815 -117.12333 2245.4666 159.38469 -36.433777 28.687342 -7.1202083 16.46213 -27.865002 22.0587 -5.826322 31.62304 44.807556 215.91551 -1.5052603 1.3406818 -3.7765694 3.5563252 -1.1740024 -1.3969766 -3.1113753 2.6280837 -0.5200688 0.96849614 -8.778684 1.9077357 -1.8575423 0.5877238 -1.3886759 1.2305738 -0.6112247 22.811539 -7.853796 -0.16083784 0.6047825 -0.79541624 0.6507422 -0.80561036 0.38618404 -1.6946272 0.56586957 -0.7950755 2.392866 -0.17249753 0.71346754 -0.9439334 0.30386132 -0.5952499 2.5363765 -0.46185854 0.3183143 -0.18599093 0.17284049 -0.2642833 0.5078255 -0.60267705 0.3225481 -0.189192 0.16702613 -0.507678 0.27461654 -0.19920814 0.27429536 0.2029829 0.23397912 -0.16984312 0.19704197 -0.62766546 0.12784676 -0.19896968 0.17245358 -0.08941289 -0.030806711 -0.19191778 0.16049603 -0.63581306 0.14088695 -0.26062733 0.19462496 -0.19604473 -0.0016284714 -0.20139948 0.045564882 0.033503126 0.12539965 -0.24525455 0.09565568 -0.041815873 0.051828854 -0.052200254 0.055930864 -0.09222922 0.052253563 -0.03738105 0.094001465 -0.26563007 0.13928232 -0.094624095 0.106602006 -0.034093797 0.04043307 -0.038978703 -0.0571208 -0.013486035 0.06993431 -0.08147084 0.38326395 -0.05514691 0.052268248 -0.08779144 0.055418167 -0.10556938 0.022198869 -0.07985914 0.41585994 -0.23966649 0.33201358 -0.26158133 0.019193502 -0.05453668 0.06513182 0.0038639305 0.027160479 -0.09452724 0.07484658 -0.26901022 0.052434288 -0.021917468 0.018660182 -0.043738186 0.048654385 -0.2092186 0.007727377 0.046164464 -0.037822343 -0.016012292 0.028182548 -0.011437488 0.01669924 -0.058420923 0.035701267 -0.06649627 0.013539779 -0.049589325 0.012615299 -0.029039908 0.010147755 -0.012146229 0.02387292 -0.012891994 0.014755537 -0.026025008 0.033108726 -0.030085813 0.013763728 -0.020631831 0.03725933 -0.03783688 0.01369593 -0.025149273 0.0073271557 -0.0066475947 0.009183734 -0.015914083 0.020458844 0.0016975633 0.006616183 -0.021504309 0.006116704 -0.0066883643 0.014749808 -0.017645223 0.00615813 -0.0062296907 0.08864808 -0.02214384 0.006393698 -0.0053352956 0.022230133 -0.0043832003 0.0037866018 -0.011194849 0.018857501 -0.05886284 0.03859884 -0.011803332 0.017742708 -0.004028633 0.009978342 -0.024783188 0.005154047 -0.003481889 0.009649264 -0.0033612207 -0.009280627 -0.002344475 0.005544745 -0.0026978508 0.015992463 -0.0045006652 0.00224771 -0.002059468 0.0021160312 -0.0043828306 0.0022467826 -0.00206146 0.001189052 -0.0062875524 0.002206824 -0.0010365857 0.0019897518 -0.0025118233 0.0020607943 -0.0015438542 0.0014700243 -0.0013656338 0.0022325038 -9.801782E-4 8.039006E-4 -0.003456944 9.806463E-4 -0.0014622267 0.0011645916 -8.6032454E-4 0.005595903 -9.2709914E-4 5.690159E-4 -6.830914E-4 0.005516356 -6.163979E-4 7.910388E-4 -4.1196906E-4 7.80566E-4 -4.4256635E-4 9.505416E-4 -5.167438E-4 0.0038396635 -7.038303E-4 3.3181367E-4 -2.7722705E-4 3.9965863E-4 -0.0026732585 1.9975442E-4 -3.13717E-4 0.0022457787 -1.1869581E-4 -1.5182895E-4 -5.849316E-4 1.6233063E-4 -2.490465E-4 2.9732514E-4 -7.0537285E-6 -0.003007454 5.7840265E-5 1.3987556E-4 -1.520722E-4 9.048915E-5 -9.8751254E-5 1.1720713E-4 -2.2830724E-4 -2.5447893E-5 0.0012507773 1.7885676E-4 -0.001321965 -0.0016728413 1.1128962E-5 2.8969425E-5 -0.0016015099 -1.8420833E-5 3.9397838E-4 6.199911E-5 -2.6880685E-5 8.789161E-6 1.0688118E-5 1.1982509E-5 -4.0077113E-5 3.295796E-5 3.666589E-5 9.610588E-6 -1.7125176E-4 5.0512387E-4 9.887401E-4 0.0011405097 5.1102284E-5 -3.1256625E-6 1.09574576E-4 0.002433206 1.1853584E-5 -5.0432113E-6 -4.2773327E-6 -2.453E-7 -3.4506957E-6 -6.5988917E-7 1.6183972E-6 1.4339691E-6 -2.2599863E-5 -1.0506619E-27 -2.0870274E-27 -9.424589E-28 -6.1336935E-28 -1.2840238E-28 7.2943134E-29 -8.296953E-29 1.0411699E-28 -4.1831075E-29 2.6856747E-29 -4.7061832E-29 2.2591212E-29 -7.2260647E-31 2.793992E-30 -1.208212E-30 6.0426202E-31 -4.082047E-31 2.8848573E-31 -3.0646272E-34
population 6.5356483 -14.047233 7.084165 -10.929877 1.2365955 -20.671055 -0.4338841 -11.578609 1.5888141 -2.100236 3.633897 -2.7778473 3.1418073 -0.8780241 6.272099 -1.9748198 0.76996905 1.841794 0.7897851 -0.30503574 0.9371983 -1.5186073 1.5292469 -4.992504 0.8927843 -1.8401783 1.4531326 -1.3869575 0.36148217 -0.34007642 1.318748 -3.543241 -0.06293389 -1.1959996 1.7963634 -2.1736417 1.1735978 -1.8359979 3.478677 -1.6327051 0.57375234 -0.327976 1.1117275 -1.8583539 1.472822 -1.3605919 0.64437276 -0.9517717 0.9178053 -5.6233635 1.5031465 -0.12117787 0.88218987 -0.26701167 1.3429438 0.63902515 1.046258 -2.9673305 1.2222713 -0.5147213 1.9706795 -7.145372 -0.8164657 -0.13544148 1.0439271 -1.4419091 0.39103344 -2.624614 2.0593755 -0.5025548 0.4471496 -1.5242516 0.8347385 -0.9437318 0.8309456 -1.1786195 2.2937717 -2.2802396 1.0903981 -1.1360384 1.5831581 -1.9098291 1.7224499 -0.13129386 1.5110931 -0.540836 1.5064673 -0.028436204 -1.0776554 -1.3566505 0.53997725 -0.49900272 1.6820782 0.10316207 1.1696546 -1.1859902 1.1466026 -3.2213278 2.4276237 -0.3268672 1.87409 -3.760465 0.73488086 -2.5049012 2.109068 -1.6786631 1.0988007 -4.1948814 3.6071134 -1.568653 1.7688538 -5.876525 3.747684 -3.372663 5.1634426 -5.6020775 3.2824419 -5.3044333 15.559614 -8.61336 3.2764847 -13.003195 5.309165 -22.540857 29.805233 -50.348145 94.5107 -2231.4543 -24.4009 135.30786 -21.203617 10.850077 -13.856854 20.128141 16.442781 3.6792996 -5.0600047 5.4274297 -4.0489035 6.9839163 -6.818899 -4.9850006 -2.3941715 9.556577 -1.41492 0.7250103 -1.4382929 1.2450018 -0.605193 1.4009581 -1.007892 1.5554433 -0.2108318 1.300865 1.607061 -0.23145765 0.4749945 -0.6272331 2.07216 -0.63696647 0.8524066 -0.8017496 6.261435 -0.65885425 0.9879422 -0.5100006 0.15239841 -0.45382696 0.5784964 -1.9752086 0.0398975 -1.2089238 0.11259171 -0.1879277 0.31626347 -0.21737438 0.28306374 -0.15181442 0.40789437 -0.27077952 0.45999068 -0.51313686 0.51977 -0.24541123 0.33848485 0.16715312 0.15772194 -0.0892819 0.44752154 -0.25055268 0.115854815 -0.56389076 0.35609332 -0.20931248 -0.020819517 -0.41696835 0.116451755 -0.1561192 0.005496229 -0.10877842 0.14339393 -0.30569288 -0.02839138 -0.1041331 1.2679472 0.036744688 0.043430593 -0.04368652 0.15924229 -0.20906204 0.069674894 -0.33141464 0.099480174 -0.031882655 0.043972563 -0.22395277 0.067696504 -0.18986017 0.08505494 -0.06200723 0.049061585 -0.09861267 0.06781783 -0.20289624 -0.096513025 -0.13279799 0.04774589 -0.066346265 0.027154438 -0.021925064 0.022600198 -0.021928173 0.047812358 -0.028705962 0.014334823 -0.06336768 0.09080118 -0.007163988 -0.05375306 -0.1568999 0.029682023 -0.05750914 0.011931988 -0.07325832 0.019158423 -0.11377631 0.047302317 -0.037704192 0.10524829 -0.042571157 0.024536114 -0.058198597 0.04030628 -0.06730565 0.023917606 0.036072776 -0.011550961 -0.034913838 0.028594052 -0.031566158 0.012077458 -0.02657399 0.020340852 -0.056395423 0.031437036 -0.02470931 0.053133212 -0.007759144 0.011290206 -0.02534605 0.059427015 -0.010201479 0.013622811 -0.031821266 0.03220918 -0.009526316 0.023306081 -0.008897019 0.020145303 -0.008516483 0.055712353 -0.04640424 0.054625206 -0.0018844832 0.0065478478 -0.0058122138 0.006776819 -0.001086593 0.0051135602 -0.008398926 0.013942785 -0.005371032 0.005879879 -0.05564216 0.012004278 -0.004411778 0.004653126 -0.0038721259 0.005272099 -0.00511525 0.0065103965 -0.005172373 0.0033049567 -0.0031137902 0.0047773574 -0.004785062 0.008599743 -0.0029261452 0.012179315 -0.0044816164 0.010560089 -0.005816386 -0.01052475 -0.010475369 0.014610607 -0.0032784396 -0.0031669491 -0.0025308419 0.005710652 -0.0022025409 0.007417159 -0.009328069 0.009265374 -0.002286111 0.0017963113 -0.0034022832 0.0016694689 -0.0019381326 0.0012994227 -0.006873237 0.0013206195 -0.0011694044 0.0016154438 -0.001991707 0.0054009915 -0.0011825374 0.011755654 -0.004386379 0.0016345903 -9.226125E-4 7.2327664E-4 -0.0010106013 0.04198264 -0.0012582964 0.0016466066 -7.2380673E-4 0.0030546605 -0.0045013656 5.2776677E-4 -6.68727E-4 0.0063957614 -0.012524948 5.807149E-4 -4.502419E-4 5.570561E-4 -4.8402717E-4 5.826795E-4 -0.002961345 5.5099797E-4 -6.5608893E-4 3.1293908E-4 -0.0053967386 3.6243818E-4 -3.1542208E-4 0.0013728933 -2.9482512E-4 0.016086845 -9.72513E-4 0.002207047 -4.7755204E-4 8.069235E-5 -0.0015495463 0.0022505096 9.715014E-5 -4.130094E-5 -1.2529918E-4 0.0031052737 -1.5922711E-4 9.731026E-5 -9.398768E-5 1.272742E-4 -4.888951E-4 -3.2665333E-4 0.0032762121 2.1699247E-4 -0.0020056993 0.0027089578 4.1393545E-5 7.0137647E-4 -8.301091E-4 -3.4054046E-5 4.106138E-4 4.197305E-5 -3.660028E-5 1.0658049E-5 1.1319638E-5 1.0145952E-5 -2.9188646E-5 2.1765895E-4 0.0011005587 -2.4741993E-4 -1.1957372E-4 3.3964976E-4 -1.8804935E-4 4.1509247E-6 2.3205587E-4 -1.0753272E-5 9.746501E-6 4.0010922E-4 1.2998169E-5 -2.1329508E-6 -2.4252893E-6 3.73593E-7 -3.1676268E-6 -5.602785E-7 8.220275E-7 1.1828299E-6 -1.7126189E-5 4.970162E-28 3.9192147E-28 4.8020376E-28 1.688225E-30 -4.7451115E-28 -1.3779065E-28 -2.563163E-28 -2.057886E-28 -1.6090096E-28 -1.5873185E-28 -2.4040758E-29 -9.721197E-29 -1.543474E-32 8.706703E-30 2.1124843E-30 -5.671453E-30 2.1632907E-30 -4.9311255E-30 -3.4575635E-33
planning 9.211992 -5.3602977 9.208375 -2.796654 3.5864532 -2.6183646 6.2632117 -4.597952 1.8758876 -6.309321 6.5086775 -6.2950854 2.134494 -1.9987218 3.2978258 -3.850132 1.2568138 0.68522 2.7553487 -2.6641986 0.67398524 -2.5988708 1.6980369 -5.060336 11.025865 -3.248938 3.8762164 -2.744105 2.190488 -0.7319514 2.6533048 -5.7203765 2.1760206 -1.7971689 1.7881733 -5.4130816 2.1052542 -1.516876 2.0485 -1.8603368 1.3550726 -1.3693582 1.9934367 -2.1658418 1.539197 -3.642686 1.6968411 -2.692095 0.91831475 -1.8371993 1.1251736 -0.8865267 2.0322833 -0.80390966 2.4489741 0.85853255 1.2205021 -1.6018414 0.9992201 -5.699678 1.317722 -3.4026685 0.38678774 -0.85084736 2.0242827 -1.0746336 0.3099265 -7.8995852 1.4363669 -0.51208305 1.3467885 -1.4105372 1.4286935 -1.9311005 1.132557 -3.8011491 5.139912 -1.2689548 1.904749 -0.7755051 1.5601315 -2.6989465 2.8093522 -0.3525572 1.7290081 -2.1169653 3.745474 0.18121 -1.4157802 -2.7768 1.1122545 -0.99613404 1.2328442 0.24148655 4.700101 -2.516252 1.7473749 -3.456141 1.2900982 -1.4967561 3.8739164 -7.4366136 -1.0670502 -5.95583 1.0923784 -3.791451 2.2110438 -2.3852823 1.4994864 -1.2055587 2.6193345 -4.8615794 4.5045214 -9.810844 4.9712486 -5.99181 2.6434588 -3.7048712 14.663795 -3.6366675 3.821787 -14.511382 7.434263 -7.491429 23.718102 -29.099459 7.9479294 -20.733635 7.824976 -26.351028 29.652752 -77.61868 103.90554 -2167.1133 113.9504 91.783195 -16.026302 5.4681664 -5.750863 9.981038 -17.835918 -9.600048 -3.0326273 6.1443844 -4.8747287 3.1722476 -4.0168886 2.6426368 -3.288839 2.474921 -1.986522 4.819118 0.04881181 2.1125526 0.25328264 -0.31622168 2.4967878 -0.4340904 1.1003209 -1.8784882 1.1089774 -2.018483 0.63722855 -0.62041885 1.732557 -1.8915064 0.9897107 -1.3818887 0.64210594 -1.288391 0.5090464 -1.1958951 0.7135934 -0.97944385 0.33907598 -0.44376588 0.8783669 -0.8401048 0.29554707 -0.1523821 0.30353868 -0.44373563 0.25937915 -0.3347037 0.57336956 0.10332319 0.31660858 -0.2478455 0.28445795 -0.2769222 0.13613842 -0.23928896 0.5786972 -0.27593806 -0.1579778 -0.06678071 0.12394465 -0.4297873 -0.14045826 -0.49759007 0.12636344 -0.42267036 -0.061121237 -0.21991947 0.17180286 0.07220227 0.11453019 -0.07587152 0.10236517 -0.06866693 0.08604359 -0.24050318 0.090845145 -0.073475555 0.15496618 -0.12681995 0.08644411 -0.20629205 0.07223524 -0.13773112 0.1336737 -0.0710582 0.071198456 -0.05926764 -0.16705206 -0.06063512 0.041911986 -0.102047786 0.11326156 -0.016766412 0.028215455 -0.047394108 0.049670286 -0.052847918 0.044351183 -0.084206976 0.1579027 0.022367181 0.026958266 -0.061172877 0.03372197 -0.09290424 0.06866681 -0.008651068 0.06883271 -0.062403873 0.059731785 -0.09051616 0.057018112 -0.028832113 0.095050655 -0.04005969 0.05873879 -0.03490256 0.009009174 0.07476559 -0.020200869 -0.02031377 0.065051526 -0.03404012 0.023409236 -0.013643641 0.030275984 -0.11130986 0.0141591 -0.021904219 0.028316826 -0.011376689 0.031711083 -0.012773685 0.014783609 -0.01858595 0.03664597 -0.049842525 0.0092250435 -0.023179261 0.04466545 -0.008653818 0.027509114 -0.026619958 0.028078409 -0.0029327278 0.013228342 -0.06237445 0.044663567 -0.029318891 0.017231684 0.005863591 0.07535978 -0.008383864 0.0028032954 -0.11431656 0.005430678 -0.0071217883 0.006525947 -0.019467354 0.016331866 -0.049460687 0.015430912 -0.011049137 0.01021856 -0.0054675536 0.014050045 -0.004404779 0.027382568 -0.00447748 0.0041883574 3.3760755E-6 0.025703374 -0.004344686 0.0050803586 -0.011303138 -2.6965415E-4 -0.016846536 0.004206671 -0.009394568 -0.0034622073 -0.0051351995 0.0066428497 -0.002871504 0.0033317495 -0.011019865 -0.0038816242 -0.007485163 0.012428546 -0.004785661 0.0019286445 -0.00950166 6.246162E-4 -0.004051454 0.008129872 -0.0037375158 0.0023035514 -0.008700808 0.0018625561 -0.0014109659 0.0019058151 -0.001245576 0.0022702576 -0.01396194 5.251714E-4 -8.097438E-4 0.001173519 -0.011269971 0.0011360702 -8.547184E-4 0.007697484 0.0023661072 0.003494448 -8.5068744E-4 0.0038452276 -0.0043175826 0.004099238 -5.21505E-4 7.148979E-4 -5.4375175E-4 7.9342455E-4 -7.221042E-4 6.5512524E-4 -9.4048964E-4 0.0022427407 -4.797727E-4 4.4442504E-4 -0.0036142482 0.0017961859 -3.7479165E-4 0.011734166 6.096714E-4 0.0011634049 -5.7242834E-4 1.4248035E-4 -2.5465502E-4 3.2721038E-4 5.859108E-5 -0.0015344766 -9.423513E-5 3.1718172E-4 -2.5012475E-4 1.5628367E-4 -1.697853E-4 2.1163083E-4 -7.1913033E-4 -3.619819E-4 0.0044925576 5.219327E-4 -0.013678278 0.0062615504 3.734626E-5 5.1858224E-9 -0.0015997888 -7.4778385E-5 0.001478291 1.9038873E-5 -5.1331634E-5 2.396221E-5 -1.736198E-5 6.6502207E-6 -1.4214965E-5 0.0012259645 -1.411456E-4 4.693775E-5 -3.6947917E-5 -1.1139877E-5 -4.071593E-6 -2.2184351E-5 2.55821E-5 8.207294E-6 1.802182E-4 0.003899376 8.155229E-6 -5.2984115E-6 -2.7797569E-6 6.890004E-7 -2.996331E-6 4.5684652E-7 1.7423919E-6 1.3698732E-6 -2.2655275E-5 -1.5239337E-27 -9.330861E-28 -4.0259295E-28 -3.5183485E-28 -1.2340438E-28 -4.494697E-28 7.23546E-29 -1.6768752E-28 -1.7620023E-28 -7.996205E-29 3.627583E-29 -1.9092559E-29 1.7746814E-29 -2.0424969E-29 7.771067E-30 -3.4869244E-30 6.349768E-31 -9.683351E-31 -4.1221097E-34
canyon 0.2639195 -0.5021218 0.078035854 -0.2379608 0.101249695 -0.09323316 0.21325757 -0.3211071 0.21834937 -0.11178643 0.113188386 -0.42737162 -0.020824434 -0.08048948 0.28179738 -0.14375295 0.022754598 -0.035896283 0.11291671 -0.030961614 0.086934485 -0.13738587 0.027270071 -0.12274602 0.30097583 -0.09924957 0.076293856 -0.18175022 -0.041546173 -0.028552799 0.1940871 -0.0956528 0.15691845 -0.011469144 0.01039325 -0.07032931 0.07958208 -0.39327693 0.9860211 -0.031607673 0.014441294 -0.13030544 0.034351703 -0.17829028 0.23827824 -0.06282719 0.14728263 -0.1325907 0.022666661 -0.052453183 0.020204598 -0.010331369 0.024355082 -0.019985193 0.08011602 0.018114615 0.14788452 -0.20978065 0.018950716 -0.0820203 0.14773417 -0.2140608 0.053246927 -0.06397946 0.028443478 -0.08667059 0.023125568 -0.08710466 0.013079242 -0.0339088 0.32085037 -0.01978227 0.030711258 -0.09272881 0.02261606 -0.11230967 0.06992635 -0.015394661 0.040430747 -0.009453819 0.039344184 -0.043759916 0.16025521 -0.0058612963 0.04105343 -0.022604913 0.06784048 -0.08401456 -0.0901577 -0.03804989 0.13463674 -0.016454408 0.17975086 0.060793225 0.09694542 -0.122904316 0.028091444 -0.049028628 0.04767725 -0.22181481 0.06361993 -0.15573184 -0.083116785 -0.16277911 0.03135203 -0.22044763 -0.0043842597 -0.0128424065 0.072694786 -0.0989706 0.011517777 -0.06739743 0.01920947 -0.10637453 0.015733892 -0.05218551 0.011527752 -0.030486155 0.169949 -0.026125103 0.011750923 -0.021400273 0.06350318 -0.14964946 0.024047902 -0.095477335 0.015485343 -0.019585418 0.02184311 -0.077219605 0.10960594 -0.0387691 0.18819335 -0.0060455743 -0.019788988 -0.019875683 0.010631983 -0.13278484 0.018643871 -0.03531992 0.059419613 0.017718978 0.029431837 -0.072108746 0.022146326 -0.034269936 0.086805284 -0.44857633 0.011535097 -0.015042709 0.03164463 -0.049155097 0.032177515 -0.10348837 -0.02668879 0.034817304 -0.017463112 0.018660156 -0.02075859 0.043822814 -0.17689101 0.023321055 -0.03518233 0.030055434 -0.111100115 0.016564412 -0.011173901 0.017227175 -0.028627405 0.012912082 -0.1769264 0.017411366 -0.014560271 0.014639338 -0.017187666 0.015923245 -0.020501817 0.03772069 -0.031176496 0.09896472 -0.013570229 0.02019343 -0.022476792 0.017246041 -0.044328842 -0.019259645 -0.014479582 0.016385049 -0.024372807 0.024203757 -0.020928033 0.09294386 -0.022938088 0.09734287 0.01098969 0.019164253 -0.03472272 0.03306845 -0.009149192 0.023621589 -0.03714427 0.085246086 0.0056426013 0.021032104 -0.020264853 -0.021835187 -0.05011407 0.106285155 -0.44538024 0.024775656 -0.030821996 0.017308095 -0.027910778 0.020467944 -0.02101573 0.018098569 -0.029310646 0.21815847 -0.13766518 0.066950016 -0.014772916 0.009660076 -0.03844642 0.024359863 0.023610046 0.011624581 -0.057639346 0.111464225 -0.020655617 0.018057842 -0.042056337 0.046742134 -0.026933609 0.01830506 -0.011385516 0.019869711 -0.07113838 -0.053530224 -7.6737814E-4 0.078732245 -0.021393627 0.020686092 -0.0144138895 0.012279171 -0.036206964 0.029509163 -0.025017673 0.016879473 -0.10346507 0.13379408 -0.018303111 0.022828829 -0.0447066 0.19163908 -0.009643499 -0.1329145 -0.07993028 0.029896513 -0.025746584 0.016785705 -0.025729077 0.03661709 -0.029426169 0.028819017 -0.02678948 0.05490925 -0.021609182 0.018587949 -0.015663859 0.029415123 -0.17587328 0.036625884 -0.026024468 0.014662552 -0.026659092 0.030779235 -0.027544996 0.06888358 -0.023983207 0.027683005 -0.032593496 0.035530847 -0.027220115 0.019719077 -0.030610703 0.028127488 -0.028322974 0.0050260285 -0.02302744 0.02448317 -0.016397681 0.021017626 -0.018223658 0.02642318 -0.017855046 0.016538523 -0.02594253 0.026183676 -0.027097052 0.03411691 -0.037192088 0.03440956 -0.02417797 0.033759996 -0.04614083 0.18561825 -0.06731571 0.019248119 -0.17893505 0.038122226 -0.03257399 0.03664586 0.01659756 0.040796403 -0.04943474 0.028663702 0.03989108 0.039972614 -0.3054717 0.040036768 -0.037850566 0.06999721 -0.0036725295 0.046917293 -0.040211562 0.072182424 -0.054399695 0.08820358 -0.051586904 0.13539149 -0.12000772 0.15617397 -0.19113216 0.47580272 -2.2926378 175.10576 0.24062265 -0.23533058 0.18116234 -0.07814488 0.02775567 -0.036084756 0.05236006 -0.04418867 0.037072293 -0.029459316 0.054062217 -0.020857157 0.014638201 -0.018309169 0.02908283 -0.019704659 0.01299483 -0.012557781 0.021199774 -0.015114353 0.021904845 -0.008260022 0.0094668735 -0.011198657 0.004800899 -0.0040034642 0.008075863 -0.010237855 0.004122835 -0.0058334125 0.0027956096 -0.0059745195 -0.006895211 -0.012475258 0.0044578062 -0.005235114 0.00479176 2.1627203E-4 -0.08595927 0.003781863 0.0012454179 -0.0018717317 0.0016716928 -9.636134E-4 0.0014120362 -0.001975199 0.0018619404 0.0040308298 0.0015992882 0.004634037 0.007131261 3.9424017E-4 7.742291E-4 -0.027599098 -9.920446E-5 0.009133848 0.0012277693 -3.15568E-4 3.909444E-5 2.8364206E-4 4.6270218E-4 -2.7587637E-4 3.489654E-4 2.3469124E-4 -1.7753539E-4 -2.6112318E-4 4.070102E-4 1.6806736E-4 5.9490423E-5 4.3910724E-4 -2.2142736E-4 -9.858844E-5 -2.1987823E-4 1.8285506E-4 -7.705661E-5 -3.8264025E-5 -7.508226E-8 -4.5663484E-5 8.049604E-6 1.1492685E-5 1.1785114E-5 -1.1610275E-4 -8.678302E-27 1.925431E-27 -7.455991E-28 -3.9476301E-28 2.5973864E-28 3.0839872E-27 -4.7121974E-28 5.9278776E-28 1.2032935E-28 -1.7402466E-28 -6.981331E-28 -5.300416E-29 8.954754E-29 3.8277346E-29 2.7656736E-30 -4.7975595E-29 1.3298337E-29 -1.129806E-29 8.8580405E-32
delay 3.8124588 -1.815864 2.973676 -1.7182919 1.9884257 -0.56472075 0.91992575 -1.2008225 1.695695 -1.0134411 3.8601568 -1.501126 1.4931401 -2.0804594 1.780312 -1.558602 0.7615565 0.4494575 0.85010165 -0.56682384 3.2319896 -0.41952908 1.043202 -1.1901046 1.754689 -0.88057226 0.9340949 -0.8160366 0.36173198 -0.35029927 0.8043777 -2.598717 1.5322728 -0.79484963 0.48467684 -2.8192067 1.1281217 -0.7333172 0.49428642 -0.6529622 0.2150639 -0.27771106 0.75241053 -1.1055292 0.45306277 -0.95155597 0.5628275 -0.6384658 0.5769322 -0.70151764 0.38160658 -0.38628092 1.1979921 -0.16335753 0.85705054 0.12059653 0.4968993 -0.83761036 0.836772 -1.2526869 0.5475702 -0.81482464 -0.015301883 -0.11750964 1.1115556 -0.8458997 0.33368304 -0.92219275 0.69957495 -0.28582245 0.18035479 -0.7593018 1.8855605 -0.4566766 0.54339695 -0.46508 0.9984355 -0.5045441 0.7224063 -0.05662958 1.1045606 -0.8788813 2.251719 -0.40712133 0.5000316 -0.33091295 1.3182302 -0.36826736 -0.14875038 -0.47205207 1.215 -0.18262826 0.7604832 -0.0010184225 0.40967467 -0.3287706 0.36442444 -0.788548 0.81687105 -0.1693685 0.937104 -1.452104 0.4779414 -0.9272347 0.08098927 -0.5710332 0.64522713 -0.27636698 0.33637303 -0.40230855 0.6436818 -0.6139832 1.4644313 -0.906057 0.35607505 -0.44298777 0.26081172 -0.27371955 1.3128209 -0.08571045 0.11992919 -0.36558375 0.46818668 -0.82466096 0.8765237 -0.28417492 0.3271178 -0.26084277 0.17725985 -0.17948093 0.392568 -0.8110719 1.7423639 -1.1487387 -1.534655 -2.0221245 0.2968907 -0.3462911 0.6222726 -0.44433716 0.2715402 0.34971598 0.77024555 -1.822631 0.10141042 -0.43628258 1.3449919 -0.1588744 1.2332346 -0.7405573 0.5788201 -2.3444278 0.14973973 -1.4682336 0.34363645 0.123534374 -0.64080465 0.16662377 -0.24012724 0.32587484 -0.52999043 0.66395533 -0.37466314 0.9072363 -0.6284414 0.30974025 -0.768022 0.92713636 -0.9599483 0.36288875 -0.8679233 0.657318 -0.3917372 0.24129052 -0.39974418 0.26095656 -0.2356518 0.45626435 -0.673925 0.25870898 -0.67235017 0.75534266 -1.3421263 0.5217597 -0.34357378 -0.42060062 -0.34275916 1.8656276 -0.6406631 2.1359537 -1.1283047 1.800025 -2.382604 1.5134712 4.7186956 2.756136 -4.619124 9.018632 -1.8959851 976.86237 5.4630766 -8.341898 15.161346 -1.2643145 2.0316675 2.5364716 1.0887375 -0.7621162 2.0166929 -0.53729486 2.2461047 -0.32069728 1.1327076 -0.322009 0.6307535 -0.74201196 0.3477977 -0.6870164 -0.119928025 -0.67995185 1.7582543 -0.19556713 0.24076453 -0.2848883 -0.40556014 -0.17834632 0.21407664 -0.375773 0.9636854 -0.078741096 0.14941795 -0.26066503 0.24684453 -0.33928767 0.31089315 -0.112257905 0.45357254 -0.16292384 0.076148614 -0.12971258 0.11086655 -0.41921997 0.3483283 -0.12489978 0.101647966 -0.11222829 0.11195794 -0.19010411 0.25060043 -0.19702539 0.07519285 -0.07355735 0.069021285 -0.07683912 0.04517815 0.2027381 -0.15465453 -0.07369945 0.36448 -0.04361787 0.042477455 -0.050156027 0.0660144 -0.047372945 0.0821253 -0.032184284 0.05624138 -0.04214932 0.044937026 -0.04915375 0.08173263 -0.15005471 0.0748541 -0.049990907 0.15619978 -0.11557225 0.05381415 -0.037092727 0.02859842 -0.03304416 0.038397502 -0.019999832 0.06613623 -0.074021995 0.029910184 -0.035586827 0.029563323 -0.003169584 0.024506131 -0.15017378 0.06661131 -0.2460926 0.01715372 -0.023453131 0.08759301 -0.03287558 0.08925968 -0.017975297 0.018416598 -0.01600282 0.01297327 -0.01662445 0.017827524 -0.013947458 0.04540284 -0.018344695 0.012207575 0.0015964544 0.01163156 -0.013564867 0.015749356 -0.014244149 -0.006882784 -0.013244579 0.015581127 -0.015249607 -0.018003909 -0.009310476 0.057407983 -0.008199583 0.009855883 -0.03463176 -0.013368082 -0.016943922 0.03063264 -0.041292436 0.004752252 -0.0059694317 0.00369015 -0.008228218 0.0048114345 -0.0038148814 0.047922757 -0.008088521 0.004865792 -0.0037510234 0.0050720614 -0.0046133073 0.0053926655 -0.002771513 0.0106574595 -0.002275872 0.017193247 -0.020316599 0.008799288 -0.0023251285 0.0034597036 -0.0012558191 0.0018472038 -0.0149663575 0.008919225 -0.0021578365 0.0023301567 -0.007877154 0.013807891 -0.0012801504 0.0023076013 -0.0018344093 0.0059953756 -0.0018666527 9.468263E-4 -0.0012733042 0.0013352113 -0.0012745259 6.4598344E-4 -0.0013091958 0.021137841 8.3636073E-4 0.0015890236 -0.002563239 3.3691266E-4 -0.0039628446 0.0012622691 6.4316933E-4 -0.022718702 0.0010594605 3.4089247E-4 -3.7238724E-4 3.6617497E-4 -3.4726295E-4 2.9806775E-4 2.7325048E-4 0.0012286021 -0.0052695544 0.0010047967 -0.036081757 0.0056808046 2.2085819E-4 8.916087E-5 0.0015366239 -2.184138E-4 0.001660533 -1.2950557E-5 -8.6241605E-5 2.9897601E-5 2.2709228E-5 2.7886843E-5 -4.2355307E-5 2.0977865E-5 7.4633994E-5 -1.552442E-4 -1.00347876E-4 5.9172835E-5 1.05135936E-4 -7.719644E-5 3.541388E-5 -1.5403662E-5 -5.712635E-5 -5.6288583E-4 2.6817721E-5 -4.509902E-6 -6.0438833E-6 1.996047E-6 -5.5981423E-6 -1.3406891E-6 5.9653246E-7 2.0409575E-6 -2.5774762E-5 -3.6762598E-27 -2.4590992E-27 1.309504E-27 5.9095677E-28 1.04070995E-29 3.7229519E-28 -1.2183399E-29 -5.167131E-28 -3.346759E-28 -1.2861669E-29 -1.1965947E-28 9.7940784E-29 1.306386E-29 -2.062289E-29 1.2672217E-29 -7.9739955E-30 9.1791185E-31 -2.0663511E-30 -2.4571717E-33
size 6.1141715 -3.4861248 5.089933 -2.5012028 1.3317739 -2.8279176 3.3492503 -2.8874166 1.8859493 -2.2311032 9.579202 -1.8953718 0.98761725 -0.7954744 1.1774719 -2.9236467 -0.24714695 0.52343756 1.3102672 -1.2817643 1.2213898 -2.6113198 3.0552793 -4.276262 1.7474705 -1.4403545 1.1011456 -1.2696211 0.07536517 -0.2500804 0.824162 -2.505781 0.5943799 -0.7821129 0.46781552 -3.5873506 1.3613065 -2.1041577 6.0600514 -1.5741848 1.2476501 -1.9380398 1.6228042 -1.3811064 0.6418261 -1.489035 0.791742 -0.9667362 1.858293 -1.7500017 0.73074 -0.42698893 1.4908093 -1.3677188 2.6535428 -0.1517375 1.712118 -1.5454721 1.059094 -1.2697783 2.389404 -1.3880668 0.54861915 -0.22622167 0.92043406 -1.53091 0.1709405 -1.2166309 1.3089651 -0.65254253 0.7503511 -0.7329909 0.68964964 -0.73209864 1.3880248 -1.2701429 2.2723444 -1.0190244 1.8419539 -0.80589885 0.9879844 -1.1761163 1.8251687 -0.20749108 1.4254267 -1.3043412 4.782555 -0.47500503 -0.12229198 -1.2809634 1.0578161 -0.52683216 1.1372597 -0.47497317 0.96740144 -1.2070471 1.306612 -1.5214407 1.0923166 -1.7100751 1.6328772 -3.1942406 -0.4701168 -2.2100716 4.065368 -0.55382043 0.61678165 -1.2997096 1.1522619 -0.34154105 1.1587223 -1.4706538 1.0379518 -0.6380753 0.68921274 -1.1517906 0.4124453 -1.3458889 1.0958406 -0.49331787 0.9510774 -2.6208806 1.0789323 -2.5771804 1.2548378 -2.4415753 1.3850232 -8.528262 0.61505157 -0.7104816 3.5964525 -0.73743725 1.2489285 -0.8694297 -2.063719 -0.86792225 2.2282245 -1.1991792 2.9428608 -2.3945968 1.0880592 1.1028246 4.150367 -3.9131868 3.103712 -3.3540447 1.5724828 -12.377002 1.3861274 -3.928819 8.106702 -3.3794358 1.235329 -9.835217 -6.5903125 2.2566454 -7.3157444 8.329503 -4.481695 13.201037 -12.2260065 103.57512 -1639.923 -32.200886 23.115068 -11.089738 5.2527533 -4.6958184 3.2639296 -9.542864 11.640859 -14.943706 2.4418142 -2.781189 4.5978327 -0.8810034 2.6652048 -0.8854349 1.7356399 -2.0956888 1.6574731 -1.0387546 6.651039 -0.60600543 1.0723951 0.7958837 0.364483 -0.69456077 1.703494 -0.58119375 0.4062073 -1.5844474 1.1619859 -0.6612155 -0.050844427 -0.20919119 0.79729855 -0.51062196 -0.10115167 -0.24342398 0.5883653 -0.3285367 0.45920467 -0.11685403 0.27627966 0.4806187 0.7330218 -0.0508212 0.57564867 -0.12192311 0.2402624 -0.24004331 0.33249447 -0.07998546 0.28367102 -0.21364649 0.2159491 -0.499542 0.25492835 -0.087141335 0.15407945 -0.104351506 0.4055857 -0.071173064 -0.2819313 -0.11676415 0.07477088 -0.205943 0.10830005 -0.06417799 0.15944749 -0.03825774 0.08740009 -0.1959872 0.06538764 -0.1955572 0.18417943 -0.025248807 -0.11870722 -0.22580354 0.19666165 -0.124633655 0.023378057 0.026642632 0.0363872 -0.06930197 0.04724936 -0.02719882 0.20817697 -0.09513009 0.029275397 -0.054270618 0.028148541 -0.052651044 0.027502839 0.06269453 0.012971755 -0.07815338 0.058471337 -0.026392033 0.108537026 -0.020585695 0.04626288 -0.029275278 0.078265175 -0.2346995 0.04488271 -0.014215033 0.031966608 -0.02427672 0.059307177 -0.06697874 0.1508349 -0.020918723 0.09314217 -0.0175682 0.024985196 -0.034396186 0.016881179 -0.016019512 0.055778895 -0.001187079 0.018164044 -0.034215167 0.01283723 -0.013786379 0.023207096 -0.013957305 0.012700718 -0.19559501 0.0055717346 -0.024083488 0.0386608 -0.016978903 0.009671534 -0.009829332 0.02839289 -0.009249995 0.011013581 -0.010468142 0.008964029 -0.009581544 0.024385331 -0.005735514 0.009699264 -0.008812599 0.006600267 -8.303243E-5 0.03136996 -0.052650087 0.006078141 -0.022798093 5.8160094E-4 -0.009127668 0.06623328 -0.032592516 -0.013712931 -0.0051926402 0.060327902 -0.003962355 0.004406084 -0.0067566154 9.236989E-4 -0.004074718 0.0036772303 -0.021468574 0.0026142849 -0.00385102 0.0024344448 -0.01995331 0.002393077 -0.006021401 0.0032934933 -0.0037524656 0.002681458 -0.0036127865 0.010577975 -0.006393501 0.006179478 -0.0015238945 8.6904457E-4 -0.009271822 0.009411021 -0.0025434077 0.0031823467 -0.001350955 0.002417545 -4.9921026E-4 0.0011605953 -0.010462432 0.015176886 -0.005182361 9.7446394E-4 -8.1777264E-4 8.434641E-4 -8.9780684E-4 0.006583222 -0.0010962159 9.653979E-4 -0.0011739683 0.003015583 -7.2622683E-4 0.0018742142 -5.3514354E-4 3.720415E-4 -8.43525E-4 0.007553616 -0.00473815 0.001196724 0.0012956577 5.3480145E-4 -0.0011601875 -2.0370142E-4 -0.0013289832 0.032047845 -0.002683806 7.241647E-4 -7.527008E-4 5.754016E-4 -4.657151E-4 4.1476762E-4 -0.00122114 -4.7306003E-4 0.0065973196 7.3125656E-4 -0.01255277 0.0032766515 1.1760835E-4 1.3898368E-4 5.8295176E-4 -1.0893919E-4 6.1114493E-4 9.3165734E-5 -1.1023743E-4 2.1767553E-5 8.98922E-4 -1.5912829E-4 -3.2994998E-5 9.0994974E-5 4.7833742E-5 -2.0146773E-4 -4.6855715E-5 3.5906174E-5 3.012086E-5 -2.5682337E-5 2.9545681E-5 -2.4266123E-5 7.1955446E-6 6.2782015E-4 2.1694503E-5 -2.9535438E-6 -6.350582E-6 -5.579338E-7 -4.2920165E-6 -1.1078665E-6 2.024712E-6 1.7391775E-6 -2.6577796E-5 1.2263376E-28 1.2910861E-28 8.9564854E-29 1.1836401E-28 -4.544113E-28 -3.1904837E-28 -4.9570948E-29 3.6890793E-28 9.889261E-29 -1.627479E-28 -2.2734048E-28 -1.3425617E-28 5.0934833E-31 3.0209847E-30 1.3362382E-29 -1.2482159E-29 4.1600986E-30 -8.5125095E-30 -5.2091294E-33
peace 12.318528 -6.7498302 17.361765 -13.150874 17.583017 -1.6105336 0.97123265 -7.384647 4.5328484 -4.570713 6.159568 -6.3035035 1.7783232 -5.8915987 2.2012756 -3.4418437 1.7648698 -0.08448543 2.7010856 -1.8022407 1.4975151 -3.3387768 6.534674 -2.632037 4.023355 -2.5352092 6.753151 -6.278422 7.453923 -1.7937211 3.183639 -8.34058 2.6405466 -0.9172986 17.5307 -14.275514 2.7173433 -1.8406794 1.9738743 -0.8255375 1.1896574 -0.9439679 3.5203593 -2.1469238 2.412011 -1.8593467 2.2675989 -1.7507143 2.4093084 -3.2755852 3.1785173 -0.9808573 4.202821 -1.1046221 4.7655296 2.2836914 2.742412 -1.7883813 2.8152943 -1.7678461 3.6208236 -9.730325 5.658663 -0.28296873 4.3332973 -2.22539 1.985104 -5.9238873 5.3867855 -1.1039406 2.631991 -1.6067691 1.4786627 -2.1420095 2.2723203 -5.8720713 3.4921834 -1.6148401 4.7404995 -2.5713482 2.0037227 -1.8167559 3.287504 -1.7025349 12.442688 -1.9706335 5.305616 -1.8695661 -2.3719296 -7.0632863 10.900508 -2.9199216 11.271581 -11.281519 3.3887894 -3.1329536 5.866461 -24.170958 12.289036 -6.1477656 25.07402 -132.98093 83.87875 -6.922819 11.106518 -36.050976 22.788298 -106.206085 2714.4797 107.71376 -252.89749 24.295826 -26.753597 3.859218 -23.671705 5.49197 -6.761983 2.3187227 -9.201907 0.7437062 -1.9105418 5.55703 -1.2580982 5.4870996 -4.1890507 4.956193 -1.1610786 2.988937 -3.4059725 1.3351495 -4.585647 1.0938928 -1.0378631 1.3987607 6.73989 0.15516458 -1.3176194 2.354189 -1.9388293 1.3679885 -1.0775238 -1.7706378 -2.8275843 5.5665326 -14.890917 0.48249418 -0.5393777 1.2557632 -1.220347 1.5023066 -0.6568499 2.7725065 -0.16830778 0.66928387 0.3722028 -0.19652954 0.32961324 -0.81678796 0.29966474 -0.6975314 0.56193036 -0.46330467 0.68648803 -0.80422837 0.5690853 -0.468086 1.1354661 -0.75361216 0.7521141 -0.61393106 0.12743013 -0.6958351 0.12612374 -0.22758219 0.28406942 -0.35357055 0.3528707 -0.36030027 0.23505743 -0.4946507 0.36552966 -0.20152406 0.16725476 -0.48728505 0.14001688 0.16802995 0.07025243 -0.28242087 0.104091294 -0.30249995 0.13804625 -0.17202593 0.18714833 -0.3101431 -0.05939775 -0.45334336 0.35001752 -0.23120372 -8.3566026E-4 -0.117597155 0.091404386 -0.11654589 0.035072323 -0.20012581 0.056747336 0.06610544 0.06677571 -0.11371753 0.15449351 -0.073273815 0.09490426 -0.20951928 0.044872876 -0.059094306 0.100565806 -0.0740422 0.07985478 -0.34764108 0.016728505 -0.39400008 0.08392835 -0.2374897 0.04218056 -0.035884123 -0.076384224 -0.14910074 0.2430515 -0.079170585 0.20106362 -0.10238462 0.03588893 -0.16443536 0.04611106 -0.0688831 0.066530086 -0.0440406 0.1353232 0.024786038 0.0027224445 -0.033936646 0.046721254 -0.09786933 0.040986527 -0.07670765 0.07236368 -0.05819146 0.050339047 -0.054327004 0.11405392 -0.024248715 0.054676138 -0.0843754 0.034438357 -0.047301833 0.039045133 0.08840916 -0.076440014 -0.01603821 0.036692277 -0.027956447 0.025570553 -0.058927197 0.029926399 -0.13493298 0.035318017 -0.040053576 0.044385944 -0.020613557 0.02325104 -0.04111615 0.032118857 -0.01113246 0.013705965 -0.023644818 0.010193272 -0.06750211 0.10806287 -0.018125042 0.018911703 -0.008503795 0.013195815 -0.0047873203 0.023548609 -0.029302489 0.012546621 -0.04242297 0.01377586 0.005452588 0.005425592 -0.0074069505 0.004757435 -0.030134514 0.005203657 -0.007725827 0.0239874 -0.0061003626 0.0048444415 -0.005187794 0.005955186 -0.00546822 0.0045303693 -0.016443701 0.0040151523 -0.0033330754 0.010653164 -0.0054786126 0.003709064 2.4205637E-4 0.00418434 -0.01734659 0.061103202 -0.0021294004 2.2013146E-4 -0.009764383 0.005072729 -0.0036285568 -0.008783437 -0.0027792084 0.016137661 -0.0025379076 0.010094636 -0.016469244 -0.004297576 -0.012411344 0.0051832604 -0.0140633155 0.0014857465 -0.0050290027 0.008747227 -0.006022536 0.006136292 -0.0013605413 0.0024633394 -0.0025947795 0.008947822 -0.0044560973 0.0019489833 -0.006367664 0.0019724162 -0.008832128 5.1150785E-4 -0.0015840941 9.884562E-4 -0.0017546498 0.0016431381 -8.340912E-4 0.0019330024 -0.0017913412 0.0039822264 -8.476907E-4 0.009076254 -5.747035E-4 7.6855096E-4 -0.0014484018 8.1854913E-4 -4.7529506E-4 7.9044903E-4 -7.057266E-4 7.355346E-4 -9.003976E-4 3.5974194E-4 -6.4277794E-4 3.78703E-4 -4.926732E-4 2.455446E-4 -5.547425E-4 0.023557998 0.0014394246 0.0025270574 -4.172336E-4 1.8653908E-4 -0.0019703682 2.4262085E-4 -7.2877185E-5 0.0028505062 -4.581751E-4 2.506459E-4 -2.9745E-4 2.3475463E-4 -1.13654816E-4 2.2081895E-4 -3.4786304E-4 1.4990507E-4 0.0011687761 7.522743E-4 -0.02381459 -0.013254718 7.400238E-7 -5.455544E-5 -0.0015606477 1.041502E-6 9.560705E-4 9.028183E-6 -3.2075585E-4 4.235847E-4 -3.2189793E-5 2.6904918E-5 3.353412E-5 -2.7492666E-5 1.1059821E-5 -4.982365E-5 -3.518332E-5 2.3184934E-5 2.3260582E-5 -1.1991555E-5 4.8400342E-4 -1.564512E-5 -9.385058E-5 -0.0019766414 1.1805818E-6 -2.1908808E-7 1.4721037E-6 -1.5058255E-6 -9.5651664E-8 -4.584334E-7 -1.1822998E-6 -5.965205E-6 1.5295793E-4 -2.6973465E-28 -1.0746193E-27 -1.008559E-27 -3.8989462E-28 -4.91699E-28 3.6711393E-28 8.1111166E-29 2.0421384E-28 3.8414945E-29 -1.8882809E-29 1.9683579E-29 6.37673E-30 5.6030013E-31 -4.958069E-30 4.1996268E-30 -2.1844396E-30 6.7429755E-31 -7.0919464E-31 -1.3867934E-33
