437 437
plane 4.260882918587117 -10.541398923533247 3.327161728951663 -3.044778739046262 3.4223625497523296 -1.049724306016063 3.1517271683768078 -3.304099119042069 3.415140220605999 -2.6237860652631513 2.6506620295160017 -5.015130841332333 0.7928411985562263 -1.560059459555104 1.3220978173611255 -4.70702864351168 2.1297525676889992 -0.2424137772640126 0.9710721491210744 -2.0328505483605284 0.2783819546981151 -1.3577901148213802 0.5738061633002937 -1.4895993382537625 1.9023361680052715 -0.8631585151573238 1.308965356664603 -2.649461408798791 1.9399256539308742 -0.14801433730009572 1.5633582699639734 -2.603073798521512 0.39584940667519514 -0.6771074506987063 1.8667018958769244 -1.8080352314329633 0.9556010942683072 -2.6335492188973557 2.8305404162587444 -0.7838373167440853 0.8923997185454521 -1.290273432553044 0.8455174466774377 -1.9830147780712317 1.8943492572481766 -0.3242490974270914 1.097208187315869 -1.301538306539766 0.9164972094681325 -1.4323818693479198 1.0951788649743053 -1.004090670632764 0.5112623405469809 -0.6756021048813179 0.8516428558956455 -0.07954621769537115 2.341786867187237 -1.8643157029959594 0.6433099364104767 -11.468524635391628 1.7516514521495672 -0.6584792766223244 0.14536187386547908 -0.38430105907918855 0.5160470919016117 -1.6415607731305955 0.3799910195934434 -0.6178648472060643 0.8069333348894817 -0.988814900096911 0.6544418105987796 -0.7557137893846138 0.8655360736272899 -1.4608847621588368 1.402317431708015 -0.8541996460544865 0.6133385102735243 -0.5766543802155788 0.816418241277037 -0.9647160512144515 1.2819191789804494 -0.6869781824354192 1.200553442831162 -0.9283035893077404 1.4974884812231641 -0.8571410115913658 1.6850349382598373 -0.11587979009416326 -0.9160409144284086 -1.0722690290641121 0.6180550303232075 -1.6353407283282364 1.0534047374887445 -0.18246293703273997 0.8440390051941926 -0.6907807107491969 2.138395521317777 -0.5065654665159819 0.6492271498608628 -0.434718135202675 1.0942343414182496 -2.0249939051788526 0.13967948211428452 -3.507207718760403 0.7571701394130951 -2.34202082410462 0.9345709647298828 -0.48278561042778423 1.0742553687696554 -1.213699519094172 2.0135466979661096 -0.9279832271584172 1.729074080128804 -6.387466931449518 0.6120463091115551 -1.8132222226325623 2.4884882684834095 -1.9685001755250013 3.8500660495511143 -0.49087201040670597 0.6224263464863585 -3.650328982946864 1.0744501743470736 -3.6246189023706292 36.82580909336818 -0.15440991269030524 1.397272678348124 -0.49440642353719755 0.6254933761357976 -1.2903458538980412 6.243575911886089 -2.0688886711631675 0.9525682597270367 -4.3448053001585505 -8.30014066605141 -52.15701783229127 1.7966555584823922 -9.384314646097605 1.7644096597965688 -5.305656186048755 0.0014042513790041484 0.8789054213298758 6.052083885222472 -5.914516658102194 1.501743005797083 -1.7236516113402411 10.567786910146967 -1.9656956552125644 1.5902596298509686 -4.720387894977911 8.941000158742337 -19.281281120542488 7.501610163646853 -1627.7092553706677 656.9338706013463 -9.548937838244395 13.591117337171028 -15.517830483158766 5.861378950113175 -10.380985056825022 6.330990574884469 -10.138253725043601 6.126918071463402 -4.81515504553437 5.717396424817616 -1.6290532345330864 2.0213985087498254 -2.307160698605205 1.4121970019850472 -5.354145797240454 34.971445244250944 -2.149866600652807 0.7430027977486783 -2.094319819966385 0.5848308413838447 -0.9631769957212 1.1885571018734324 -1.0603707559778754 1.2603378905084952 -1.1807359950494793 0.889410211189962 -1.3451637678377053 1.323597285529327 -0.5911288401276065 0.2385914169016654 0.6666132073334113 0.3956741329556994 -0.2589155663032714 0.5307636628372105 -0.9579169664226036 0.29028669841866084 -0.47534094265566174 0.4922967230031296 -0.42338241574450675 -4.173194649279365 -0.1406792591678722 0.22041608173402977 -1.4586407977006988 1.6423996464466142 -0.8375015370011708 0.2181754148744636 -0.13643849161679886 0.20140376474894156 -0.30626746002338434 0.08267301092532665 0.4766854132428561 0.15691511764518487 -0.05931631129793678 0.09355500173421678 -0.07437224370391454 0.3122786079599146 -0.06435634261956594 0.06164842173643781 -0.3013817969907114 0.06328315192133384 -0.054077157883108906 0.2497464853275756 -0.16726533008258437 0.04133589588808718 -0.047120861713695006 0.2996685888621233 -0.030692551326011695 0.09817462024368769 -0.1870866114500607 -0.10123246420528104 -0.1722466424247106 0.05571446750532412 -0.1741314432680795 0.2945838991914476 -0.10948154285423482 0.03196766340507259 -0.04291614386028032 0.08275730111663056 -0.07073043759659196 0.026473341944980435 -0.053549811580831656 0.3212874709961635 -0.1413717125222717 0.1279643257588301 -0.15882571487372216 0.030183593100624784 -0.1914210034880131 0.11528778038136142 -0.12479693627010689 0.03092792542241351 -0.0930524828445827 0.05585693403513275 -0.0640350070909974 0.03475405665830906 -0.0405931384186205 0.027833116671589952 -0.022553575572491123 0.02249433854017294 -0.09038252548858879 0.038441800363907146 0.02860497349039712 -0.0016685667584699078 -0.0265123354468408 0.030805747354493384 -0.017668632409201773 0.03356508996818146 -0.0194258477000553 0.03163523595909847 -0.06620507053253549 0.05178492373849613 -0.10395343721313063 0.04433242039481929 -0.03668589067405622 0.011092115328287836 -0.016369722151439538 0.050968334092232455 -0.02978881410962007 0.02006446078794287 -0.011545752708170156 0.07151357556299417 -0.042067955671287564 0.017618267317044363 -0.036999062167437764 0.268011029823377 -0.009772091945584462 0.012884978301955648 -0.007623864753249168 0.01284206214227327 -0.030128281852606673 0.011119721522706042 -0.0114191955683931 0.02052848931610047 -0.005369365117226606 0.007110489581409829 -0.015230883071252465 0.006759161251327282 -0.007800218527721211 0.007326125632500356 -0.0074183153577380935 0.008119719236482095 -0.0075148801720609 0.006504250288833609 -0.0064582146641138745 0.008484649498282596 -0.008346591374738229 0.007701080492204605 -0.007011313955344548 0.004588151221061522 -0.005230174214078615 0.011626183306858452 -0.028517203792366264 0.03648555005661824 -0.017487619206391716 0.006587953851241258 -0.008562045818990378 0.00474399762944666 -0.014822431414307731 5.154454083594994E-4 -0.0060081164715972 0.006397656378939162 -0.004249774541924842 -0.012102424249688668 -0.003945428428970193 0.01734520095620718 -0.004439385006090837 0.01573731628652297 -0.006210363402766059 2.8118702578577685E-4 -0.013674436611994419 0.0030798195778878696 -0.005525562642587297 0.007801144055719482 -0.0029805944474407676 0.0010701845367911973 -0.0039376428750236775 0.0021111590434997767 -0.0014907959994378145 0.002193270895637727 -0.0069402669018646486 0.002902592286686341 -0.008125905073162333 0.00234001485081918 -0.0016240212156193447 0.00210011022737427 -0.001265646523168877 6.75166939067025E-4 -0.0062582880875510635 0.0014217601338148743 -0.0020912088484235265 0.0015538426861250146 -0.0013740930151279528 0.001602311956093834 -4.7079649354463815E-4 7.437059143202893E-4 -0.0011102080872798085 0.0012743194975798349 -0.005444794176296035 9.349105117617091E-4 -6.591540307591525E-4 9.79077964207241E-4 -7.726852112820104E-4 8.567866560348893E-4 -7.976884738742932E-4 7.822655242693959E-4 -0.0013665486028662834 4.0721153367970805E-4 -3.60037561203236E-4 0.0038345498560855354 -4.458903680736423E-4 2.502066629116546E-4 -3.625276831340466E-4 0.0066116401054799 1.9468968716679821E-4 3.8291958120135073E-4 -6.525695355007226E-4 1.751358939927108E-4 -2.9250682626099343E-4 3.7760732893122787E-4 -0.002086940102328099 6.244630634961025E-4 -2.895527452790192E-4 2.744416787535422E-4 -2.3126429554325693E-4 1.6618319855503524E-4 -2.4782167534462507E-4 1.489483243196816E-4 -2.8608367273630413E-4 1.2128907662060089E-4 9.713099535489857E-4 3.1754568285690397E-4 -0.004945806790341148 0.0070877186492770234 -9.167436107122463E-5 2.933052445328615E-5 -0.005932978095310791 3.5548036261901026E-5 0.0017250127480573337 1.613245374341841E-4 -1.0612761583692328E-4 3.9749697907379615E-5 -6.321961431935398E-5 1.980977120052738E-6 -6.245637306376057E-5 3.865647688723014E-5 3.9663522504991323E-5 9.833375480020505E-5 -8.157396492051225E-5 1.0046187943194777E-5 1.2388765502569337E-4 2.606655869578138E-4 7.021464248286642E-5 4.943961567011567E-5 9.293942731428747E-4 0.01925952618107264 -1.0336303927020262E-5 -2.11956158639045E-5 -7.424522657490112E-6 -8.151352048366938E-7 -5.670228555219484E-6 4.182428880422616E-6 6.829982619343399E-6 8.0327144036873E-7 8.212169719637848E-6 -5.22925543101378E-28 1.1948831100885982E-28 -1.9456513026879413E-28 7.787501302164499E-29 -1.6933583452025685E-28 2.718258075874429E-29 -5.4418000149681955E-30 2.2026262096226453E-30 -2.6958889475219954E-30 1.5295905046105583E-30 -2.499609388713706E-30 6.097417236675397E-31 -1.442244693725012E-31 2.213659741562979E-31 -9.746022307012469E-32 4.912925879492922E-32 -1.2561877923892248E-32 1.6821891299541719E-32 4.5730133803664196E-36
stupid 0.5818067196403307 -3.9838930312536136 0.33133479623196704 -0.7356050884110487 0.43125724987177216 -0.0865382551201345 0.23100808219619148 -0.4832218257458561 0.3436786092230533 -0.7348437493627552 0.7358303349435543 -0.4269258258810159 0.24611749876021521 -0.0446060592569578 0.4245092977246165 -0.3468744905414683 0.09038041227510928 -0.07338242226054506 0.6716545128907923 -0.09186274900307562 0.08317311320501067 -0.22601735915491858 0.13696812986277213 -0.20634090497129545 0.18565462044324416 -0.3121133377765461 0.5316372007311625 -0.4396193756231233 0.05518829228558497 -0.08446654103407636 0.15507999048098559 -0.8006610051916162 0.013619176693185287 -0.1956890532153633 0.5584441536017258 -0.8316433019290125 0.16615676466104454 -0.15025753594852154 0.05871863922344513 -0.07611325013229912 0.0667484918526673 -0.17053755473086468 0.08727616138634087 -0.2551768446817244 0.10402027549407372 -0.10937170621384493 0.05611999843145073 -0.6168112502831685 0.10338461341674673 -0.20084226170417324 0.26337192779301133 -0.13247489805820928 0.0830217000831229 -0.25009751028512134 0.20771813826123847 0.06819624385395066 0.18137050088475015 -0.06483400243201805 0.10046056380776917 -0.10750023817474429 0.1861601874407902 -0.31737381130563747 0.22264993206308278 -0.23547379055874681 0.044942501679199776 -0.34238924808110605 0.03285440091255945 -0.11790047624942045 0.20032395386185373 -0.11370344057786821 0.11500090688427825 -0.09445772499559116 0.0782558329332723 -0.16992533069377636 0.04658569420343133 -0.0642238331459854 0.0700296726174765 -0.17120762539150222 0.16182955929437062 -0.24657869340290503 0.08184443310038717 -0.0879226616734999 0.14111492659658825 -0.022391868197434456 0.27945354386840926 -0.04301652417605785 0.12514373155418093 -0.1300173858285932 -0.04584391941099273 -0.0721098652234923 0.07225200554314058 -0.1317205308630137 0.29679539317280323 -0.08818862993723388 0.03998211237486759 -0.08012971043626593 0.07804178820834698 -0.05424802239404102 0.23627106403710055 -0.01424246558354624 0.19125784961514442 -0.10103213406615398 0.008247256900939843 -0.07350834211059765 0.15545200018117417 -0.11851998048353402 -0.008159721042674921 -0.11125696809948135 0.14790644241413473 -0.10152463132422124 0.061551230430376414 -0.19966478140077326 0.24588413988356608 -0.09068286716676234 0.1524643417938042 -0.08334023553361859 0.04174031367910725 -0.10035219568990902 0.2117022577046433 -0.11412765667494697 0.026054756209229986 -0.07317468973218 0.10417695861134735 -0.08625887233522095 0.26434661168079465 -0.2426955124103969 0.14177336252105452 -0.11303896531028866 0.03190312879224002 -0.043372701840285965 0.08725651079327221 -0.11434011504114877 0.07848386664454333 -0.14928213886274042 -0.10103454221291579 -0.04227065857107722 0.04587465277086906 -0.059749389036020006 0.14551753850897015 -0.08311222833528545 0.044120897019455776 0.05225685373730514 0.26512768667759096 -1.1587850837545635 0.044079064791355385 -0.029383059270010423 0.032800089587047956 -0.03272321829805578 0.27030107776194867 -0.06832106058183218 0.10921506779346996 -0.2265890593810346 0.029125527753061483 -1.1353407596786889 0.3683747270022567 0.026506710939301438 -0.06267218736668916 0.06441053922965438 -0.16656073198031598 0.23682125226589992 -0.05216756827807851 0.13142892607463097 -0.0759219193783578 0.3671619079380895 -0.4577006301859348 0.010667020253015918 -0.025417739792026727 0.024132829110740286 -0.060579317900754444 0.2787408003745366 -0.010548796610164803 0.06591550303195287 -0.06329142633741683 0.1558786152481723 -0.061514488566656665 0.03443806865182405 -0.04566858859597658 0.0491585446797611 -0.0775895021663239 0.11968130021954569 -0.034663340416767885 0.09093789574751668 -0.3026977443659025 0.057117544877652145 -0.14444948327348325 -0.09163740174954621 -0.04407296359992599 0.04869729478027866 -0.08362693867899605 0.2723414896716859 -0.06417904049030332 0.050688216949222015 -0.1327219312567114 0.22104343153193395 0.02740865008505966 0.12109694972977152 -0.3546182996434737 0.231977241910479 0.04780815043659502 0.07008000426292564 -0.11862535568851029 0.06869309517811863 -0.05488385508833844 0.05982492907273586 -0.06968070424097503 -0.05793524891281004 -0.11604592862303005 0.06459949997402559 -0.06341968361772912 0.10661865155468428 -0.1313873120275175 0.2665260199607909 -0.06565625454237337 0.10269223396949292 -0.08106733908786183 0.2055748359483061 -0.18548066416288195 0.7513142580822681 0.6360093024430697 -0.059021987356545645 -0.0777519022572179 0.04002923208821964 -0.065274328004022 0.1053601640082216 0.17902986885469865 0.3347604530617204 -0.06482817101027992 0.11247176757313063 -0.08441394800078222 0.07010058976161673 -0.062351762231977054 0.06845496512530584 -0.08127872182251655 0.11000252681717497 -0.039856095528123685 0.06646148338534025 -0.21263559652144381 0.04147412159787787 -0.08288957783134054 0.4952103536565024 -0.06977376014955572 0.09183565440266173 -0.22103962270172137 0.057942807043043734 -0.09250136469679897 0.1301851370543759 -0.12451403384302698 0.06369932111743809 -0.4519817172889155 0.13037634103938128 -0.10268099824916156 0.08797586400492054 -0.11826919639184044 0.15244704061538278 -0.039988538533934304 -0.17039385898914783 0.0024405767347751403 0.14332405559938155 -0.2527502973287706 0.16681917585763842 -1.1907736622202738 0.11511427330952435 -0.2186728164900491 0.17890374330714703 -0.17472612403645996 0.496073669488064 -1.6274897540878668 0.11815352878525189 -0.12797572807752033 0.3800336184063202 -0.25546964874357775 0.18715937264843027 -0.32349520563597006 0.3151189122285695 -1.0852119631458537 0.570772614543702 -1.806214512316436 7.315828290385906 -396.98145175089 -1.578761301662092 2.237267618627132 -0.8335236736735122 0.956389588080095 -0.46033705884483606 0.3281263174989671 -1.1672898845868074 0.2987819053013412 -0.07682610443423951 0.18594349148623082 -0.32303892427761366 0.15760483020095037 -0.12905250877815552 0.16819950045379672 -0.12663946534204013 0.1698979395615338 -0.14415883303011853 0.1362310436892778 -0.0858103981521122 0.26949344156827254 -0.1222397927114205 0.10318968209122269 -0.37240642014988923 0.04321212076773323 -0.05818674619549863 0.05533216232223457 -0.07499129009281337 0.03392896474742502 -0.0017067540265988284 0.04484049503975519 -0.06738319663208614 0.05322786554582982 -0.04395775393507645 -0.02813543431271521 -0.04624907124977465 0.052920674516601963 -0.033965626250897316 -0.05723998116114417 -0.03967188576740227 0.04991291398616289 -0.030618522525178483 0.0279738481749102 -0.04751349868993072 -0.0017318124007014999 -0.02529500655295963 0.02199552223081937 -0.028203870854509913 0.016113979011002286 -0.023822640315633567 0.014610371813965796 -0.03136409303127135 0.01021464843730806 -0.014103016283690073 0.011539318489861984 -0.017106548623329578 0.010789721150385928 -0.011013479084276434 0.014490185963769794 -0.00748944802559058 0.011041982619166895 -0.0052130260527782106 0.0023204023229861453 -0.005858794404229149 0.007791839510776189 -0.012390754298980587 0.009988897200528526 -0.008851312184438333 0.009493061260765875 -0.0033999280164669354 0.004501741261853669 -0.007421913439174189 0.005655384248368846 -0.006181360800951108 0.004380164544449499 -0.004750710461793396 0.005221369470427805 -0.0032753688373918597 0.004281154459054373 -0.03298795435833253 0.006576861281713672 -0.005755428739188738 0.0018923245121742083 -0.003878149065482769 0.004046271387239449 -0.002921076834594085 0.001556338352864983 -0.008469984616741942 0.07848589233419158 0.002740527026856363 0.008238146074141065 -0.005279880701506149 7.516636910836535E-4 -0.0023711862241182196 0.002586257559368577 0.001377586971102819 -0.03085851943944148 0.0011770343845587997 0.0012993707586564244 -0.001807581068946133 0.0011895252839401065 -4.899857044960124E-4 0.001355650398184004 -0.0025135635600973625 -4.6816596460379104E-4 0.011750138819773681 0.001214572922195234 -0.01785790650247489 -0.0030734826389662343 5.259719031431309E-4 4.1583022898137E-4 -0.0044746660112540354 -1.7616771030403686E-4 0.0022196568436321277 1.6846125195048563E-4 -2.6642536062796644E-4 3.0282066934488638E-5 1.8484989833438068E-4 5.9421659912789635E-5 -1.8633255027380568E-4 2.5279021499876724E-4 1.9262591988503875E-4 -3.151264902057947E-4 -1.8609270807670855E-4 2.223424787802804E-4 1.5122958407373237E-4 -3.0646122683512754E-5 8.495321235607486E-5 -1.9213476841894845E-4 -2.7800352332064287E-4 -0.0033919023861744614 1.486018745890633E-4 -1.645850915504799E-5 -1.4583621651448021E-5 -8.162807029450512E-6 -3.862921037207015E-5 -8.579263842597455E-7 1.017836989446606E-5 9.221804224828927E-6 -1.3764685255969014E-4 1.6792014792173646E-26 4.898856237109394E-27 1.1926338543590505E-26 8.495410273520601E-28 -2.6409847047942937E-27 -2.154904040053039E-28 -3.895606920054296E-28 -3.945705400604541E-29 -1.3263206279004123E-28 -4.4373764945502764E-29 -2.0425211069097803E-29 2.1831283889385645E-29 4.680060353659961E-30 -4.725400216566751E-30 -3.47985117915903E-30 5.94808890497975E-30 3.1749551027731726E-31 3.903791507795765E-30 -1.1783351826280266E-32
egg 0.8579444193303531 -0.6845679892592541 0.19325135369418192 -0.3948621677174219 0.11769047209139782 -0.22396318675199695 0.3847189432821067 -0.18585149311937524 0.32729403753909714 -0.3235820998997759 0.6301214872213812 -0.6905973223761644 0.4279388261731192 -0.11207409883270641 0.18877549654205564 -0.38153457974692406 0.10458763904963111 -0.042094744420875026 0.26265792332680754 -0.2282681671258922 0.20190142858413657 -0.10725678634823729 0.46653966911151334 -0.34778083799780196 0.714046344532771 -0.12876167807114558 0.08684348535291571 -0.5603059952153445 -0.04901347995308964 -0.09501262388539737 0.06625717274909096 -0.15653374511925278 0.0029382024165396214 -0.05792832432548758 0.04851930023485738 -0.07407508312024474 0.5423696326977094 -0.29456179957276274 0.01639438509882611 -0.42906741759885875 0.0988253733922541 -0.0229749092262886 0.28996371074041466 -0.16295432236319005 0.17908982994517825 -0.02404405083659808 0.04781307474396449 -0.05643535950665948 0.083534996538158 -0.5179331448410799 -0.0772922176758766 -0.052403513891956216 0.17276229463477447 -0.4222989234148241 0.26264690971975985 -0.2658955275183833 0.1671907631011692 -0.495511956511601 0.1362547116924814 -0.17225842811769834 0.23584633538722147 -0.15990558556635992 -0.020934919303599267 -0.18054572141539 0.03705649969449238 -0.1960179700072611 0.046044605843848466 -0.0647256386308108 0.04156975763652812 -0.21599708716949195 0.03597468008483873 -0.09678990781325802 0.0665482033712235 -0.08356568791579151 0.046350505115436307 -0.06662446613375661 0.05915929390616305 -0.05639828947169813 0.09075146661531454 -0.06803820407238537 0.16437771114118596 -0.06613481607394447 0.2080199655971683 -0.0928860687364305 0.18021746584758053 -0.1074051173444038 0.34805525836934137 -0.8320718010614047 0.027361064836195267 -0.5551248063185031 -0.003406427088717624 -0.029110245156876054 0.05105738011304541 -0.03899118294746008 0.09546454714823313 -0.031252769910538644 0.0964428047621133 -0.12709036611397787 0.21283670408205746 -0.011618503949412452 0.12967805868303867 -0.2722161680517738 0.1980206902894184 0.033016013179806306 0.15149286062004846 -0.08170445462517335 -0.015696643114237133 -0.1156600954197818 0.1474720785557947 -0.025393948702642905 0.03296108437811548 -0.058539731513139785 0.052248491207606065 -0.03424066981923474 0.03733948483592114 -0.08450693265931121 0.023131201125153506 -0.09414267111227684 0.12287732027727313 -0.04384659219893616 0.053571257217206535 -0.04286692975987848 0.0345811652910734 -0.05943630887878384 0.04736268586062114 -0.04044943756841309 0.03955322494256466 -0.04310363163633348 0.025616683042818892 -0.04106072389434444 0.1282560506644939 -0.0425727773369205 0.040256309579842796 -0.0396959265489721 -0.06423017329422727 -0.03693743256758099 0.16072558120038222 -0.04442108373127179 0.04703311018067165 -0.08244384958904491 0.02360604559996204 0.07907050593668323 0.07185457639911819 -0.14489616257980895 0.15608905949671567 -0.03860417670086385 0.04615439637592648 -0.16760785193182293 0.04922943465511875 -0.052693882076561734 0.30756851198147467 -0.08183616167980516 0.030706889125047244 -0.20880777280268661 -0.33880381177564894 0.06432431016491581 -0.053820635941074786 0.1322930468460667 -0.10715419809115374 0.21187241379473823 -0.059646666369984495 0.06968236364165889 -0.32239160344046963 0.06835011897987178 -0.190558496018194 0.06706255308472238 -0.027007036209421232 0.08950996864692107 -0.04906965772104508 0.08337128396728412 -0.1804390515999778 0.09210465091310284 -0.041286286362427704 0.07745410792523673 -0.11801505517510508 0.11514571644594805 -0.0498989230269084 0.04572713769440706 -0.1597722553198757 0.04330432272093274 -0.029100812955513197 1.3412405159962622 -0.03819032271183538 0.038903863798431006 -0.28366463308154705 -0.19422366516893355 -0.09891968772958593 0.03845629278479283 -0.5142288142390113 0.03888191396363153 -0.047225320193067445 0.13266580219837434 -0.05551994488239199 0.057666097425384526 0.031670769450578215 0.03500109250096063 -0.9064800833661866 0.05175294563912809 -0.018871955547787034 0.04624958009185187 -0.08383638663740353 0.04833874510291863 -0.034549293265694156 0.06894299137768783 -0.048269959860846506 -0.03917672728333117 -0.06870343382450865 0.0636391733301302 -0.20627712831653083 0.09523237401384736 -0.067281138238108 0.04437563651048303 -0.060133916273039274 0.10902331389364575 -0.05913263291171223 0.1344210187059495 -0.23554820508281785 0.5133195665405038 -0.19320033481471788 -0.03952070647727183 -0.11847448284743455 0.013466069873601537 -0.04027290395706493 0.06478168100700779 0.0504981177086337 0.020317324682936056 -0.04828536516888237 0.1338326792839396 -0.04415582283626006 0.043179508639145346 -0.06400531013691906 0.04889021938863912 -0.05038738034838788 0.11264246749243594 -0.03214942295417 0.04288665661015837 -0.08242390193623242 -0.009138764429853051 -0.00247000823769743 0.2075782287918661 -0.03835580296840955 0.053252412098281486 -0.08898429384361461 0.030567040422711477 -0.15772971492401955 0.10064612705220476 -1.4318876011988304 -0.16987218936048123 -0.09380168718906672 0.05805449917217101 -0.1525450507059005 0.04299038371284149 -0.04908968532211682 0.05921576162026367 -0.02693385236186205 -0.07690803925580686 0.0039321637226558525 0.24404477742981534 -0.08073603356855344 0.05271526133719598 -0.12492627468508706 0.058324218240699284 -0.07843827227380877 0.06203550495305861 -0.05336457370025 0.12010559185218304 -0.061012564119143575 0.04903617247570935 -0.05819515444248201 0.06373316769606065 -0.062092704732917656 0.06241090880186339 -0.08675486676818028 0.2592466901432133 -0.07972282341147527 0.2825253515455365 -0.0964457187812881 0.3321109847214407 -0.09335984254803284 0.0858774386519651 -0.22459672304282657 0.4645996760890014 -0.08360371072844001 0.0619291934330765 -0.09656556428585318 0.45938365701070316 -0.17427286835527167 0.1541763921419027 -0.06973574774096117 0.2330543426658894 -0.06768172750701688 0.07781241447481022 -0.08478926747749166 0.07842771632444732 -0.0887190132658098 0.08642093913793512 -0.3731782419342316 0.1304392015965521 -0.19410825522270514 1.314345999691311 -0.17207406067513678 0.25732217419079534 -0.2599818208784643 0.35212933322544193 -0.7655452583852143 0.864077460198222 -0.7592586165651353 -0.009691197206663999 -1.6952964405426791 269.9632602972586 6.169900667278211 -0.6444054728491972 -0.39567953189955785 -0.6141152526865058 0.6378072281348276 -0.3661226427370505 -1.96884317265562 -2.698822275614417 0.20520514610241639 -0.1039313969588928 0.08910046968455898 -0.14300907966235027 -0.0022602954268488317 -0.07225619481803222 0.06749409090421155 -0.10032643254934952 0.044213976398111435 -0.056401042063247656 0.03729636577286259 -0.219070904593335 0.027459589226109086 -0.0244857950893927 0.037244458298977275 -0.04262997447724399 0.03219524282864385 -0.024991141068673468 0.34117721540401114 -0.02020454291616784 0.02421231443843607 -0.010735555296508468 0.006996357563969518 -0.013708957626007014 0.015532406367647628 -0.023266436773405542 0.1819155999984873 -0.01276425562497309 0.0902077253083837 0.029689654901301054 0.027279411072615008 -0.01046701361371347 0.010529751473100328 -0.013123546326829837 0.008902106264312237 -0.0067954351211154665 0.00918129882915311 -0.00598066633944986 0.007679282629065098 -0.00727117675443835 0.0084238496910691 -0.006472213658999409 0.0036861870998653678 -0.0035877319601556883 0.00581004145946507 -0.0060243320248602366 0.0018930786509818672 -0.004649175813863533 0.023311508016685377 -0.04331359884217269 0.003775040470168266 -0.006662676642204035 0.0022873856849999906 -0.003978072790418987 0.0037375304971261174 4.1997957621968434E-4 -0.035550669990286235 7.662627586013568E-4 0.0023136169839818284 -0.002171745730242984 0.0021853775996905607 -9.47412513473401E-4 0.0014682536681591529 -0.004770554927486923 -0.001958949630248495 0.027865822113717062 0.0019498319523339025 -0.009527151229822901 -0.025287153691307462 6.667675383446123E-4 8.163687373180696E-4 0.00965213231155804 -4.7543439058438835E-4 -0.0022197448553053253 3.629103165268133E-4 -5.27320093088194E-4 1.3377653061978637E-4 3.1784521114893035E-4 9.28577600868271E-6 -2.999654664286196E-4 5.331612043357791E-4 2.9994327874918383E-4 -1.9040294134687076E-4 -2.0811149097185535E-4 2.5696937932910227E-4 8.020224803348965E-5 -1.1951918548704957E-5 2.905562989072582E-4 -1.648931583901914E-4 -5.6744269532983807E-5 0.002437168061955851 1.9745693320512625E-4 -1.9030000525219048E-5 -3.077331157083256E-5 -2.8199809724231706E-6 -3.1999419368394886E-5 -3.382824346148145E-6 1.3032010722097125E-5 -5.477982296201716E-6 2.609431174684772E-4 3.940335891385092E-27 3.0369962391259924E-27 8.616561540089632E-29 2.3030341374775947E-27 3.889404751563985E-28 -1.1455216272446816E-27 5.282187164467633E-28 1.6519484239549748E-28 -4.792041996466703E-28 3.6877952901479445E-28 9.113743680138558E-29 2.8896467409158475E-28 -8.555410455549082E-29 7.790319321751638E-29 2.9482609261916764E-29 8.216561647054159E-29 -1.7752360162310328E-30 -1.7548898641995064E-29 -3.661582375948176E-31
year 35570.608292385325 3071.6407282949226 -151.3129408533029 124.28085704652989 -51.88625686828885 173.45462220381995 -56.70806066536964 31.71052079872808 -40.23431736424488 26.409327552427385 -37.31610081710041 19.447275080777406 -14.684050377959046 23.831955447439057 -13.511277928744528 19.37929368506343 -4.4139229770155985 -8.68873845841526 -9.880217288857947 14.188977990924498 -7.9747541677846545 6.225957364281677 -14.876391981465527 17.458489801556574 -3.4598745402689843 13.176804696678264 -8.770709315954077 10.53021342927571 -1.0454816797784923 11.566307135555846 -8.70178674011267 10.976132039948835 -10.962809484471883 1.1177764021407262 -5.520542254837114 6.583380344634873 -4.499810792900805 4.700766994533542 -1.9731014548739445 5.795969347339474 -3.4546732821790758 3.6508678928502234 -5.896561662262972 9.114786396528284 0.0726859421879093 2.485564122338002 -3.0429883067557633 2.2610856961284442 -4.184995968289576 4.3116710123441235 -1.8473628281366479 0.9672758925727265 -3.8916727702778764 1.4608114854763798 -2.193030518548805 0.530319276679896 -2.5610307442268967 1.2723389172868402 -1.7624729306025089 1.6622012886517394 -1.6335175838306715 2.167695339982347 -0.24767907108005421 2.192138768460325 -1.1226747317191477 0.6781395790281605 -1.5949355885357528 1.1124719646023786 -1.7784683123365141 1.0110059131832003 -1.4214132621462936 0.6623651612636918 -1.9574919474621442 0.8066424860379516 -3.73548569504765 1.8853025161141175 -1.2022894058235387 0.8327939897248317 -2.0789659909176326 0.37041976218380973 -1.402719535748223 0.9782453904125205 -1.5549704913352542 0.38771402828440704 -0.913417944683489 1.2120575299572707 -1.2088924990291408 1.883586081746594 0.12345301436123232 1.4901883798221094 -1.4498010901986296 0.36134903495396414 -0.308943687389004 0.1505236350128772 -0.8073730324918982 0.6773889570692326 -0.5584650360063949 0.6523823640174314 -0.5687496424942947 0.7173025547054179 -1.1516860102749311 0.8405083192165809 0.10973524377047861 0.1800159496666185 -0.42007859302467093 0.7472505234812715 -0.4117319094803423 0.4979652686875507 -0.7634986793624646 0.280577636808919 -0.345504867135872 0.9743869969094726 -0.25741202818965886 0.33807951614714843 -0.25726121340317043 0.5472168214101579 -0.20958363397631083 0.38671739985928905 -0.4370172870680088 0.2385118521262755 -0.14488259302358494 0.20259283691284694 -0.45959030284964963 0.3374151841508926 -0.3565915310306827 0.37356531367412343 -0.16954764955611865 0.27794605424503743 -0.5907390543254185 0.39359141561269745 -0.5210783027548603 0.42888889292060867 -0.6149013357110982 0.42341790911395744 0.2221322666257158 0.14397026255363393 -1.6748072270357 0.2806269692708646 -0.420401342350158 0.2474058129592698 -0.11498354701164218 -0.12736604803181464 -0.2207340366476888 0.21221173828857134 -0.10101276863184769 0.15136628354720225 -0.32409795473647945 0.19615127963261722 -0.10657951854210246 0.1708798506013019 -0.30252764081242656 0.26577292835948885 -0.47764957782037504 0.1629353453425575 0.07924080683625595 -0.3438784809729716 0.18366815165370015 -0.18308830052343356 0.10846372801050655 -0.1918077509551871 0.1745153859059455 -0.13222347311675076 0.22096597463856685 -0.11083697067611611 0.16832810166833506 -0.12813945057104512 0.12862224194615565 -0.1319841628997571 0.18190336663021212 -0.17832437737087065 0.0924099259574244 -0.3426821574037219 0.05540580938890665 -0.0937967312040621 0.04995403839803187 -0.06270348680875028 0.10943038337038673 -0.4642762484038377 0.1251684607892482 -0.06844480830810548 0.7355574352868701 -0.09094055500784796 0.054309763499745006 -0.05726018611000806 0.06852904524275893 0.08707903896936167 0.02987880619408236 -0.09533498250834727 0.0499347324132609 -0.10121755894144797 0.07489991889743788 -0.16922087813723 0.052490443104668535 -0.034429566721020405 -0.13236010119680836 -0.05978096136282624 0.03279374353095917 -0.08020722720314831 0.06320113023966382 -0.08533677676703946 0.08503263597820777 -0.045755430010210395 0.06630660552226668 -0.05418432796753503 0.022068123348468128 0.011642877525232886 0.04050306915269433 -0.06836601525295743 0.05454816537659041 -0.05404278118761588 0.031934427726169494 -0.04051421618852085 0.03877293940586122 -0.026987159659141547 0.05606707795818444 -0.016844399136539207 0.020832999603271528 -0.05858224698333935 -0.008743165760540312 -0.050050947807105395 0.021169514875587193 -0.013285708471938877 0.04677779847543265 -0.060568185702866074 -0.037939233855490355 -0.013145852141375723 0.020068357259051726 -0.043479460815499624 0.033036854767895044 -0.02458507860422824 0.027375976000242816 -0.043348029319229486 0.033070549751413506 -0.014355385150087045 0.1714966390118627 -0.037545822592388804 0.04350825020398701 0.019589200809197058 0.0041551998422651336 -0.01554937818579701 0.016790480522974008 -0.016520193551825376 0.006745580778515266 -0.013902431218831723 0.01684140155824822 -0.03149891086585033 0.027382271469846304 -0.032294971809362624 0.029276641403055744 -0.026618720275337477 0.007268193960722547 -0.01699944334645053 0.021535898164059854 -0.013465393857966534 0.020511466490839673 0.01872489362870712 -0.009296482007208819 -0.017743508626373722 0.008997014842200866 -0.006583629924722818 0.010137983576074035 -0.01879576714073002 0.011089068157105994 -0.014665336429864718 0.00987760556124761 -0.01249095588877358 0.006139497992342191 -0.008326187097309671 0.056629797993195403 -0.06344292894669408 0.0063074087196471245 -0.008975233321494563 0.009459489756709436 -0.0016911554673583525 0.005482597980574072 -0.011123027407307086 0.01460615910776449 -0.0019023397531818737 9.386047389748234E-4 -0.013489315093290401 0.007545954474160034 -0.0072543143416532 0.0032732601831422002 -0.005752656981135129 0.018158016165256786 -0.007439220092670223 0.008533120699054571 -0.0015070570521800363 0.0015799194096319533 -0.00556268623017351 0.0032526825293647784 -0.00795499028695525 0.0015509354957625628 -0.005633704046704226 0.002310809379667893 -0.0032454479374206934 0.005887539841456028 -0.014025932764193403 0.008660642750215553 -0.004391370632205481 0.004257710179737533 -7.459877181564165E-4 0.0027550595180183997 -0.004035498996692517 0.00518025608703213 -0.0038723008949896206 0.003714399414091614 8.2353656937948E-4 0.0037734336099288896 -0.005044087980319286 0.0025785250819904473 -0.0012320028667057248 -0.001091239009587791 -0.008916009425577087 0.004466253343238384 -0.005295695769315942 3.8981889424156985E-4 -0.0014531175112309793 0.011037592405325184 -0.001116680142557779 0.004493255524351183 -0.0012453067382799249 1.5857250134498918E-4 -0.0011837243815298387 0.002510924751379101 -7.73624133514049E-4 4.949261176849945E-4 -0.003361370974436868 0.001526726331586259 -0.0017541991194745814 0.004943195108234717 1.5348609981178556E-4 0.0023300240516780234 -0.0016030579726584713 0.002204657678807308 -6.878931958435589E-4 1.2841877518347507E-4 -0.001997465300134593 0.0013705950405916093 -5.552643279986266E-4 8.019303962494528E-4 -0.0011833577162719275 0.001667297480268831 -0.0013861952194662642 0.0016324509055892136 -8.500522009463239E-4 0.0012499003794757362 -2.8971395685351004E-4 -1.2093862175513615E-4 -1.0542207620703272E-4 2.4236611095896076E-4 -2.555085531931158E-4 2.479452280151788E-4 -1.1137174013590248E-4 5.398690956138887E-4 -1.2490401437525504E-4 7.577095737189893E-4 -2.091004188138207E-4 6.87670715673679E-4 -5.751573201042379E-4 2.421394254234557E-4 -7.9778713027024E-4 5.157426824032688E-4 -1.72662902100977E-4 3.814132383297544E-4 -2.4012135471076457E-4 0.0029539134033453964 1.5678668147361512E-5 -4.9126279663590995E-5 -2.0006264259948711E-4 1.6251369704671465E-4 -4.4268033636781016E-4 3.039052804350646E-4 -1.3838657981000554E-4 0.00382430199565727 -3.8111010804207153E-4 3.3448183201968386E-4 -1.7081014146656736E-4 2.3773296144099663E-4 -2.2600941411399968E-4 1.5015221348113614E-4 -9.012708230580998E-4 -6.178525606962452E-4 0.006557673759391783 7.3556260434622E-4 -0.017747054399998324 0.00468788798859479 7.471369452107989E-5 -5.9943661164588754E-5 -0.0012590847496468784 -1.6126268996640187E-5 0.001203463890783696 -3.279282786878979E-5 -5.697200561574186E-5 2.2592635083794347E-5 -4.339768835452603E-5 1.9803338204516636E-6 3.006142064018388E-5 -1.8037157361481088E-5 1.1801011670475654E-4 -9.69709747553094E-5 -2.7438715927830464E-5 2.2073955100689347E-5 -7.3398977774482665E-6 -2.9888133745202707E-5 1.4775258071017513E-6 1.5953848247363464E-5 2.860994429159657E-5 4.6362277045587517E-4 -1.0902944087509873E-5 -1.2505787462797596E-7 1.5445100618646923E-6 -1.3256678612573922E-6 -2.2098319184210943E-6 3.5218097256863355E-6 -3.0424949673465985E-7 -1.6859089707314243E-6 3.2338601783568704E-5 -3.5599496328151775E-29 7.411984024385934E-30 -1.2294003855694127E-29 6.331141280423824E-30 -8.502469073393639E-30 1.888299926626167E-30 -2.4863610627986672E-30 8.43214595496778E-30 3.1200875510645477E-30 -1.649502677871568E-31 3.2043079362031403E-31 -2.0945364774393755E-31 -4.762734319656171E-32 -1.5954780293648436E-31 1.0526751122901863E-31 6.41388099811121E-33 3.5971578089785463E-32 -1.7342384220504622E-32 -8.750064713450697E-35
psychiatry 0.20397684666697802 -0.2219131522237579 0.0606747296908374 -0.03793085990897139 0.061091564607211594 -0.06365949670450595 0.010300774034428493 -0.046230760259279635 0.12272692815426835 -0.09388897110821498 0.15215661069509065 -0.14150523832216083 0.25617202907498904 -0.05766246109052925 0.2611696441190425 -0.07481863904820922 0.1377005055719068 0.3160137690396144 0.006670907867626991 -0.12224795312443865 0.003821085648462719 -0.08369455282790723 8.204222572924968E-4 -0.025359224253233708 0.05235190920532926 -1.1671615270397748 -0.06870876523518184 0.03833484278728422 0.04947549858220141 0.015487155562042814 -0.0018325307591912179 -0.012007695337971778 2.3850130773403946E-4 -0.04567883610422143 0.0077859277413543 -0.04417407163617074 0.16084934143982726 -0.051216084185010835 -0.007653270696026841 -0.09182008647319584 0.017198005450699997 -0.002841456867874789 0.009073773455090885 -0.08792420624453953 0.26868399944539845 -0.01625131758085729 9.973042877275142E-4 -0.005826298227331396 0.011611629293966084 -0.04871966952552149 0.019780587538172065 -0.4460884367527622 0.008294682569764572 -0.015393416265877254 0.37107287006377293 0.14994838359148815 -0.007964700790728092 0.0012836631403369025 0.0033889930499452986 -0.0936452689567772 0.05007523405558731 -0.003226766568260517 0.006016342666573301 -0.004084470952726153 0.014700640814886149 -0.09304388921756512 0.0032757440287524415 -0.043056583307119756 0.0036545008417082046 -0.005716802924080934 0.009820562279867459 -0.1182275895639988 0.007918779659007323 -0.029908013160398116 0.03461434761568237 -0.005822421719625637 0.009941431693781935 -0.008764278697405594 0.013909808189570322 -0.008048568153444008 0.16773871328815565 0.010960825227787187 -0.014645423421554952 -0.0022133404916456203 0.009956629627192652 -0.00664445874800944 0.010892770848606577 -0.005168815134777756 -0.008993191441707089 -0.010148581001200764 0.010117550835378688 -0.02980046489387622 0.01039401525898201 -0.0022155862601243577 0.016775688240799964 -0.007590559107808021 0.015874354714014688 -0.06656099644460328 0.010435875020458918 -0.006150904197142826 0.022117042554335605 -0.08938165151310223 0.07039366853731181 0.01657845658718302 0.012053763219180263 -0.006601369932103561 0.0017148552947555172 -0.027363873140265473 0.003770522342182152 -0.008772885567030672 0.006343597450131765 -0.01960621164005866 0.08545095971174159 -0.00745877994702785 0.0050483436292063436 -0.05324489068788617 -8.762659708591915E-4 -0.012815173813204534 0.01630526752408184 -0.009997541578402897 0.015491546940736045 -0.022135420817911276 0.010548269195550611 -0.26006636341006045 -0.0021872637093729723 -0.00834567124743657 0.006233703444807716 -0.045973440410519845 0.07258508514865476 -0.04203699530706421 0.011000798046581103 -0.006606395151640818 0.009282304329191639 -0.06445383964974603 -0.08912875477612708 0.005221616219303869 0.04905893076315143 -0.012916717578000503 0.040098239470448147 -0.12073879928514393 0.10169839030665508 2.7150297363764313 -0.1259146046771344 -0.026361349779034957 0.03257524611054244 0.0016382005102719818 -0.0037649926236273806 0.006660953799314664 -0.011653210447569185 -0.002392902811767963 0.006650752138031328 -0.014024118602047251 -5.21367084326166E-4 -0.009181777770252229 -0.008449345256875223 0.0026201204097098386 -0.00591861030748715 0.008619060486222303 -0.03396949280943766 0.00901833788895271 -0.0626700434736475 0.009139735025944848 -0.013475971614589716 0.025094714448579317 -0.08144108184306514 1.2133289858508116 0.041015427214758274 -0.03058992954293679 -0.002505700793610822 0.03495240618312596 -0.0012157865336136387 0.01233661820587064 -0.204883740155658 -0.008516113484210655 0.08663984720707096 6.703081697102514E-4 -7.270204287954031E-4 0.003066604189065728 -0.00458193308201237 0.040010777734319034 -0.002083686388545821 0.003788787212569983 -0.007376215872750694 0.00296728353709069 -0.005072559049445059 -0.004639548494019698 -0.004751236402865549 0.005592721376869915 -0.005999031949173147 0.0028992680546263273 -0.052580940626177235 0.004359998418379181 -0.08873675843134601 0.007839762879474951 0.004794815026594573 0.004348932213373726 -0.010059769046593682 0.00866304926653963 -0.0015639836062957214 0.006952737866429156 -0.007075924819001031 0.00681053342919159 -0.003355386974092078 0.006579560920338745 -0.005584218180363894 -0.0042291143389463215 -0.00830020722587637 0.0056374763308613945 -0.005926355375846365 0.24258785010935663 0.001184320103240412 -0.014115931702778835 -0.002988536069146381 0.0052722601134451725 -0.0060254791219500475 0.004094639456882725 -0.009601927399476233 0.01906818441306234 0.00516441836271735 0.06023876978112535 -0.00434284451858104 0.0014709750821258886 -0.0029102684716434874 0.0045237370021903745 0.006365674237611825 0.0038050252266367737 -0.0052165382712007005 0.00915979606861604 -0.005205985409758698 0.004779718470574212 -0.01191707250718626 0.0030823636696099637 -0.010271534272739129 0.004742023652602546 -0.003939045434099905 0.005770528320845959 -0.010750233980290222 -8.023696923664961E-4 -8.672875698474547E-4 0.008224880522746477 -0.00946301648622009 0.004882749008649698 -0.007943051424464276 0.004474155417769113 -0.007684492367446157 0.007294411750707879 -0.008156818264706572 0.005382368263166173 -0.006839333015858621 0.011389932761416383 -0.010032142072873758 0.006815639886018548 -0.006795161654487752 0.006002714563669918 -0.0053610291512467 -0.008242173430551555 3.118970375222928E-4 0.008408121133463741 -0.05165856308713055 0.005840790487354594 -0.0057673608845604084 0.005814660860491706 -0.007966468546413445 0.0071266527319689575 -0.025506561165006252 0.003081826611782846 -0.006114384147076318 0.006800430993607827 -0.0033921956094357993 0.0074289931920221135 -0.005922669661537135 0.0182905849292487 -0.006872895184645329 0.006187595744313603 -0.006540957896790041 0.006677718025732352 -0.008042619444904697 0.00432789344942785 -0.0069964408561621096 0.006253292798246852 -0.011185773793807051 0.005086038972297004 -0.0502126468240505 0.0035728574319799666 -0.006918877518299896 0.046181498402451775 -0.00869884328753768 -5.27986250752331E-4 -0.008102009069271322 0.007897223920130151 -0.007030211066929628 0.006372595423225451 -0.006929493642531808 0.007148356899743274 -0.0064144671319865815 0.005751456211606624 -0.007781718352806161 0.0060355697733452725 -0.006256370742953215 0.0068418127289553215 -0.006781020352584001 0.006932133200138164 -0.006235212091995846 0.004687881198566386 -0.007781221870835557 0.005915707877757235 -0.005901317264837087 -0.0010231034092010795 -0.0076549685207449045 0.00690351448597518 -0.006640989584789118 0.009888439989789465 0.007073526979725174 0.006838213534484116 -0.009235291981714955 0.008134686308824057 0.008668870637790881 0.0067805223620271285 -0.007634885970561445 0.007910356738156914 -0.005481193878729059 0.013025830567716033 -0.0027842224750998365 0.026320656963709596 -0.007089574935465525 0.013094820357570008 -0.009653589979604518 0.008986793619311205 -0.014052647627252715 0.009016252538928767 -0.010837442210546692 0.7394866274205524 -0.0017033887355691398 0.007413949006291515 -0.007225973879786206 0.00775544291485757 -0.014372727389113913 0.008999174290111113 -0.010591516857018136 0.009028889046077713 -0.0046088341641286334 0.00554384445608277 -0.009040973851858085 0.012392105112018315 -0.011101069983005562 0.010530011177877335 -0.011245057624968023 0.002366530788362959 -0.005266997091331778 0.010189406286054985 -0.013745677676026139 0.014839123262076804 -0.012408897883148062 0.011268520542375085 -0.01409652161939866 0.012420257497718622 -0.02190056668481273 0.5400342870193682 -0.018440266489598258 0.02826289776727064 -0.02084665128731043 0.032155833469338015 -0.03745246586188912 0.056610035466327514 -84.02539014118827 -0.048855103184104944 0.25405497665036425 -0.009091542155428869 -0.0033345319197390423 -0.011568067960420748 0.009575844126207971 -0.012929362770060132 0.00765188637205517 -0.019281957669755653 0.09827403381861716 -0.011982788374236006 0.014036400177182747 -0.005122834750867275 0.005524050646868114 -0.0061100867043562485 0.004981701869084553 0.003869215240397601 0.019590745019331328 -0.014052119107227166 0.005675839326069914 -0.019273365835234358 -0.0020259102367997626 3.5167127731958636E-4 1.7728238771730828E-4 -0.12126870477122825 0.001204036603917474 0.028675774458429393 0.002378605011969727 -6.06295572852258E-4 2.913862526200147E-4 6.009186803444518E-4 9.125788811970125E-4 -1.9483902614672168E-4 5.503812828217908E-4 8.364952208237793E-4 -1.7189069151392523E-5 -5.357822619174424E-4 5.380917180597295E-4 4.6419980462444324E-4 1.2954657010238535E-4 5.111571832644281E-4 -3.910032973542252E-4 -0.008831134504429496 -0.010443960832147312 4.3593720441376555E-4 -4.6971833615818635E-5 -2.4986045720551257E-5 3.780627733258169E-5 -5.263971979563735E-5 -1.4901530913893625E-5 2.776477194147638E-5 9.613068370498327E-6 -9.77816079390119E-5 -8.694732067030553E-30 2.8346654225441104E-28 -1.0773763209655396E-27 -7.664391168954542E-28 -5.166616278171427E-28 1.6179517954525092E-28 -3.516880433573454E-28 -7.943498976325903E-28 -2.5740734109303775E-28 -3.111047809577406E-28 1.9739538079990696E-28 -1.4913333282741996E-28 1.051180867972417E-28 1.7768431569465012E-28 -1.7879848326947517E-29 1.6086451540455095E-28 -8.411422283693655E-29 -1.164786954939712E-28 -2.3196089091762058E-31
asylum 0.8528037196449335 -0.6870600261271427 1.2405808454752023 -0.055064933720861 0.2477755160596767 -0.12588565791795858 0.16963893031001012 -0.7567184157662945 1.356300649043906E-4 -0.15237482942858513 0.31052284754515114 -0.5209971518793703 0.7941982445312444 -0.15742055090341409 0.18544895211991463 -0.33484847336065016 0.07104236442027048 -0.005751371649077819 0.10182257161997296 -0.05591901085592964 0.12954772046688928 -0.25695265388753663 0.06492728591598566 -0.901106620479791 0.09425914943192797 -0.06740713398535525 0.29992798717000624 -0.09758209791225785 0.3558179246596186 -0.021759071878958113 0.4747112839075246 -0.12210375166599784 0.0010212466977227047 -0.09215809942381303 0.15606395761827746 -0.0408126052892799 0.22426598007009843 -0.10456991323740471 0.008881076563062005 -0.03116305714382419 0.08398586533614845 -0.024497813363491966 0.07278034963742826 -0.1032815522942057 0.2394765580600417 -0.01741241436486562 0.0314598937516528 -0.16052830526857492 0.03673590797921226 -0.07379673965287963 0.04078130226000739 -0.08883620190881389 0.11415908271931528 -0.12525253330480815 0.11113749359964754 -0.022917605770551304 0.03622167915531137 -0.04491320714302701 0.03996386137490848 -0.31750618933449976 0.04623441261918721 -0.17367814349583488 0.1627507057631756 -0.14243499307624888 0.08218408850555621 -0.13007432906693348 0.026097984374173676 -0.09760657309350185 0.10130239943504113 -0.08117186723129591 0.10219950738585892 -0.05563319397329641 0.059518200869420175 -0.10938351904951685 0.0695891707946776 -0.19804262425794214 0.03652308529687048 -0.04044958238244023 0.10729248442210612 -0.08504878694712807 0.09617744057472495 -0.09004156670020848 0.495853066443411 0.011650972269538578 0.1417481678885379 -0.0751220009561363 0.04057532283269236 -0.021502381782022774 -0.017902789725911673 -0.026030769969509066 0.03199513125495548 -0.02332854256881862 0.043672722543712426 -0.00851283986069982 0.026509269160467135 -0.027977500230424487 0.0554692858785533 -0.19230696952946552 0.10326949699272374 -0.011292661405835541 0.06887414343449827 -0.2378919311520545 0.086451767014342 -0.059687535932166136 0.0816449774240621 -0.020639667394924475 0.011115409298210083 -0.02890704609692695 0.11316882932807103 -0.016295231019194178 0.022922754865193375 -0.05036349845370959 0.20299596214496266 -0.09047735599046808 0.02655893525716486 -0.0355040992214413 0.02369559734625868 -0.1079927964940221 0.109716146812125 -0.017225626303498637 0.06223479746031651 -0.038361705292775126 0.02858330265019468 -0.213974302457498 0.1560257813160455 -0.023339493402866507 0.0610503333078801 -0.07033862396286872 0.07833021189198872 -0.016506751257719013 0.19164958340909957 -0.019520062520381718 0.020705483737493896 -0.027601313289216466 -0.04689435237259907 -0.002214983547157236 0.018786971929069245 -0.014579701640008862 0.030064615914340426 -0.05035326656882936 0.022570971218609754 0.026006304451428496 0.055268680016418714 -0.13286638544701018 0.08689360257910754 -0.025778378096959556 0.025894525309761496 -0.020918726808939483 0.2601659260141622 -0.04135598039795466 0.052457703582882174 -0.18036120347846066 0.010427070657900592 -0.12659686013123295 0.007403615098184086 0.022095977702644015 -0.03421854938730873 0.03391013214137827 -0.039690873957403026 0.136216063689711 -0.03146193608447594 0.036060599144821084 -0.03893935223775292 0.17108065966933114 -0.019158555853299078 0.021082213525993827 -0.022933195969685422 0.022181827150428664 -0.04635649247325912 0.4321987321005864 -0.004209650252502946 0.37410661227326525 -0.0694573506607985 0.06732196438528039 -0.016610137409540923 0.03749005562855419 -0.017263849963087913 0.03148944651060774 -0.028919648064208412 0.029200147798080698 -0.015434680063289472 0.035446055188314 -0.03755198332871506 0.029561421911877175 -0.024310546005857855 -0.037438545206691494 -0.024570167091129688 0.026842637534476764 -0.034688748599999285 0.07226821854728094 -0.08701062003516395 0.07587229275066469 -0.036359138202801525 0.035609458781611474 0.06559821603046005 0.025887764353798342 -0.04712474104375399 0.05227362858919641 -0.01123416617962933 0.041617280157616364 -0.03843915169854532 0.03480985823788953 -0.026666350515954472 0.03481732976554204 -0.03552870243897852 -0.021464582534723838 -0.04099966970842966 0.027649923255393342 -0.03168969229209892 0.030101169020763454 -0.038402946664297694 0.034023469584997364 -0.03212995509888008 0.02938777832260448 -0.035323463471956626 0.026509060383999243 -0.035418286500437664 0.05618077931661733 0.01172500989918834 0.017525455172123682 -0.03344739020844456 0.0249315637568762 -0.03114149979600719 0.036434208730894806 0.03887047068912566 0.021752140571776074 -0.028374287335361688 0.05060541990413649 -0.10573241983165146 0.016953767949870725 -0.026224242990756142 0.031750612552082745 -0.03352841472180904 0.02881579629924094 -0.019766022364997273 0.027389402570505407 -0.0547886253663113 -0.008587201774983701 -0.0010150620701827374 0.03760381934578946 -0.1413693639500325 0.0268303297131541 -0.025919673234262683 0.022060396510215206 -0.028847915735258623 0.04525651959875161 -0.03452144194238795 0.029135562775511485 -0.21348940169972078 0.04671555564862866 -0.0359193185042756 0.03602246889653199 -0.03626417768940014 0.04460440270206917 -0.01704677924201381 -0.06618175976739679 -0.00808052637417091 0.04945093928074502 -0.05768198983652459 0.034590620034482794 -0.034049517439948336 0.035825043818322376 -0.0467801342064659 0.05296202859437566 -0.070329249880755 0.023087042681690817 -0.04395848988257131 0.031941438919016366 -0.030838312172928917 0.03869917342170306 -0.0395403176242517 0.038834230293851545 -0.05020646081071485 0.029285291285394872 -0.04465165790173958 0.10300339411037829 -0.06759371473778784 0.04669878529825541 -0.04874326586474766 0.049325754520876126 -0.1854846819978275 -0.0013773966597455962 -0.056773992441988684 0.10771685729892926 -0.044787714456745925 0.056549828919081106 -0.05775906758502803 0.01872260468676062 -0.03319553943871405 0.04803861357680714 -0.03793366874825964 0.04925328284179795 -0.04442399825070047 0.05817827706862073 -0.19866896964445924 0.04508200571679542 -0.046010804254777084 0.05164224216894895 -0.06944132798013311 0.07300472530172449 -0.05125690096220349 0.08783906070192797 -0.05907477362267554 0.07288503950288482 -0.1061602720309908 0.1033269994592384 -0.09459512003110059 -0.014565443311897167 -0.11104294962256057 0.11070869255153845 -0.14054027166470437 0.12373369886655901 0.10484130485421514 0.16642984012111744 -0.18831816850679953 0.20185415978191368 0.18560176010465523 0.21075030726677235 -0.4699444724607564 3.002201059677746 -231.0279660936924 -0.8788383017431576 0.17382575129631503 -0.28255325082175303 0.23005776279468948 -0.2350750616566984 0.093606527722994 -0.09753599152087138 0.06172090635353701 -0.095295111137964 0.048541445253022474 -0.03880598776125317 0.052950577825512345 -0.06546285442616742 0.04456012823970023 -0.02888891508062019 0.04052663024433286 -0.022750183081781315 0.03041629030188493 -0.0170035800458197 0.012555530094096365 -0.012746381214074247 0.1609516268292031 -0.03003435352823568 0.01703687313206452 -0.016033885563184608 0.018784053671907535 -0.008456181811793646 0.010620663593256892 -0.011801325526408606 0.012157916084451152 -0.009889248951884198 0.008951232591370232 -0.008010848721446634 0.008921619675602326 -0.005960799980681369 0.00870950083761484 -0.007505464114795557 0.007714868304877111 -0.007221635055049381 0.0038452960614614863 -0.006411930882350096 0.004374267073457545 -0.004363948927903485 0.001832833964018974 -0.003674534745673143 0.009214655929183085 -0.0021955762797219343 -0.001976132940172782 -0.004887121632567146 0.0021951145295991442 -0.002631048628670169 0.004029402323529565 -0.0010684834074041112 -0.01886000451656187 -3.1309699610011235E-4 0.0011613958221396523 -0.0023406275529799236 0.0010829310780980856 -0.0016838461344591347 0.00102251450133843 -3.110525845965493E-4 0.00224875995654861 -0.0068850348942008765 0.001479963230795138 -0.0265866394161646 0.0014061662483179059 7.822530098311295E-4 5.541749868684138E-4 0.00870357803543579 -0.0011386693732942414 -2.1905968363012627E-4 3.5573931584066253E-4 -3.181105957777044E-4 5.959307705096253E-5 1.7877776815255217E-4 1.4271521104932845E-4 -3.4345370381760497E-4 4.001741792132604E-4 2.1176935445140624E-4 -3.3498584532490035E-4 -2.561411158610576E-4 1.857732453809711E-4 7.478448018522541E-5 -3.6010671273933096E-5 1.7001976092127888E-4 -1.3175155065193512E-4 -7.351668865214925E-5 0.0011040770931574088 1.4096502660870274E-4 -1.9863816894673473E-5 -3.620347372917614E-5 -1.678497701032871E-5 -6.286099419845519E-5 -8.837785301645496E-6 1.3474423320255363E-5 1.5393801264339007E-5 -1.6675281526930312E-4 6.869271749825107E-27 -3.858125666593984E-27 8.188053865517187E-28 4.019496982104978E-27 -2.6438175342095713E-27 -2.6272358392663345E-27 8.14450894221672E-28 -1.43804523524931E-28 1.3764723964097058E-27 1.03729118973685E-27 2.0289444761992556E-28 -2.290511005969655E-28 1.2007353103374094E-29 9.835442387822138E-29 2.7101178751888175E-29 1.4846033297443357E-29 -6.379041106466694E-30 -1.460246035836846E-29 -7.056293331132462E-32
manslaughter 0.4331675709417608 -0.1525404266338074 0.039026341776367074 -0.046860744144283206 0.13282780836528046 -0.04400771120659779 0.17689647800231914 -0.05950903334665617 0.0953170527933104 -0.1256524936926448 0.7585795671886085 -1.1888788893604783 -0.1127934720162131 -0.5021863260231783 0.0828904212914687 -0.555728916909106 -0.28759476062162315 -0.06744944653466574 -0.03829895011777434 0.04504120009435916 0.01399450011907149 -0.2473018943200271 0.05971873732953212 -0.06739312908989985 0.2338539964414491 -0.028408601511531104 0.07582820423403867 -0.1047092135253727 0.02028063775724962 -0.013399799005930099 0.056556191084161093 -1.6522205328610078 -0.45729270129882277 -0.12787927284675027 -0.032239109678944895 -0.23662570607237365 0.2918803691634237 -2.379906852777163 -0.5813496496773266 0.018041838408947335 0.1318673440051322 -0.001164818473522072 0.015273272107021207 -0.049367764358368246 -0.005081120846541737 -0.003191534292682466 0.01224361255506873 -0.01818942534961833 0.04924608811538578 -0.06805199450416521 0.02959464483547092 -0.5116876134716802 0.015403778792644917 -0.15952651173824298 0.024732690151779296 -0.003027322044105241 0.1071250350792029 -0.009107132180347581 0.018226660001032183 -0.04957085028510355 0.07409703472627895 -0.02154664007659719 0.012062904395158102 -0.011981559906538238 0.06273668632557672 -0.054109566779142505 0.012773334047753855 -0.019123154307890935 0.019924363010016537 -0.38211202760848273 0.002499948779080081 -0.2506157710719915 0.0258634002179461 -0.01884067739743662 0.027706377313730886 -0.04120450630330714 0.027837103330003013 -0.03664133533942039 0.0955945294314709 0.0025986451697331482 0.3625587013055806 -0.10224096781077027 0.8566611527469777 -0.4854811105990765 0.001157311504584882 -0.03670299188911904 0.01671080633822988 -0.011618487957940165 -0.006271849588387721 -0.0119353417089165 0.01720187228450777 -0.012136886421163154 0.011679689104976984 -0.006569551229802607 0.014580559823478206 -0.015514911676693529 0.022395478011220382 -0.04070636934184927 0.018890556464413386 -0.014879823061122106 0.04426910770602321 -0.13192928508194476 -0.08137258533972774 0.019721288974627105 0.08268065866271009 -0.04214382499373711 -0.015154799531190567 -0.01325716490317214 0.02338052832585108 -0.015991212271774045 0.01820524646554802 -0.22871525131806228 0.017532484792260036 -0.022591839930237334 0.020719995614432638 -0.03333984717512974 0.021865665777073554 -0.6440478991599277 0.4312729284275475 -2.7021942683302003 -0.2786683941320367 2.8199296084110433E-4 0.004974828501874747 -0.004038946012205715 0.06266367165131832 0.0012654043076051516 0.23529623742750355 0.006776704510429436 0.005699002127680485 -0.027599367085959402 0.015319033595697421 -0.011847041857221643 0.010534755211877623 -0.009998379541316351 -0.0037031924538346015 -0.005144396474650972 0.10946990116180527 -0.013357175284077044 0.017199462854854623 -0.021698991970349277 0.015416061889730532 0.1742166643796484 0.012000263399031525 -0.01459689638862434 0.010402101778014339 -0.015878093061243794 0.014997944880680148 -0.011463880498253172 0.12853840543551873 -0.017309674148707 0.02596569314889782 -0.012180321918652355 0.018336336915465292 -0.10765308309267164 -0.2148665237429699 0.011823104959395751 -0.02082054368046611 0.08043830397991712 -0.0016091488008159907 0.022807802190173802 -0.01967811798938262 0.025817959122379375 -0.020777877537915528 0.035007085467131924 -0.1334354419234294 0.006757954388663483 -0.016130685066749074 0.01622639496902753 -0.02796048801038224 0.42759107139617586 0.003335740488754943 0.0398304487796753 -0.48708377425921157 0.06733650300953106 -0.008326826464691536 0.151134058585195 -0.007141614669726821 6.362388011223109E-4 -0.013301667916848385 0.013604259531434359 -0.00799753984444634 0.02348323350360682 -0.01920771570975353 0.10256832593004543 -0.013951486031972047 -0.017552993727977556 -0.013624033782332009 0.015461365671565827 -0.020104216324409025 0.05018083744089457 -0.011942797814165025 0.010814085214916606 -0.02037928398588456 0.020426484085913812 0.016645691563394443 0.015385693938742166 -0.021698441882506202 0.03250898295669593 -0.003940839657768704 0.02744933311888553 -0.025599075866483963 0.0221665044173389 -0.01637995259396126 0.02847321670657841 -0.021339199505604454 -0.020234213484840016 -0.061209354543867375 0.012381482475090813 -0.0211746275229466 0.022808250075371093 -0.02606765576885469 0.0749870881281003 -0.020101897153868602 0.019994957863479216 -0.028958449768538428 0.09102271891100533 -0.06297255265849468 0.026793557267803504 0.005741314731650514 0.018065785545440794 -0.01930353577667543 0.012739309410994201 -0.029929239481131957 0.02128853800925751 0.0280517246236388 0.006509733516951874 -0.1287213874337068 0.026742927750788705 -0.01678065799576185 0.01662032049565296 -0.02231983781958083 0.017426685868758028 -0.020896544355154287 0.01863312695673077 -0.0140956840551228 0.019153688455959664 -0.03846555446705318 -0.00934139988409711 -0.004397812300376488 0.027287927874636967 -0.21320945415795609 0.3015869532805023 0.006265595551717753 0.36141610803149227 -0.02089235947082526 0.02348865865690629 -0.02327676882317367 0.02369549033479257 -0.03038354039987541 0.029981613616823312 -0.021608406420740127 0.020492911083073176 -0.02590595428286181 0.027144715545004177 -0.013359859631231402 -0.030440957220719912 0.006676532426366689 0.0273373571671288 -0.031409230193116235 0.019146501437052516 -0.022658539125444944 0.025572296422437208 -0.032800969519107485 0.02464989091196326 -0.02286722236541457 0.01300581266564229 -0.02991772046048396 0.025537778453216625 -0.01673203807911228 0.02354164501383537 -0.022619392035798807 0.03151508029188856 -0.043363116917953415 0.1381261266807456 -0.03134111802000828 0.03776460387863376 -0.04752042237599281 0.04203175343009417 -0.022301061686776775 0.03825352033465085 -0.04763992042655061 0.02638553450457782 -0.03622362881514739 0.03336548314993263 -0.05483185322629427 0.185702912943069 -0.25574387319331293 0.32995450736140974 -0.026899238900705943 0.03803948445984391 -0.036628798318366754 0.04092184526988368 -0.04081360139229386 0.053165713125166124 -0.04485368201802628 0.05611872490098927 -0.04734660622860855 0.07282061971094071 -0.08934053483063839 0.09435806592892018 -0.09459936487498202 0.14770033664919166 -0.19831067769499358 0.21665025222937212 -0.9937888022773836 1.3883408347438089 -135.05572702640023 -240.72994652258905 0.7472168340767512 -0.3901576041411543 0.45646373865720685 -0.19812766188575273 -0.13896697599184465 -0.1669106162141173 0.1562385183345901 -0.14242075898933812 -0.11256214377246225 -0.04221555095652299 0.07274792157366217 -0.2835519622032869 0.04603089246776019 -0.04134408716887518 0.011610724993208685 -0.023246418101735326 0.02983210766936169 -0.043225197450734554 0.015612167073947785 -0.01822272464912941 0.010611389346108866 -0.020412996506522854 0.017174251211574044 -0.008490451518710073 0.02305688903679169 -0.030191200542503176 0.015239552105705 -0.01025474758274354 0.010361151342258299 -0.008682895024833947 0.011440581831521883 -0.00615700697166216 0.0115922111669734 -0.004708145804859071 0.016869925190417488 -0.009111522215891166 0.006033653098858047 -0.005458653264763303 0.00708865555156642 -0.0017986134934323567 0.007185381602508101 -0.0034850310873141763 0.005110029302738125 -0.004769267294691412 0.004088586449580515 -0.004330625959538453 0.002892735625757613 -0.002572095930069016 0.0026399801055689343 -0.025053740672001105 0.00171812613608638 -0.002363617799261426 0.001403008241874493 -8.643678073795412E-4 0.0017785678470219135 -0.0053149076721487 9.7690135595751E-4 -8.57660444890599E-4 -0.020042461817068324 -0.0027445577735018428 -0.004516620635714696 -0.001986594947812117 5.966732018143569E-4 -0.001259599481407801 0.0013246785727460558 -6.658499851145278E-4 -0.0038560223882255365 -7.850074993577497E-4 7.649622374018164E-4 -6.643741475712066E-4 5.759195167175866E-4 -8.982053566719418E-4 3.171612325530141E-4 -7.971915723541716E-4 2.078530370243402E-4 0.0028191578075237225 3.803952869161703E-4 0.006329711684705899 1.2319328847039166E-4 3.7485361332714506E-4 1.864775498501973E-4 -0.0011955715793556564 -2.1305492488809947E-4 1.3632367953811324E-4 2.506769264694561E-4 -1.5861028625220762E-4 7.281976652756681E-5 1.0079076681886036E-4 5.9392013465021846E-5 -9.601874433351743E-5 2.4997422962301735E-4 1.3229455676286298E-4 -7.45893965454609E-5 -1.0742844368485756E-4 1.3388059215557388E-4 8.520539078898504E-6 1.9317214949201913E-5 1.2709941315504895E-4 -8.306917951663219E-5 -2.1234172401141476E-4 -0.0027766630238393194 6.408478005852284E-5 -2.5872871696667694E-5 -2.1397993427499573E-5 4.25683322954443E-6 -1.127913024448129E-5 -7.888939034941837E-6 2.6764527184447104E-6 7.884084370207648E-6 -7.770050477528963E-5 1.0972229546695617E-27 -9.386452372957648E-28 -3.0951677849551215E-28 7.131576171239112E-28 1.8171658861602908E-28 -3.1211564095270657E-28 1.793263984559351E-28 -1.1467101470498163E-28 1.146014323784128E-28 1.2255835429007975E-28 -6.755369563037524E-29 1.139937209899685E-28 2.956201541154727E-29 6.113190853649399E-29 -6.704457282295447E-29 2.448759516591545E-29 -3.7213502579960536E-29 -1.1330922802359377E-29 1.3616889637569094E-32
music 15.36294814608029 -12.0443966417999 6.168754896591232 -16.575855515932023 3.0700589357011205 -2.7396459933126223 8.74536261342208 -18.199475979134053 5.701695164635201 -15.870352228494653 12.684539343493444 -9.277320143473576 4.7597386053550785 -3.369671527866449 2.973282112849149 -10.819966574762036 8.405514440003142 -5.191291120860729 5.533795366865908 -1.916435855463337 3.984316596159603 -10.14419716859415 1.0726969567373965 -6.201223931429097 5.006375384521941 -11.867230295779375 3.1743648723568922 -7.789390783810388 -1.6531629627603206 -1.9891524055278405 2.574760843896251 -10.87651391918146 8.746747524846416 -3.207262608906057 2.381576401930785 -17.12915303120492 5.658270380499545 -5.657782941720922 4.187730717615911 -51.21713866108308 5.857191168085233 0.14414668924188223 0.49141033588057587 -22.723554851751462 7.869222074136651 -1.540213514289551 13.39394815252384 -19.437590272477237 6.259506520824929 -14.945994983854177 3.88555747937538 -1.3145989053643745 1.8934862100051173 -4.679433453483573 6.4650439427140345 -2.2905103083330687 5.561111515526397 -4.940049296250714 7.024703899311403 -10.331771564706926 38.52944521758605 -72.58656527710538 78.78037217480595 -53.80038594930632 0.5781345493989636 -6.97229127821995 1.8802068441057862 -10.836062773231554 3.400414199099342 -226.89499078918087 4074.5364974158147 36.8008395992336 -13.146165822392353 69.3634057241162 -20.096010739189666 42.173754119565814 -17.398838453473456 45.01878886948717 -11.471046744248438 16.451062301548372 -5.457436704765964 4.580822050627182 -10.730098011438393 0.8107326798848453 -7.810845895655457 16.39391878869635 -11.077302271817752 -0.28500281207020584 12.825195980480538 22.63524967663921 -8.490572572403414 69.5604444965958 -7.9938135130780426 15.077386993955356 -5.391722256411621 4.248750351312328 -6.354646549980489 2.1042977421653934 -2.4200271108346296 0.5565854118962362 -3.4895454080142514 2.345576955601345 -0.10970590552082628 4.680497674579726 -0.9576427536842446 1.5100914777063523 -0.07474147346889529 2.9514919298923274 -1.7923564000373953 1.2582626929449707 -2.3432284962651764 1.1995458847820233 -1.7021552062803578 0.4938218748056236 -0.8278109384536663 10.248448841021835 -12.321492557404573 1.577885991690691 -0.7267356354688086 1.152091976515773 -0.32345644078723224 0.6174764260708814 -0.9114936744198984 1.4784830519931453 -0.29051629048216754 0.3222947621785979 -0.8931123228279743 0.27894776753518125 -0.3349197631020907 1.442314592131917 -0.6887241809498343 0.1835269274367998 -0.2215444871779007 0.6508235326799515 0.9135705397713049 0.02457317689308933 -0.7724058876995351 0.34375944637922234 -0.39065628931685215 1.1438961521144064 -0.31585495304228234 -1.5671201599222573 -2.145121571535418 0.7193147932157202 -0.7616938015375037 0.9569546957636411 -0.4364042905508135 8.569832961242131 -0.1610324665965922 0.27527877316730104 -0.5051453657966136 0.48618141820913074 -0.05271248972576817 0.3559382947170095 0.20383557570720542 -0.09128054029775018 1.5009965588524643 -0.6139907926399244 1.6664109732154162 -0.5811058733524045 0.48671615217648995 -0.36204037819564483 0.21183479645137593 -0.5052217139220848 0.47192136860714995 -0.21487667058853957 0.17827943111382147 -0.10364432427889962 0.08976950613261095 -1.2671152659553564 0.05059525374544263 -0.2246367498934529 0.03465301226368134 -0.35856196744652313 0.19030200760234833 -0.03714138445353449 0.21163178839697783 -0.14310625691873816 0.19046928635111554 -0.3897860163921325 0.035232682140907835 -0.310967055944477 0.47345437212665337 -0.03878727003903205 0.33787660047940377 0.14863562359531082 0.09249220424311329 -0.036286641594334215 0.09498954936484104 -0.12209250973065025 0.6697402074063068 -0.33718849754042746 0.027727049808769257 -0.15535486967688195 -0.14894258276836764 -0.03366983739932858 0.16803091548460436 -0.06887390176935058 0.06243964484662935 -0.03364312404448543 0.27070517937854266 -0.048962047739256165 0.09753863173669192 -0.02965422454426161 0.03553091107141891 0.03806797695025145 0.07041146024275691 -0.05224348359089428 0.025261570575934582 -0.04323728866017324 0.059241740540097405 -0.06537702465143204 0.4791262477401139 -0.19422218049839185 0.05565943977684282 -0.09979898208771905 0.040494464212891705 -0.32051047062163573 -0.012575515406448873 -0.9458039909563547 0.059154792144276276 -0.045715292231336906 0.049685234948983296 -0.0251578023258122 -0.053962062643958475 -0.04153441990604708 0.11867993210793425 -0.026066198053826317 0.05980035722785591 -0.12345292972192295 0.04704079676798141 -0.026817483042428883 0.27091141805517455 -0.09169995975402938 0.03571062149541445 -0.06646438771673234 0.10034051254940189 0.003485363085307648 -0.019481912934001897 -0.025771065657494478 0.062318494000243675 -0.03363009034235769 0.050736863083016955 0.006736056570960783 0.5730419833334405 -0.017857921236315834 0.02447749565903326 -0.007325720653792478 0.01069556850174649 -0.04031556681375083 0.01971911230941183 -0.03163734258120759 0.007195468581153871 -0.03872535917952094 0.015733496402591814 0.044049611979360054 0.026120110799475404 -0.021823167734873392 0.055639522619844214 -0.03816458171177061 0.04119089611705928 -0.020669045230499304 0.5868802340487753 0.04068946732304655 0.008675051604762693 -0.016607767849778285 0.03257831103465651 -0.0033415897651818253 0.0037819825005686787 -0.04948190022699382 0.010586289259611168 -0.01917326515948734 0.005106391264755751 -0.02448497691291983 0.018578496761323643 -0.020532571214755647 0.005978628676128549 -0.039385353626538465 0.009719432708796228 -0.004947981399129348 0.025695073066359198 -0.013933140203005168 0.003950616670550607 -0.008709854456681935 0.03254898839163737 -0.010663426662460411 0.022080100219809506 0.005444629821253032 0.03763565550983211 -0.007708682511282883 0.23072982040960816 -0.0071604341600480835 0.006422435136398433 -0.0023110645814647932 0.006819404160439384 -0.008480629829851214 0.002506930624385938 -0.0022862842746926727 0.012494124932753136 -0.0026924566807429435 0.008234200330618025 -0.0033422418568366985 0.022436203819855265 -0.004162678694653047 0.007808924768616354 -0.003113328315455576 0.0013675779036326444 1.7533638053942802E-4 0.005862631342335669 -0.002457258827051359 0.008145085678495374 -0.002088552047313719 -5.796384160928498E-4 -0.0018457673332609738 0.006890610812410989 -0.001877645719628557 -0.03442488300929832 -0.0011604235521845306 0.0023128185179357584 -0.037644068018803 0.004928560894503795 -0.0014828079065632117 6.154287926863402E-5 -6.145489381955161E-4 8.455253804487168E-4 -0.002023810921876194 0.0036085912930976767 -0.003232046388416005 3.084291183285872E-4 -0.006647306203997506 1.8674382013829718E-4 -0.0033959938054747996 7.634244716845825E-4 -8.27710387136374E-4 9.787976694632414E-4 -0.013332595880157682 6.715041866164587E-4 -1.177220289808929E-4 0.009540320533916449 -0.00437571654942948 8.814736163792865E-5 -2.9450729837017037E-4 0.002489588690437445 -3.5406774856320465E-4 6.405370977637093E-4 -0.0035627076157232675 5.102539479253968E-4 -6.228316093777907E-5 5.898726368540989E-4 -0.014557851484786812 0.0025844761951987314 -2.6766063363553583E-4 2.852361427049008E-4 -9.748624816699565E-4 9.255045306306635E-4 -1.366652642186925E-4 0.002710010302774466 -0.002363846679262238 0.0016830137266063763 -1.453529654871343E-4 3.1875372386541473E-4 -6.330744203840032E-5 8.517628322635193E-4 -1.94488458085869E-4 4.909012748482743E-5 -7.643913096283348E-4 0.002590662043554348 -3.815795638212139E-4 -0.002895693847077744 3.3218581039787433E-4 0.0014394840293980604 1.2630778590186757E-4 0.006786587377213569 -9.892699541034057E-4 0.01760773450854556 -0.001295591378425919 4.044774279670525E-4 -0.0017943605403091087 8.456068083171269E-5 -3.850168256944779E-4 1.7064321806912046E-4 -0.0013787163162095062 -0.0015267588088488195 0.01124067054896081 -2.977504795366406E-4 0.02465146760705176 -0.007850470844850237 -3.697206321583143E-6 1.0676001991043809E-4 0.0014752029573178458 -7.535915325511309E-6 -0.0017322500570518464 1.1680453675729812E-4 -1.737420111532323E-4 1.6614963287804143E-4 7.469958578633788E-5 -2.6186485500405554E-5 -6.395026495531665E-5 1.2219794586253396E-4 7.401170431512575E-6 1.4092900134121662E-5 2.951798502088749E-5 3.647418899775184E-5 -8.047516442946318E-6 2.4791063931871163E-5 4.071976670954469E-5 -3.3163683359229115E-5 -9.147487264845777E-5 -0.0014183871627304221 2.3499339429548772E-5 2.0661856540076166E-6 -3.5023523257690334E-6 -3.6791897771385054E-7 -1.2008898084288827E-6 3.621229430447692E-7 2.1893760800459725E-6 -6.347953034902837E-6 1.6094866041453437E-4 2.6819816536745103E-27 1.745310990252595E-27 -4.668821814810857E-28 3.6108600817298775E-28 1.2271414697653627E-28 -7.896539273106511E-29 6.479164229722625E-29 -9.697401546172196E-30 -4.1197560440945674E-30 -3.1526965567909447E-31 -2.699342818521464E-30 3.92292406492391E-30 -2.415425342528033E-30 6.7057663657481845E-31 7.247603465872889E-31 -2.203680864563571E-31 3.512728971047669E-31 -3.893454754684547E-31 5.231687563349731E-34
record 59.13573180704809 -8.049040459570078 17.860677676831912 -77.99645146014934 5.428634038498833 -29.58326028510283 14.307940939312017 -13.136795866162988 11.53504002550183 -8.66545936784818 36.49098135622152 -17.407619992239706 10.464061892005752 -19.102295398649932 12.168947007980712 -22.211589858104144 3.8815896687192457 0.8802460526736791 13.146650721961409 -31.26787855374353 18.861786626750657 -6.462883219028036 14.934031221028121 -33.72578865307278 0.6081761085451614 -18.759540840397886 7.767574069355096 -21.498218398291407 -1.9524612327720043 -53.67480317652243 14.404260904331254 -23.885206290877765 14.038023663462745 -8.967834524887596 11.509326561037005 -21.791871010681177 20.720696674482216 -19.911236381730316 17.885611591749974 -68.73112128910877 30.996643738136925 -18.521732641338737 486.2114091624386 -5562.00664884852 -1709.449876325849 138.27791530951225 -140.06415341865807 43.807211652670105 -77.85427458949415 23.469289075836983 -14.743424663197878 8.354981676505727 -27.98913146894242 10.702133015236342 -16.63060130937239 8.478811143190608 -31.293066261559442 8.694916924900495 -27.556392369346042 9.948313581630053 -24.660363992316565 11.90478839850323 -0.9433090127319301 6.569864509092667 -3.0622243651449033 4.3490134662324405 -21.41424568483556 2.436878786164731 -2.852842928018279 1.9587916985150466 -13.508364688192836 3.5372099830134798 -5.3045781374858185 2.6243729059589636 -8.368489353553397 5.983298463625944 -2.366858040236374 2.8482336872718093 -9.29752854107571 1.6880498486041011 -2.2002090935134095 2.088673458870435 -4.331637131425852 0.5187349676908763 -3.206706589100869 3.4365759481271714 -3.10820400258629 4.840315034904448 0.950272518233305 3.6544403221869173 -2.725670916775355 2.623489673678684 -1.7184444486177841 -0.1333854187732994 -1.6180210905316612 0.8973907132040195 -1.0315144628413553 2.088483496872023 -1.4707258071364528 3.9253581718521207 -1.971236893903746 1.1415870693725834 0.12042446890374912 0.1438329908520874 -0.929780298409485 0.9884052400847324 -0.5458310094577192 0.7759754713941058 -0.6845066938299503 0.6162043350278406 -1.1405966768775193 0.9597858027329994 -0.7262442157996973 0.4752456945042175 -0.7709172944016053 1.3763149653445312 -0.5043246964136487 0.5843631811965845 -2.4779215876369087 -0.03278096941095914 -0.38493256155677985 0.35123157086686335 -0.6464992523994868 0.6844351166394207 -0.35149082646847996 0.28967353419689984 -0.42337870640740144 0.5303389446987059 -1.2737200309537997 0.367588370682855 -0.8639250705410466 1.2981524903754853 -0.8285522281666822 0.5136191470116515 0.4606027540989363 0.39187915014137 -1.8019276160047544 0.37023941849625525 -2.528029558073697 0.6381525381369371 -0.08752735743298487 -0.3145801795343006 -0.5451580711064766 0.48413351539786714 -0.26979268720278954 0.28030980524904614 -0.6963986829488564 0.68118978427507 -0.2125426700948878 0.444904717855764 -0.49035970039628657 0.6131119213873083 -1.0876135128051616 0.3993779154533516 0.019829445023085087 -0.8075546532956646 0.19281143781840168 -0.25035205252009934 0.15033371104647875 -0.29364035835922214 0.3905671479595806 -0.2094255434289586 0.3000587964800529 -0.3678083367305499 0.34408446465719883 -0.12375514529044371 0.14764256176633261 -0.22535284758049207 0.8167654955634668 -0.4414182684471767 0.19277844624788068 -0.2467633380781555 0.2084416247771169 -0.2021126392940208 0.07127847499827412 -0.055659712409821586 0.13069577126529433 -0.3723561996504076 0.21754042842388246 -0.10614904760999565 0.37570975576947485 -0.05684314339401241 0.14373516558783428 -0.09744597222494358 0.3588328906710732 0.08401953942416497 0.1452952622413388 -0.3513655092936838 0.08455958720916486 -0.43598953921575173 0.19180441201974835 -0.39550298681808255 0.11328748407222712 -0.04905487513263094 -0.02873428456406599 -0.16777646888618195 0.04769371571165075 -0.11175102392714516 0.07603986423388769 -0.1468281340378592 0.0779616724024039 -0.07759950758838136 0.07363196621680806 -0.05658472197684407 0.03864847115762709 0.004006877370002863 0.0475476765869549 -0.04693994239943283 0.0645091838769937 -0.06691769971510031 0.0883014607142954 -0.059039552218245375 0.034948488138806084 -0.01086069204025085 0.14143115270616838 -0.09027147460201625 0.03634395872181282 -0.05980592635335223 0.003921098336449554 -0.058031812905281664 0.03232939748129348 -0.028057733747562173 0.08654701808547571 -0.036322733177439365 -0.033591638747450026 -0.04004572688630569 0.012855096189558735 -0.08380248019927522 0.08281956741014125 -0.07863692871655133 0.09373907218149959 -0.253250364934387 0.03069909570797383 -0.011709223219911361 0.17122353975186141 -0.035107630965413306 0.040087396565694586 0.01915843857832101 0.013099567407972317 -0.032871804290960926 0.022701415030351127 -0.01944956510898727 0.006164659419867847 0.00441192227857868 0.01372266245930598 -0.01527805145223212 0.03053945754226424 -0.0201729677908172 0.16736630859407386 -0.03753517333176748 0.00819711736451762 -0.025827339059166222 0.01740450061443989 -0.10361801601993545 0.06004685094343409 0.01996710769952464 -0.011084317914745635 -0.011304031076538436 0.006516759875843796 -0.005869645424704905 0.01602235011799839 -0.019400916569272772 0.04980091328835615 -0.009775858474387564 0.01182860062276487 -0.004493999166314168 0.004378248260576241 -0.025710079176568954 0.1902667505289256 -0.03200842243150798 0.0033849371219208725 -0.012543141699976506 0.02459496138011748 -0.013155924602972227 0.011911642194551 -0.0038454940914572295 0.014579493451190887 -0.010496269562572578 0.013177176642666594 -0.04191911262915377 0.010882844461061142 -0.016304497841814446 0.005267973754494568 -0.009201816537863335 0.06999551043369015 -0.010882585585345984 0.007332916344857003 0.004875113733598584 0.007037856046296136 -0.007190141021152214 0.008051849186479911 -0.0035656064331908524 0.024494221889020708 -0.013266217654273764 0.01108270490612123 -0.008911343846785937 0.006294509940385444 -0.008498141933132508 0.006745828665086175 -0.0041102115360392225 8.602073758624182E-4 -0.0015387798435418688 0.0038616475654030618 -0.012626098874601827 0.004918071107269426 -0.0015837708920164672 0.0018851574565318175 0.0016296914989264541 0.001114951709466628 -0.005013484440041142 0.002619011421479587 -0.0022515314516883887 -3.099876207706102E-4 -0.008526266231034014 0.017150612972534285 -0.009722211418824196 -9.442594086233659E-4 -0.002530643387743279 0.001071772191063805 -9.888028758652163E-4 8.763843936029146E-4 -0.0040166139204339275 0.004316595335819998 -0.005981332712633121 0.004871614369181084 -0.001284972660663719 0.004431575658673581 -0.001919097907001774 -2.3235444612576124E-4 -0.0021172308519700114 0.0019268157050424293 -1.8596968225018822E-4 0.007316547408084759 -0.007477945216482187 0.0021088124767504944 -0.0026329353533205133 0.0014757208028324332 -0.008818409481313468 0.006858749595351516 -0.0016704739929536794 -3.594923965708675E-5 -0.0013638008465428708 0.002143078957570384 -4.48492970326618E-4 4.4784931431151497E-4 -3.1064787335766824E-4 2.7850219016998303E-4 -8.748306014023103E-5 0.0031431233757162704 -2.1337101928677887E-4 2.688443610193982E-4 -0.0015206808571308933 2.9195181968703427E-4 -9.66424339019493E-5 0.0011695943043802987 -1.6860946259592122E-4 2.681747758764977E-4 -1.0351288329162574E-4 1.3573276294847218E-4 -0.0014997906945677575 6.124820635971249E-4 -0.0015966046924433474 1.760083039501572E-4 -2.303445007428294E-4 -9.183128742870187E-5 -0.0018601742956588054 -0.010466000152242354 -9.411465275416768E-4 -0.0016981012688934336 -0.0016594213462787155 0.002001001437344139 -3.3209870850979534E-4 4.2774570670452036E-4 5.382141153731521E-4 -0.015191441666581065 0.0010358557195929714 1.9987869863497874E-4 3.312009994503243E-5 -8.966183679912523E-5 -2.3762995815989336E-4 6.426994578598365E-4 -0.0010493835247463038 -0.0011661576490900904 0.008740212596590937 1.1582518821734476E-5 0.003591257410811805 -0.001715629787799194 3.5650162801523726E-5 1.6015872056819817E-5 0.0031960163761350665 -6.755520613999562E-5 -8.944083880463356E-4 -3.729241615375612E-5 -7.866838020770796E-6 -4.987881904595411E-6 2.6865400775329693E-5 -2.9057520675961876E-5 -2.66300883734808E-5 3.967670661691889E-4 -4.5277319348087396E-5 4.640125179546955E-5 3.5200123301428523E-6 -7.424621930251679E-6 -8.133385901652381E-6 4.655071787299854E-6 3.3843302834492943E-5 3.941962768547581E-6 3.0170330285761178E-5 9.781837090105847E-4 9.94722932838969E-6 -6.502670555550712E-7 -1.89089613929934E-6 1.7451684779315813E-7 -1.2067391230429661E-6 5.547209114310739E-7 1.4019390131049044E-6 2.1209848382654054E-6 -4.748751586559351E-5 4.3467428853370465E-29 -9.064535994669078E-28 4.1334578342360296E-29 -4.894266267519266E-28 -2.9839072497928883E-28 7.007024876844113E-29 -1.1588509879118093E-29 3.765482407102054E-30 -3.8396939590466665E-29 2.6285585530476216E-29 -4.9611757853279573E-29 1.366023438392066E-29 -2.751874643224865E-30 5.012078308039746E-30 -2.5953666013187228E-30 1.668419239799688E-30 -5.4035468021190555E-31 7.638511315978504E-31 1.6199854355110465E-34
energy 22.88229599901939 -9.314265036481338 19.529613090995554 -22.285811876835155 14.181261035043802 -33.04017339172466 30.341421750779638 -19.42602150415198 8.78477201496371 -15.900184284872589 40.78496439214617 -13.272243116667488 6.0931302018788065 -10.56770694922783 22.32780719767557 -12.399512644480993 10.520559926860205 12.12665541930323 17.170729435487978 -4.2318096030259476 3.478642596813887 -8.61860801921175 5.976241203146243 -11.133027626525216 17.215389704020076 -8.87633260110913 15.41939422368634 -12.924928428755111 23.546585594606544 -2.6477161973939567 9.26720467350595 -74.65178623977475 0.3675237319526109 -29.001175452036946 5.376961256428404 -59.522097638831085 16.95147529967904 -8.79433947685605 23.67663085088006 -129.52896546211682 18.104442299852522 -16.500601025202407 566.7392645127079 -205.93369100461774 376.0938351621585 -5702.587094120535 -180.24508461547921 40.21145560242651 -102.75133771551324 161.5286397033604 36.5562208856411 -5.738056466632597 -38.739630824306104 2.1201957962174647 -16.73087547520652 -2.688731347651543 -10.9816738079635 42.48296128402758 -15.827235507990205 14.328092914200697 -6.7962639947910946 23.061837501747274 7.852606075135555 2.2279570335468573 -33.78789054540073 3.6657243638012886 -2.0816539055146372 23.303425572076506 0.504897121297317 0.9079390715355926 -2.050274047305662 3.862858509663493 -5.917873245797633 2.4522740507465515 -2.5608142411943224 2.9626441168415503 -10.274927489015608 1.2923752489628224 -3.0992420715295994 0.015732837619423744 -1.253766067447232 1.821890013662845 -2.921500863706309 0.6613668916517701 -1.7282700825911528 3.5487446239094 -3.813864727178193 0.8792355496907784 1.9014378680494313 9.056774946039017 -0.10187839055855041 -0.3742493592723684 -1.4049124495697805 -0.13108539476898262 -2.5366412481369918 1.5568904928425542 -0.8704083372267739 3.67798436535925 -2.216256120392961 2.7235720423588257 -5.270993370987123 1.0243938890019266 0.044709139504907854 0.6061848614948872 -0.3779282439320017 0.5778268793695042 -0.25396138795955187 3.4894227779145894 -0.9847372607691164 0.5984181306654222 -1.5832669743765053 1.6512334281090713 -0.912671351279826 0.773894353853812 -0.51651153834832 0.30665478453021716 -0.32536903375632015 0.195842965310328 -0.6657327313023147 0.055666561102895286 -0.28372454288293764 1.152244195504593 -0.667913977750614 0.6642120729583568 -0.2921160214519663 0.5207439698116608 -0.19421197881401134 0.576523625221163 -1.495753918156931 0.13680411934313472 -1.7146321093486743 1.01266900005968 -1.9590278590196823 1.295237388992654 0.15951223086694805 0.028681528359795636 -1.317810646118691 0.6897143390990713 -1.151172191042068 1.264236417140567 -2.5391325324630896 -0.4602900652121309 -0.42892818986775644 0.7103766496687263 -0.08512885789738077 0.2321040809320916 -0.3727396644698793 0.21962713487115076 -0.07357048151461512 0.22931371698245837 -0.22620584801278557 0.7108635884280483 0.009781301567907536 0.19684009988682702 0.1597335792307233 -0.10706141368993187 0.26582042089898517 -0.155790518472552 0.12656183584254227 -0.1565887128010321 0.27417660186066123 -0.7973511242690037 0.40453788226083565 -0.22053102409174774 0.1553152324922939 -0.2532973278963934 0.334144745417656 -0.21866367434142595 0.11557590623146193 -0.2549249183302591 0.058316512888811775 -0.5873087757057059 -0.002959338951883103 -0.25083622267821143 0.3115647326363995 -0.020139344233322008 0.23278346179788048 -0.14572495951468642 0.5282748311861999 -0.06446053675821102 0.3861247722537272 -0.3212062372748244 0.15217208938566187 -0.08649404652563789 0.1530978891348317 0.1599344028259093 0.07644090214253348 -0.12470118245979973 0.10009858740068944 -0.057759715686560506 0.06713804389771351 -0.09247890691303173 0.13674256403999593 -0.14615883433105972 -0.14910788142659595 -0.0650313771613535 0.048281403261097304 -0.0462997556188999 0.011697323121679738 -0.1716177455480821 0.05266193882953408 -0.7160619605744477 -0.14772190421265136 -0.03364224866601418 0.06896269379968498 0.03972150692409475 0.04111668162048212 -0.03197711538814002 0.06243583542792893 -0.08834940905515157 0.11450693862442295 -0.11545439043245793 0.045123627305184884 -0.018264178429781404 0.12054808548974852 -0.11101215803601674 0.05402953347818352 -0.6047017413000153 -0.14565075558809898 0.044984928070222294 0.042708173019949024 -0.09885416824215285 0.02873733655670616 -0.03164553214826625 -0.19471851155935005 -0.03504241083125836 0.01993562928036339 -0.045576229868899296 0.028497797998967463 -0.04539380401801808 0.014242226864450884 -0.007776359812029543 0.03354192753538836 -0.028074971591485906 0.009961715203750436 -0.017707578089296478 0.06315751298442684 -0.0013996083614202944 -0.03200885231994285 -0.02591102041546002 0.02030802848260063 -0.043232027359490076 0.039339277463569036 -0.040412855199962947 0.007884859779155397 -0.027124391792632475 0.1280121704247237 0.012851174154217368 0.01533518430076499 -0.024642030814166934 0.009953130050216754 -0.024601651443464035 0.024611033019595975 -0.014664915556345401 0.01716509049919178 0.015619844318220331 0.004735012062532555 -0.03512216657333893 0.04264668927049944 -0.01132373512859961 0.004126979616402711 -0.018458520091777564 0.02246379897803274 -0.053530464915933725 0.04018151906889205 -0.008135935161289529 0.017542164588217196 -0.0033328934907241904 0.013433054922263063 -0.012359841299935379 0.007950572018789421 -0.06428906859573066 0.015589062909559564 -0.010553134779579561 0.005090571016531211 -0.003690655011577697 0.024951958713779043 -0.009568380617534624 0.007651263113358998 -0.00558611441690404 0.00606916382844244 -0.0018301052920903038 0.015015544121799677 -0.004858689977467866 0.020539648411130082 -0.006289573354542733 0.0066382719144768435 0.0025345607832387078 0.013722192877241643 -0.006705215837630485 0.0019503150013677197 -0.03599441754701365 0.024392592057516354 -0.0035756094005539745 0.007008866004397296 -0.0019990064749239845 0.006671297771116435 -0.010637744963860088 0.008762982802605266 -0.0021008336392858264 0.010808833190097455 -0.0017869677958558868 0.004667986367239691 -0.0012076663209418228 0.004073552224473729 -0.006832113392094619 0.0011817104969662818 -1.5730648758072522E-5 0.004270550623127954 -0.0013267285186390825 0.0034735056701389643 -0.0022251742932401664 -0.003286275204177876 -0.011600294146098786 0.001064166556110754 -0.0062007030793050505 -9.497338701766465E-4 -0.002412364155688389 0.006842600709526291 -0.0011179499526292164 0.0011865518201633516 -0.007821222075057402 0.004037353281139765 -0.029639420774994273 0.001368732842472341 -0.012012285159377798 0.0018038682106289953 -0.0012387407227098148 0.0021892933837659692 -0.001016727473035479 0.005398011143036095 -0.007324167146001039 0.0022259688740765217 -0.0019400181737673522 5.424219579228035E-4 -0.002012743708871415 8.355293002024184E-4 3.96719239858653E-4 7.6024873858251E-4 -0.001725325262105244 0.0010497716544133175 -2.9830687187009736E-4 3.144478629615257E-4 -0.004889239036417659 4.4173484561203867E-4 -0.0017841530163246833 0.0022476379894648827 -0.00393968264745135 5.030842090073631E-4 -0.0016344767638695268 0.0016871662075373115 -3.704410825602118E-4 0.0015563253862332434 -2.1404220486247023E-4 0.001301309162399401 -1.5599774065354506E-4 0.003909470351142275 -0.0013983392612734854 1.8760581040083525E-4 -3.160071893085455E-4 0.012768640061395966 -0.0015942912764528574 -1.6652810073570243E-4 1.8170212574361495E-5 7.131038340465449E-4 -7.375821341663744E-4 0.050231490175462516 0.0038396877538630783 0.007273628185449748 8.160407393259898E-4 -4.2385005816685374E-4 7.044951349745839E-4 -8.075790998195122E-4 -0.002554778177091994 0.03809506654987021 -0.002736340410157775 1.0947841452886662E-4 -2.548042722689136E-4 1.6079771899614643E-4 -2.4107033212629944E-4 3.933098599281233E-5 2.2805583032871435E-4 3.44697584130327E-4 -0.0026565761131013364 -2.1185185190749953E-4 0.013487140034812613 -0.004388018471942979 -5.9219696948551934E-5 9.175677496974954E-4 -0.00117544402611752 4.930341040558576E-5 -5.606137523836794E-4 1.6013481479240478E-4 -4.4175321819546994E-5 -5.3488313073739715E-6 4.7927876399445437E-4 -8.098600209243224E-5 -2.8267993063408458E-5 7.990214751841217E-5 6.334365258106893E-6 -1.751606567940219E-6 2.138169032113599E-5 2.5583298125203888E-5 -1.0235847660014848E-5 1.1301969070176725E-5 9.727853613398948E-6 -1.4080044653103114E-5 2.8537107371479724E-5 5.408998128405117E-4 1.061856512919095E-5 1.8442080170233524E-7 -4.612466969285999E-6 -1.0785505482388215E-6 -9.925153403547664E-7 -4.067326950440692E-7 3.0899145354031966E-7 2.49517564929042E-6 -5.3138937464085586E-5 1.034103882275356E-28 -2.4178065225139637E-28 6.140665247932645E-28 4.392397666126101E-28 -5.170014519605534E-28 7.458725751869115E-29 8.266641788177615E-30 4.097513779972545E-29 -4.7555041359674526E-30 2.1897909335197292E-30 -2.222080741016038E-30 -2.272136827449816E-30 9.438515844268327E-31 -1.473732878123213E-30 3.98060569294144E-31 4.9940521980503355E-31 -1.1720306905773805E-31 5.5463791909084035E-31 4.956825952150434E-34
announcement 3.829794187054872 -1.4700094958583885 5.838409558325608 -1.703082726773294 5.712665464466873 -2.5725799758636496 3.488351090468262 -1.780618294069058 4.063225171435879 -1.980177817796581 4.793753041940843 -2.0167233079984745 1.1701388415480476 -3.179026304924753 1.3685706525261145 -2.5245690256955093 3.0642976334784393 -1.5307436952165154 0.6142147526603366 -0.8465888651224881 0.5029477587569166 -0.5028300004536247 2.3132542645391783 -1.7371709873085832 2.072442064361405 -0.8069782025866058 1.9535628036570596 -1.2570296761575734 2.5324212637720818 -0.563755541179252 1.371159777280457 -2.101511683615545 0.5133694607898958 -1.142404692431955 0.17897435475761309 -1.8362853357771889 0.7440894280497081 -0.7828208230464114 0.42604978182986886 -1.7552289685831421 1.0236598255131022 -0.3499318804355952 1.1880285988366266 -0.8548796961332535 0.7216843938877552 -1.1849792002053354 1.061088323874499 -1.501566436932008 1.284567209043649 -0.8088491369355697 0.4943741177645516 -0.2919795771995128 1.2413249750760764 -0.15565746342068112 1.4020015308255498 -0.05953533986822532 0.4795114040248635 -0.5126456479764472 0.8392830861694904 -1.366305448508145 0.5771548311446404 -0.927077152596776 0.1771014016265245 -0.3973628468391225 2.0624091923108194 -0.3485029386613516 0.5191682310381801 -0.9380442685837245 0.8578631518143599 -0.1899048691886208 0.6123706406461785 -0.6360738574233693 1.0424064815196221 -1.5335739006124764 0.9554833434790712 -1.2050839939636995 0.6434460574696587 -1.1366755248475318 2.592942791875652 0.5350666984128865 0.5291327899274386 -0.471583072247469 1.2811894027302786 -1.1549803879311566 0.41013549985745723 -0.3526364818461155 0.6752128973081724 -0.4107340695994163 -0.1838562318973256 -1.4426969612877896 0.49429562535027644 -0.9914049868988307 0.5648889902212811 0.17820198709490137 1.652958425371277 -0.31407959429374976 1.1579353498624896 -1.3822642636689773 1.0336829989304255 -1.9343139291258948 1.0192522571766651 -1.2664030250421736 -0.25234777863990887 -1.9077712082078302 0.5384715919866826 -0.5203735917938986 0.08560103574441251 -1.301727242432616 1.9839405178450473 -0.5099382746263466 0.7208197389075924 -1.4613078010037033 0.9894335828347303 -1.190250393579161 0.6620446613282163 -1.1374337498235485 0.750775537500311 -0.5089992184612576 1.8046391624071045 -0.292466981334387 1.5361214723302365 -0.9631645528107309 0.5465033366622638 -0.9871077677315762 1.254852161364827 -0.6704595940101928 0.8180132002615602 -0.2512249429281812 1.2258253255678624 -0.20501985764278827 0.7811429099078104 -2.125140358460453 1.0151559744976497 -1.415502661977888 -1.6268551387368595 -1.2401379363511211 2.123346337965418 -0.7350798360156721 2.0030661704532795 -1.3554481727310979 0.8568924532449332 0.6360085912248055 1.4538779922926872 -1.035244829341662 0.598483313483467 -1.6236862464372037 0.36321570743637616 -0.7004743032048348 0.606711255093439 -1.5074479876997453 1.6619411833711453 -5.455054579031161 0.8034643620041905 -3.2033506663524323 -1.9442530338623611 1.8925645795834127 -5.706179878941929 3.3905023187723846 -2.6775200718658367 4.04837935992345 -3.8569615462920397 6.369295119784728 -5.603748663573384 18.21229593588052 -26.980632836781414 55.80751060962687 -1604.0513791538383 -42.644847232651394 7.750727754994018 -13.936454604573257 2.4073797462882336 -4.559883760192862 1.7418012719955795 -3.868433162671508 0.41041439764033305 -0.3007061648640348 1.0556678571744131 -1.6810769634368388 1.280624713180515 -0.6346028867674659 0.8215202369509136 -1.1254944093184782 0.2972283687336101 -0.5691192089612624 0.4482336458695371 0.3483926086668975 0.2815367544181422 -1.6467807139829618 0.26211739569435627 -0.9317587833955523 0.12518205311976907 -0.6930321809333402 0.26032636623979 -0.4477250187377504 -0.5065234962615047 -0.17074710228796855 0.13904936449229965 -0.46830544855645884 0.01458441109412965 -0.4761461896950274 0.130190182627701 -0.233542941174548 0.07056628240050145 -0.07684347371150009 0.07380791495519051 0.09153599594295163 0.07647329287008198 -0.06053339539585754 0.0763521862672591 -0.0649620059197993 0.07443733988301816 -0.11474633054123351 0.0657657109455099 -0.05061449122945187 0.27845755725570026 -0.03285491114633479 0.11447355293533693 -0.20930758199830077 0.03018264220487638 -0.2935784950259806 0.12923770293444864 -0.13121848422715898 0.037472676401441855 -0.04695003853439535 -0.048864860640830635 -0.02454202079845764 0.07198648535406539 -0.16136989862023704 0.07926041978367065 -0.024055809933741196 0.037813983300259306 -0.10092922234622552 0.044526976363558936 -0.02829834207407068 0.21048849224918761 -0.06480373281214556 0.1725083025039776 -0.08236335994091946 0.05848528522444295 -0.03196602555391859 0.03028808937605898 -0.12504700011452288 0.035175624571692585 -0.03445227733098047 0.029044745924441683 -0.034105889927955414 0.10251840065658234 -0.21703192068615942 0.05876692662480288 -0.026567229068442652 0.022245607237454848 -0.09889400162348563 0.019533156839792117 -0.022980115576088173 0.14575652488477442 0.02709383498840136 -0.00423942011215449 -0.061056520674721636 0.04023248462393224 -0.01361908276615849 0.017436750797684992 -0.017038043011757573 0.02190110410058406 -0.015587919515774335 0.016479709398421277 -0.02450146983723349 0.01753217858672594 -0.03450513173740896 0.039920176989976866 -0.039851446848544116 0.011896362996567718 -0.03040588854617975 0.017811509012336465 -0.05266166831776053 0.009786712353749415 -0.05144121965739381 0.017166764629744487 -0.01004330742338593 0.00931283789274267 -0.03171033234317467 0.02983728930672213 -0.0027106462688234116 0.05124628514314786 -0.023852717253109078 0.02167877332978686 -0.01359733123269121 0.01694260274358574 0.0038095046125844806 0.007119179471813259 -0.008648981145826675 0.018960689280157345 -0.03460246743102325 0.013270449370788183 -0.02295268996755183 0.005952189854468501 -0.025361025379660205 0.0050376630093150795 -0.02549158924742826 0.006074107215719189 -0.005964331890984918 0.005508494618655949 -0.005750777521113717 0.010932594033349643 -0.014275446688162758 0.007348195352011726 -0.007234561541120831 0.004452209236313059 3.4683761348100657E-4 0.003836636030809751 -0.00512401489442777 0.0048111889253601 -0.004773747236554836 -0.0019843124949502195 -0.004435444473736829 0.005565315215561822 -0.010197763380033979 -0.003135111002902741 -0.008663340386413816 0.005842654088451774 -0.002849038157462059 0.0030149900860923897 -0.005594497145007855 0.0034940753607694166 -0.002555571078535137 0.0020671201235364155 -0.005392776172570183 0.0019131049774932872 -0.002728422334659996 0.001396323351074215 -0.0033085686259744012 0.0019272532631322307 -0.0013797883124960222 0.01829242607824425 -0.0024811542432908204 0.0019456578355437025 -0.0014323034170299336 0.001745633231520026 -0.0011398339435600257 0.002173201904468993 -0.0010279914005281898 6.912623861257426E-4 -8.900032511348334E-4 0.0010534683911058993 -0.002126930389083662 0.0016050623290379564 -7.824929424153652E-4 0.0013767824018264196 -4.173627522633588E-4 9.109905082140381E-4 -8.181814996808919E-4 0.007743159487116408 -7.616789050970141E-4 9.023499795337157E-4 -0.0030687552889468424 8.201361955243648E-4 -4.6919734454309867E-4 8.339044031049575E-4 -7.458775173311442E-4 0.005177460350652604 -7.204151092253749E-4 5.04668017543102E-4 -5.512496371302461E-4 3.3533533717563076E-4 -4.319790226880694E-4 3.128490694248639E-4 -3.964363190430094E-4 0.01778499705641093 0.0010678141911930558 0.0021174976390385724 1.5416292632030318E-4 1.3074579111431252E-4 -0.0022835459874842204 -8.676099671441981E-6 -4.26940285217613E-4 0.012382453784972975 -0.0010694713595498226 2.1499544253788494E-4 -2.7637081382795285E-4 2.2299817792864648E-4 -2.322910368920021E-4 1.2303265884838055E-4 -1.3582038515669618E-4 2.042700669468392E-4 -1.3986230492787243E-4 2.673137989900736E-4 -0.003862338679830187 0.002066195391670525 1.3168344802234392E-5 5.573813341675082E-5 -0.002346155629654684 -1.723084020615631E-5 8.006276988306372E-4 1.0835380775369811E-4 -5.8135565120510675E-5 2.156406305537498E-5 5.855416480413686E-7 1.5859657652406866E-5 -3.011929828523749E-5 5.867057133820733E-5 3.507627069003726E-5 -3.122603398739757E-5 -1.9687291004934024E-5 1.4956858523703423E-5 2.971914761193925E-6 -9.070043348597306E-6 2.383859265681751E-5 -8.557321295023816E-6 9.973848173227038E-5 0.0021281307542970855 1.5330454544743398E-5 -5.1824853857802086E-6 -4.132118115861862E-6 3.960262935628402E-7 -3.072730353658252E-6 6.755092627352831E-7 7.9000894708869E-7 8.963564354453324E-7 -1.509693882804805E-5 -2.5784633898330532E-27 1.5025636381083029E-28 8.210225036620837E-28 -2.790126264369825E-28 6.115239385539617E-28 -1.79755409231791E-28 1.9734454475084234E-28 -2.325915097308558E-28 2.1315077361043486E-28 1.1679183505370378E-28 2.7554041143895043E-29 6.722615116201098E-29 2.4235412942396476E-29 -2.9055733602635315E-29 1.7289587805265373E-29 -1.3889157920849346E-29 4.2825781243298796E-30 -6.905684989300813E-30 -4.569944964113189E-33
